booster[0]:
0:[f3<7364] yes=1,no=2,missing=1
	1:[f5<11.5] yes=3,no=4,missing=3
		3:[f8<47.5] yes=7,no=8,missing=7
			7:[f4<1881.5] yes=15,no=16,missing=15
				15:[f1<27.5] yes=31,no=32,missing=31
					31:leaf=-0.0599807
					32:leaf=-0.0586942
				16:[f8<12.5] yes=33,no=34,missing=33
					33:leaf=-0.0538144
					34:leaf=-0.0257143
			8:[f4<1881.5] yes=17,no=18,missing=17
				17:[f1<31.5] yes=35,no=36,missing=36
					35:leaf=-0.0569806
					36:leaf=-0.047553
				18:[f1<35.5] yes=37,no=38,missing=38
					37:leaf=-0.0382677
					38:leaf=-0.0014248
		4:[f8<50.5] yes=9,no=10,missing=9
			9:[f5<14715] yes=19,no=20,missing=20
				19:[f8<27.5] yes=39,no=40,missing=39
					39:leaf=-0.0547937
					40:leaf=-0.041736
				20:[f5<40000] yes=41,no=42,missing=42
					41:leaf=-0.0114894
					42:leaf=0.0415385
			10:[f4<1894.5] yes=21,no=22,missing=21
				21:[f5<2275] yes=43,no=44,missing=44
					43:leaf=-0.0251563
					44:leaf=0.00743119
				22:[f1<31.5] yes=45,no=46,missing=46
					45:leaf=-0.045
					46:leaf=0.0380769
	2:[f3<10041] yes=5,no=6,missing=6
		5:[f3<7937] yes=11,no=12,missing=12
			11:[f6<2069.88] yes=23,no=24,missing=24
				23:[f8<38] yes=47,no=48,missing=47
					47:leaf=-0.0105882
					48:leaf=0.0298723
				24:[f7<5.5] yes=49,no=50,missing=49
					49:leaf=-0.054
					50:leaf=-0.009
			12:[f3<9000] yes=25,no=26,missing=26
				25:leaf=-0.0564179
				26:[f5<1174] yes=51,no=52,missing=51
					51:leaf=-0.027
					52:leaf=0.0225
		6:[f8<37.5] yes=13,no=14,missing=14
			13:[f1<55] yes=27,no=28,missing=28
				27:leaf=-0.0517241
				28:[f3<12881] yes=53,no=54,missing=54
					53:leaf=-0
					54:leaf=0.0461538
			14:[f5<0.5] yes=29,no=30,missing=29
				29:[f1<64.5] yes=55,no=56,missing=56
					55:leaf=0.0422508
					56:leaf=-0.015
				30:[f6<251.33] yes=57,no=58,missing=58
					57:leaf=-0
					58:leaf=0.0535878
booster[1]:
0:[f3<7364] yes=1,no=2,missing=1
	1:[f5<0.5] yes=3,no=4,missing=3
		3:[f8<47.5] yes=7,no=8,missing=7
			7:[f4<1881.5] yes=15,no=16,missing=15
				15:[f8<35.5] yes=31,no=32,missing=31
					31:leaf=-0.0578973
					32:leaf=-0.0553715
				16:[f8<12.5] yes=33,no=34,missing=33
					33:leaf=-0.0523032
					34:leaf=-0.0234574
			8:[f4<1881.5] yes=17,no=18,missing=17
				17:[f1<29.5] yes=35,no=36,missing=36
					35:leaf=-0.0562602
					36:leaf=-0.0467678
				18:[f4<1978.5] yes=37,no=38,missing=38
					37:leaf=0.00348295
					38:leaf=-0.0278409
		4:[f8<50.5] yes=9,no=10,missing=9
			9:[f5<14715] yes=19,no=20,missing=20
				19:[f8<27.5] yes=39,no=40,missing=39
					39:leaf=-0.0534748
					40:leaf=-0.0421354
				20:[f5<40000] yes=41,no=42,missing=42
					41:leaf=-0.0111597
					42:leaf=0.040688
			10:[f4<1894.5] yes=21,no=22,missing=21
				21:[f5<148] yes=43,no=44,missing=44
					43:leaf=-0.0341669
					44:leaf=-0.0146067
				22:[f1<31.5] yes=45,no=46,missing=46
					45:leaf=-0.0440044
					46:leaf=0.037298
	2:[f3<10041] yes=5,no=6,missing=6
		5:[f3<7937] yes=11,no=12,missing=12
			11:[f6<2069.88] yes=23,no=24,missing=24
				23:[f8<38] yes=47,no=48,missing=47
					47:leaf=-0.0103082
					48:leaf=0.0289978
				24:[f7<5.5] yes=49,no=50,missing=49
					49:leaf=-0.0525768
					50:leaf=-0.00875716
			12:[f3<9000] yes=25,no=26,missing=26
				25:leaf=-0.0548679
				26:[f7<5] yes=51,no=52,missing=51
					51:leaf=-0.0266092
					52:leaf=0.0228319
		6:[f8<37.5] yes=13,no=14,missing=14
			13:[f1<55] yes=27,no=28,missing=28
				27:leaf=-0.0504158
				28:[f5<750] yes=53,no=54,missing=53
					53:leaf=-0.00048462
					54:leaf=0.0453691
			14:[f5<0.5] yes=29,no=30,missing=29
				29:[f1<65.5] yes=55,no=56,missing=56
					55:leaf=0.0405657
					56:leaf=-0.0184595
				30:[f6<251.33] yes=57,no=58,missing=58
					57:leaf=-0
					58:leaf=0.0520339
booster[2]:
0:[f3<7364] yes=1,no=2,missing=1
	1:[f5<11.5] yes=3,no=4,missing=3
		3:[f8<47.5] yes=7,no=8,missing=7
			7:[f4<1881.5] yes=15,no=16,missing=15
				15:[f1<27.5] yes=31,no=32,missing=31
					31:leaf=-0.0566477
					32:leaf=-0.0553981
				16:[f4<1989] yes=33,no=34,missing=34
					33:leaf=-0.0210102
					34:leaf=-0.0489507
			8:[f4<1881.5] yes=17,no=18,missing=17
				17:[f1<29.5] yes=35,no=36,missing=36
					35:leaf=-0.0547284
					36:leaf=-0.0451936
				18:[f1<35.5] yes=37,no=38,missing=38
					37:leaf=-0.0367304
					38:leaf=-0.00112806
		4:[f8<50.5] yes=9,no=10,missing=9
			9:[f5<8975] yes=19,no=20,missing=20
				19:[f8<27.5] yes=39,no=40,missing=39
					39:leaf=-0.052636
					40:leaf=-0.0399074
				20:[f5<18239.5] yes=41,no=42,missing=42
					41:leaf=-0.0299797
					42:leaf=0.0027211
			10:[f4<1975.5] yes=21,no=22,missing=21
				21:[f5<2275] yes=43,no=44,missing=44
					43:leaf=-0.0233519
					44:leaf=0.00784898
				22:[f1<31.5] yes=45,no=46,missing=46
					45:leaf=-0.0344399
					46:leaf=0.044351
	2:[f3<10041] yes=5,no=6,missing=6
		5:[f3<7937] yes=11,no=12,missing=12
			11:[f6<2069.88] yes=23,no=24,missing=24
				23:[f8<38] yes=47,no=48,missing=47
					47:leaf=-0.0100361
					48:leaf=0.0281608
				24:[f7<5.5] yes=49,no=50,missing=49
					49:leaf=-0.0512559
					50:leaf=-0.00852117
			12:[f3<9000] yes=25,no=26,missing=26
				25:leaf=-0.0534371
				26:[f7<5] yes=51,no=52,missing=51
					51:leaf=-0.0258995
					52:leaf=0.0223176
		6:[f8<37.5] yes=13,no=14,missing=14
			13:[f1<55] yes=27,no=28,missing=28
				27:leaf=-0.0491953
				28:[f5<750] yes=53,no=54,missing=53
					53:leaf=-0.000472987
					54:leaf=0.0442641
			14:[f1<80] yes=29,no=30,missing=30
				29:[f5<0.5] yes=55,no=56,missing=55
					55:leaf=0.0359916
					56:leaf=0.0497583
				30:[f5<48000] yes=57,no=58,missing=58
					57:leaf=0.0187283
					58:leaf=-0.0354037
booster[3]:
0:[f3<7364] yes=1,no=2,missing=1
	1:[f5<0.5] yes=3,no=4,missing=3
		3:[f8<47.5] yes=7,no=8,missing=7
			7:[f4<1881.5] yes=15,no=16,missing=15
				15:[f8<35.5] yes=31,no=32,missing=31
					31:leaf=-0.0548477
					32:leaf=-0.0523822
				16:[f8<12.5] yes=33,no=34,missing=33
					33:leaf=-0.0497856
					34:leaf=-0.0218623
			8:[f4<1881.5] yes=17,no=18,missing=17
				17:[f1<29.5] yes=35,no=36,missing=36
					35:leaf=-0.0532719
					36:leaf=-0.0442054
				18:[f1<35.5] yes=37,no=38,missing=38
					37:leaf=-0.0357097
					38:leaf=-0.00111266
		4:[f8<50.5] yes=9,no=10,missing=9
			9:[f5<8975] yes=19,no=20,missing=20
				19:[f8<27.5] yes=39,no=40,missing=39
					39:leaf=-0.0514827
					40:leaf=-0.0403686
				20:[f5<18239.5] yes=41,no=42,missing=42
					41:leaf=-0.0291458
					42:leaf=0.00264391
			10:[f4<1894.5] yes=21,no=22,missing=21
				21:[f5<194.5] yes=43,no=44,missing=44
					43:leaf=-0.0313609
					44:leaf=-0.0127841
				22:[f1<31.5] yes=45,no=46,missing=46
					45:leaf=-0.042461
					46:leaf=0.0355097
	2:[f3<10041] yes=5,no=6,missing=6
		5:[f3<7937] yes=11,no=12,missing=12
			11:[f6<2069.88] yes=23,no=24,missing=24
				23:[f8<38] yes=47,no=48,missing=47
					47:leaf=-0.00977156
					48:leaf=0.0273583
				24:[f7<5.5] yes=49,no=50,missing=49
					49:leaf=-0.0500266
					50:leaf=-0.00829182
			12:[f5<1174] yes=25,no=26,missing=25
				25:[f6<661.325] yes=51,no=52,missing=52
					51:leaf=0.00143176
					52:leaf=-0.0463762
				26:[f1<75.5] yes=53,no=54,missing=54
					53:leaf=0.041501
					54:leaf=-0.0343226
		6:[f8<37.5] yes=13,no=14,missing=14
			13:[f1<55] yes=27,no=28,missing=28
				27:leaf=-0.048054
				28:[f3<12881] yes=55,no=56,missing=56
					55:leaf=-0.000928244
					56:leaf=0.0435638
			14:[f5<0.5] yes=29,no=30,missing=29
				29:[f1<64.5] yes=57,no=58,missing=58
					57:leaf=0.0388716
					58:leaf=-0.01496
				30:[f6<251.33] yes=59,no=60,missing=60
					59:leaf=-0.000895795
					60:leaf=0.0492847
booster[4]:
0:[f3<7364] yes=1,no=2,missing=1
	1:[f5<11.5] yes=3,no=4,missing=3
		3:[f8<47.5] yes=7,no=8,missing=7
			7:[f4<1881.5] yes=15,no=16,missing=15
				15:[f1<27.5] yes=31,no=32,missing=31
					31:leaf=-0.0538366
					32:leaf=-0.0526064
				16:[f8<12.5] yes=33,no=34,missing=33
					33:leaf=-0.0485582
					34:leaf=-0.0227346
			8:[f4<1881.5] yes=17,no=18,missing=17
				17:[f1<31.5] yes=35,no=36,missing=36
					35:leaf=-0.0511269
					36:leaf=-0.0424293
				18:[f1<35.5] yes=37,no=38,missing=38
					37:leaf=-0.0347382
					38:leaf=-0.00106309
		4:[f8<44.5] yes=9,no=10,missing=9
			9:[f5<14715] yes=19,no=20,missing=20
				19:[f5<2901] yes=39,no=40,missing=40
					39:leaf=-0.0498268
					40:leaf=-0.0382791
				20:[f6<2725.76] yes=41,no=42,missing=42
					41:leaf=0.00296362
					42:leaf=-0.0446136
			10:[f4<1975.5] yes=21,no=22,missing=21
				21:[f5<2275] yes=43,no=44,missing=44
					43:leaf=-0.0231383
					44:leaf=0.00654963
				22:[f5<61.5] yes=45,no=46,missing=46
					45:leaf=-0.0132055
					46:leaf=0.0440197
	2:[f3<10041] yes=5,no=6,missing=6
		5:[f3<7937] yes=11,no=12,missing=12
			11:[f6<2069.88] yes=23,no=24,missing=24
				23:[f8<38] yes=47,no=48,missing=47
					47:leaf=-0.0095144
					48:leaf=0.0265881
				24:[f7<5.5] yes=49,no=50,missing=49
					49:leaf=-0.0488797
					50:leaf=-0.00806887
			12:[f3<9000] yes=25,no=26,missing=26
				25:leaf=-0.0510289
				26:[f7<5] yes=51,no=52,missing=51
					51:leaf=-0.0246345
					52:leaf=0.0223779
		6:[f8<37.5] yes=13,no=14,missing=14
			13:[f1<55] yes=27,no=28,missing=28
				27:leaf=-0.0469845
				28:[f5<750] yes=53,no=54,missing=53
					53:leaf=-0.000906534
					54:leaf=0.0425609
			14:[f1<80] yes=29,no=30,missing=30
				29:[f3<23582] yes=55,no=56,missing=56
					55:leaf=0.0370298
					56:leaf=0.05208
				30:[f5<48000] yes=57,no=58,missing=58
					57:leaf=0.0178496
					58:leaf=-0.0345284
booster[5]:
0:[f3<7364] yes=1,no=2,missing=1
	1:[f5<0.5] yes=3,no=4,missing=3
		3:[f8<47.5] yes=7,no=8,missing=7
			7:[f4<1881.5] yes=15,no=16,missing=15
				15:[f8<35.5] yes=31,no=32,missing=31
					31:leaf=-0.0522566
					32:leaf=-0.0498202
				16:[f8<12.5] yes=33,no=34,missing=33
					33:leaf=-0.0474108
					34:leaf=-0.0206515
			8:[f4<1881.5] yes=17,no=18,missing=17
				17:[f1<29.5] yes=35,no=36,missing=36
					35:leaf=-0.0507351
					36:leaf=-0.0419312
				18:[f4<1978.5] yes=37,no=38,missing=38
					37:leaf=0.00401971
					38:leaf=-0.0259458
		4:[f8<50.5] yes=9,no=10,missing=9
			9:[f5<8975] yes=19,no=20,missing=20
				19:[f8<27.5] yes=39,no=40,missing=39
					39:leaf=-0.0490182
					40:leaf=-0.0382964
				20:[f5<18239.5] yes=41,no=42,missing=42
					41:leaf=-0.0275148
					42:leaf=0.00271104
			10:[f4<1894.5] yes=21,no=22,missing=21
				21:[f5<148] yes=43,no=44,missing=44
					43:leaf=-0.0306717
					44:leaf=-0.0126586
				22:[f1<31.5] yes=45,no=46,missing=46
					45:leaf=-0.0418153
					46:leaf=0.033966
	2:[f3<10041] yes=5,no=6,missing=6
		5:[f3<7937] yes=11,no=12,missing=12
			11:[f6<2069.88] yes=23,no=24,missing=24
				23:[f8<38] yes=47,no=48,missing=47
					47:leaf=-0.00926435
					48:leaf=0.0258477
				24:[f7<5.5] yes=49,no=50,missing=49
					49:leaf=-0.0478072
					50:leaf=-0.00785213
			12:[f5<1174] yes=25,no=26,missing=25
				25:[f6<661.325] yes=51,no=52,missing=52
					51:leaf=0.0018501
					52:leaf=-0.0443088
				26:[f1<75.5] yes=53,no=54,missing=54
					53:leaf=0.0408526
					54:leaf=-0.0331343
		6:[f8<37.5] yes=13,no=14,missing=14
			13:[f1<55] yes=27,no=28,missing=28
				27:leaf=-0.0459799
				28:[f3<12881] yes=55,no=56,missing=56
					55:leaf=-0.00134064
					56:leaf=0.0419368
			14:[f5<0.5] yes=29,no=30,missing=29
				29:[f1<64.5] yes=57,no=58,missing=58
					57:leaf=0.0367385
					58:leaf=-0.0152281
				30:[f6<251.33] yes=59,no=60,missing=60
					59:leaf=-0.00168248
					60:leaf=0.047033
booster[6]:
0:[f3<7364] yes=1,no=2,missing=1
	1:[f5<0.5] yes=3,no=4,missing=3
		3:[f8<47.5] yes=7,no=8,missing=7
			7:[f4<1881.5] yes=15,no=16,missing=15
				15:[f1<27.5] yes=31,no=32,missing=31
					31:leaf=-0.051437
					32:leaf=-0.0501968
				16:[f8<12.5] yes=33,no=34,missing=33
					33:leaf=-0.0463355
					34:leaf=-0.0200964
			8:[f4<1881.5] yes=17,no=18,missing=17
				17:[f1<29.5] yes=35,no=36,missing=36
					35:leaf=-0.0495897
					36:leaf=-0.0408879
				18:[f4<1978.5] yes=37,no=38,missing=38
					37:leaf=0.00390068
					38:leaf=-0.0252118
		4:[f8<50.5] yes=9,no=10,missing=9
			9:[f5<8975] yes=19,no=20,missing=20
				19:[f8<27.5] yes=39,no=40,missing=39
					39:leaf=-0.0478861
					40:leaf=-0.0373125
				20:[f5<40000] yes=41,no=42,missing=42
					41:leaf=-0.0216598
					42:leaf=0.0396624
			10:[f4<1975.5] yes=21,no=22,missing=21
				21:[f1<33.5] yes=43,no=44,missing=44
					43:leaf=-0.0377414
					44:leaf=-0.0149759
				22:[f1<31.5] yes=45,no=46,missing=46
					45:leaf=-0.0331928
					46:leaf=0.0407129
	2:[f3<10041] yes=5,no=6,missing=6
		5:[f3<7937] yes=11,no=12,missing=12
			11:[f6<2069.88] yes=23,no=24,missing=24
				23:[f8<38] yes=47,no=48,missing=47
					47:leaf=-0.00902119
					48:leaf=0.0251353
				24:[f7<5.5] yes=49,no=50,missing=49
					49:leaf=-0.046802
					50:leaf=-0.00764141
			12:[f3<9000] yes=25,no=26,missing=26
				25:leaf=-0.0489273
				26:[f7<5] yes=51,no=52,missing=51
					51:leaf=-0.0234703
					52:leaf=0.022418
		6:[f8<37.5] yes=13,no=14,missing=14
			13:[f1<55] yes=27,no=28,missing=28
				27:leaf=-0.0450345
				28:[f5<40.5] yes=53,no=54,missing=53
					53:leaf=-0.00485789
					54:leaf=0.0387019
			14:[f5<0.5] yes=29,no=30,missing=29
				29:[f1<65.5] yes=55,no=56,missing=56
					55:leaf=0.0353791
					56:leaf=-0.0183552
				30:[f6<251.33] yes=57,no=58,missing=58
					57:leaf=-0.00165214
					58:leaf=0.0459255
booster[7]:
0:[f3<7364] yes=1,no=2,missing=1
	1:[f8<47.5] yes=3,no=4,missing=3
		3:[f5<2901] yes=7,no=8,missing=7
			7:[f8<25.5] yes=15,no=16,missing=15
				15:[f3<7055.5] yes=31,no=32,missing=31
					31:leaf=-0.0500028
					32:leaf=-0.0148573
				16:[f5<174.5] yes=33,no=34,missing=33
					33:leaf=-0.047879
					34:leaf=-0.0338923
			8:[f5<18239.5] yes=17,no=18,missing=18
				17:[f8<33] yes=35,no=36,missing=35
					35:leaf=-0.0358635
					36:leaf=-0.00397211
				18:[f6<2725.76] yes=37,no=38,missing=38
					37:leaf=0.0164895
					38:leaf=-0.0432349
		4:[f5<114] yes=9,no=10,missing=9
			9:[f1<34.5] yes=19,no=20,missing=20
				19:[f1<29.5] yes=39,no=40,missing=40
					39:leaf=-0.0484911
					40:leaf=-0.0428311
				20:[f4<1881.5] yes=41,no=42,missing=41
					41:leaf=-0.0378946
					42:leaf=-0.00271751
			10:[f4<1894.5] yes=21,no=22,missing=21
				21:[f7<5.5] yes=43,no=44,missing=44
					43:leaf=-0.0211638
					44:leaf=-0.00349645
				22:[f1<31.5] yes=45,no=46,missing=46
					45:leaf=-0.0373554
					46:leaf=0.0401847
	2:[f3<10041] yes=5,no=6,missing=6
		5:[f3<7937] yes=11,no=12,missing=12
			11:[f6<2069.88] yes=23,no=24,missing=24
				23:[f8<38] yes=47,no=48,missing=47
					47:leaf=-0.00878469
					48:leaf=0.0244489
				24:[f7<5.5] yes=49,no=50,missing=49
					49:leaf=-0.045858
					50:leaf=-0.00743651
			12:[f5<1174] yes=25,no=26,missing=25
				25:[f6<661.325] yes=51,no=52,missing=52
					51:leaf=0.00224027
					52:leaf=-0.0424672
				26:[f1<75.5] yes=53,no=54,missing=54
					53:leaf=0.040223
					54:leaf=-0.0320412
		6:[f8<37.5] yes=13,no=14,missing=14
			13:[f1<55] yes=27,no=28,missing=28
				27:leaf=-0.0441431
				28:[f3<12881] yes=55,no=56,missing=56
					55:leaf=-0.00178017
					56:leaf=0.0404729
			14:[f5<0.5] yes=29,no=30,missing=29
				29:[f1<64.5] yes=57,no=58,missing=58
					57:leaf=0.0349008
					58:leaf=-0.0145285
				30:[f6<251.33] yes=59,no=60,missing=60
					59:leaf=-0.00162236
					60:leaf=0.0448847
booster[8]:
0:[f3<7364] yes=1,no=2,missing=1
	1:[f8<47.5] yes=3,no=4,missing=3
		3:[f5<2901] yes=7,no=8,missing=7
			7:[f8<25.5] yes=15,no=16,missing=15
				15:[f3<7055.5] yes=31,no=32,missing=31
					31:leaf=-0.0490015
					32:leaf=-0.0145552
				16:[f5<174.5] yes=33,no=34,missing=33
					33:leaf=-0.0468883
					34:leaf=-0.0330598
			8:[f5<18239.5] yes=17,no=18,missing=18
				17:[f8<33] yes=35,no=36,missing=35
					35:leaf=-0.0350003
					36:leaf=-0.00386468
				18:[f6<2725.76] yes=37,no=38,missing=38
					37:leaf=0.0160313
					38:leaf=-0.0423336
		4:[f5<114] yes=9,no=10,missing=9
			9:[f1<34.5] yes=19,no=20,missing=20
				19:[f1<29.5] yes=39,no=40,missing=40
					39:leaf=-0.0474858
					40:leaf=-0.041841
				20:[f4<1881.5] yes=41,no=42,missing=41
					41:leaf=-0.0369827
					42:leaf=-0.00263675
			10:[f4<1894.5] yes=21,no=22,missing=21
				21:[f7<5.5] yes=43,no=44,missing=44
					43:leaf=-0.0205601
					44:leaf=-0.00339264
				22:[f1<31.5] yes=45,no=46,missing=46
					45:leaf=-0.0366947
					46:leaf=0.039156
	2:[f3<10041] yes=5,no=6,missing=6
		5:[f3<7937] yes=11,no=12,missing=12
			11:[f6<2069.88] yes=23,no=24,missing=24
				23:[f8<38] yes=47,no=48,missing=47
					47:leaf=-0.00855464
					48:leaf=0.023787
				24:[f7<5.5] yes=49,no=50,missing=49
					49:leaf=-0.0449696
					50:leaf=-0.00723726
			12:[f3<9000] yes=25,no=26,missing=26
				25:leaf=-0.0470783
				26:[f7<5] yes=51,no=52,missing=51
					51:leaf=-0.0223937
					52:leaf=0.0224414
		6:[f8<37.5] yes=13,no=14,missing=14
			13:[f5<750] yes=27,no=28,missing=27
				27:[f1<56.5] yes=53,no=54,missing=54
					53:leaf=-0.0433011
					54:leaf=-0.00178752
				28:leaf=0.0396641
			14:[f5<0.5] yes=29,no=30,missing=29
				29:[f1<65.5] yes=55,no=56,missing=56
					55:leaf=0.0336386
					56:leaf=-0.0174908
				30:[f6<251.33] yes=57,no=58,missing=58
					57:leaf=-0.00159311
					58:leaf=0.043904
booster[9]:
0:[f3<7364] yes=1,no=2,missing=1
	1:[f8<50.5] yes=3,no=4,missing=3
		3:[f5<2901] yes=7,no=8,missing=7
			7:[f4<1881.5] yes=15,no=16,missing=15
				15:[f8<35.5] yes=31,no=32,missing=31
					31:leaf=-0.0479783
					32:leaf=-0.0442589
				16:[f8<48.5] yes=33,no=34,missing=33
					33:leaf=-0.0339993
					34:leaf=0.0290287
			8:[f5<18239.5] yes=17,no=18,missing=18
				17:[f3<5826.5] yes=35,no=36,missing=35
					35:leaf=-0.0326244
					36:leaf=0.0223655
				18:[f5<20377] yes=37,no=38,missing=38
					37:leaf=0.026515
					38:leaf=-0.0111237
		4:[f5<114] yes=9,no=10,missing=9
			9:[f1<34.5] yes=19,no=20,missing=20
				19:[f1<29.5] yes=39,no=40,missing=40
					39:leaf=-0.0466249
					40:leaf=-0.0405854
				20:[f4<1881.5] yes=41,no=42,missing=41
					41:leaf=-0.0357833
					42:leaf=-0.00312219
			10:[f4<1894.5] yes=21,no=22,missing=21
				21:[f5<2275] yes=43,no=44,missing=44
					43:leaf=-0.0153707
					44:leaf=0.00935008
				22:[f1<31.5] yes=45,no=46,missing=46
					45:leaf=-0.0360614
					46:leaf=0.0394231
	2:[f3<10041] yes=5,no=6,missing=6
		5:[f3<7937] yes=11,no=12,missing=12
			11:[f6<2069.88] yes=23,no=24,missing=24
				23:[f8<38] yes=47,no=48,missing=47
					47:leaf=-0.00833083
					48:leaf=0.023148
				24:[f7<5.5] yes=49,no=50,missing=49
					49:leaf=-0.0441319
					50:leaf=-0.00704349
			12:[f5<1174] yes=25,no=26,missing=25
				25:[f6<661.325] yes=51,no=52,missing=52
					51:leaf=0.00260435
					52:leaf=-0.0408135
				26:[f1<75.5] yes=53,no=54,missing=54
					53:leaf=0.0396123
					54:leaf=-0.0310312
		6:[f8<37.5] yes=13,no=14,missing=14
			13:[f5<750] yes=27,no=28,missing=27
				27:[f1<56.5] yes=55,no=56,missing=56
					55:leaf=-0.0425042
					56:leaf=-0.00174456
				28:leaf=0.03886
			14:[f5<0.5] yes=29,no=30,missing=29
				29:[f1<64.5] yes=57,no=58,missing=58
					57:leaf=0.0332201
					58:leaf=-0.0138669
				30:[f6<251.33] yes=59,no=60,missing=60
					59:leaf=-0.00156439
					60:leaf=0.0429779
booster[10]:
0:[f3<7364] yes=1,no=2,missing=1
	1:[f8<47.5] yes=3,no=4,missing=3
		3:[f5<2901] yes=7,no=8,missing=7
			7:[f8<25.5] yes=15,no=16,missing=15
				15:[f3<7055.5] yes=31,no=32,missing=31
					31:leaf=-0.047195
					32:leaf=-0.0132918
				16:[f5<174.5] yes=33,no=34,missing=33
					33:leaf=-0.0450891
					34:leaf=-0.0311936
			8:[f5<18239.5] yes=17,no=18,missing=18
				17:[f8<33] yes=35,no=36,missing=35
					35:leaf=-0.0334359
					36:leaf=-0.00287675
				18:[f6<2725.76] yes=37,no=38,missing=38
					37:leaf=0.0155261
					38:leaf=-0.0414469
		4:[f5<114] yes=9,no=10,missing=9
			9:[f1<34.5] yes=19,no=20,missing=20
				19:[f1<29.5] yes=39,no=40,missing=40
					39:leaf=-0.0456611
					40:leaf=-0.0400151
				20:[f4<1881.5] yes=41,no=42,missing=41
					41:leaf=-0.0352767
					42:leaf=-0.00248476
			10:[f4<1894.5] yes=21,no=22,missing=21
				21:[f7<5.5] yes=43,no=44,missing=44
					43:leaf=-0.0196264
					44:leaf=-0.00289537
				22:[f1<31.5] yes=45,no=46,missing=46
					45:leaf=-0.0354538
					46:leaf=0.0373781
	2:[f3<10041] yes=5,no=6,missing=6
		5:[f3<7937] yes=11,no=12,missing=12
			11:[f6<2069.88] yes=23,no=24,missing=24
				23:[f8<38] yes=47,no=48,missing=47
					47:leaf=-0.00811308
					48:leaf=0.0225306
				24:[f7<5.5] yes=49,no=50,missing=49
					49:leaf=-0.0433408
					50:leaf=-0.00685502
			12:[f3<9000] yes=25,no=26,missing=26
				25:leaf=-0.0454398
				26:[f7<5] yes=51,no=52,missing=51
					51:leaf=-0.0213942
					52:leaf=0.0224512
		6:[f8<37.5] yes=13,no=14,missing=14
			13:[f1<55] yes=27,no=28,missing=28
				27:leaf=-0.0417489
				28:[f3<12881] yes=53,no=54,missing=54
					53:leaf=-0.00251434
					54:leaf=0.0386452
			14:[f3<23582] yes=29,no=30,missing=30
				29:[f5<0.5] yes=55,no=56,missing=55
					55:leaf=0.0214601
					56:leaf=0.0385544
				30:[f1<32.5] yes=57,no=58,missing=58
					57:leaf=0.0054898
					58:leaf=0.048401
booster[11]:
0:[f3<7364] yes=1,no=2,missing=1
	1:[f8<51.5] yes=3,no=4,missing=3
		3:[f5<2901] yes=7,no=8,missing=7
			7:[f4<1881.5] yes=15,no=16,missing=15
				15:[f8<35.5] yes=31,no=32,missing=31
					31:leaf=-0.0462862
					32:leaf=-0.0424584
				16:[f8<48.5] yes=33,no=34,missing=33
					33:leaf=-0.0322351
					34:leaf=0.0183768
			8:[f5<18239.5] yes=17,no=18,missing=18
				17:[f3<5826.5] yes=35,no=36,missing=35
					35:leaf=-0.0314044
					36:leaf=0.0226256
				18:[f5<20377] yes=37,no=38,missing=38
					37:leaf=0.0257391
					38:leaf=-0.0109847
		4:[f5<11.5] yes=9,no=10,missing=9
			9:[f4<1881.5] yes=19,no=20,missing=19
				19:[f1<31.5] yes=39,no=40,missing=40
					39:leaf=-0.0441863
					40:leaf=-0.0354985
				20:[f4<1978.5] yes=41,no=42,missing=42
					41:leaf=0.0041764
					42:leaf=-0.0216208
			10:[f1<33.5] yes=21,no=22,missing=22
				21:[f5<121.5] yes=43,no=44,missing=44
					43:leaf=-0.0414794
					44:leaf=-0.0232413
				22:[f5<2275] yes=45,no=46,missing=46
					45:leaf=-0.0123889
					46:leaf=0.0150178
	2:[f3<10041] yes=5,no=6,missing=6
		5:[f3<7937] yes=11,no=12,missing=12
			11:[f6<2069.88] yes=23,no=24,missing=24
				23:[f8<38] yes=47,no=48,missing=47
					47:leaf=-0.00790119
					48:leaf=0.0219336
				24:[f7<5.5] yes=49,no=50,missing=49
					49:leaf=-0.0425922
					50:leaf=-0.0066717
			12:[f5<1174] yes=25,no=26,missing=25
				25:[f8<50] yes=51,no=52,missing=52
					51:leaf=-0.0119558
					52:leaf=-0.0421682
				26:[f1<75.5] yes=53,no=54,missing=54
					53:leaf=0.0390205
					54:leaf=-0.0300942
		6:[f8<37.5] yes=13,no=14,missing=14
			13:[f5<750] yes=27,no=28,missing=27
				27:[f1<56.5] yes=55,no=56,missing=56
					55:leaf=-0.0410317
					56:leaf=-0.00207443
				28:leaf=0.0376327
			14:[f3<23582] yes=29,no=30,missing=30
				29:[f5<0.5] yes=57,no=58,missing=57
					57:leaf=0.0208968
					58:leaf=0.0377563
				30:[f1<32.5] yes=59,no=60,missing=60
					59:leaf=0.00538155
					60:leaf=0.0474908
booster[12]:
0:[f3<7364] yes=1,no=2,missing=1
	1:[f8<47.5] yes=3,no=4,missing=3
		3:[f5<2901] yes=7,no=8,missing=7
			7:[f8<25.5] yes=15,no=16,missing=15
				15:[f3<7055.5] yes=31,no=32,missing=31
					31:leaf=-0.0456089
					32:leaf=-0.0120976
				16:[f5<174.5] yes=33,no=34,missing=33
					33:leaf=-0.0434921
					34:leaf=-0.0294725
			8:[f5<18239.5] yes=17,no=18,missing=18
				17:[f8<33] yes=35,no=36,missing=35
					35:leaf=-0.0319844
					36:leaf=-0.00194611
				18:[f6<2725.76] yes=37,no=38,missing=38
					37:leaf=0.0150445
					38:leaf=-0.040608
		4:[f5<11.5] yes=9,no=10,missing=9
			9:[f4<1881.5] yes=19,no=20,missing=19
				19:[f1<31.5] yes=39,no=40,missing=40
					39:leaf=-0.0433231
					40:leaf=-0.0351231
				20:[f4<2396] yes=41,no=42,missing=42
					41:leaf=-0.0126868
					42:leaf=0.0321772
			10:[f4<1975.5] yes=21,no=22,missing=21
				21:[f1<33.5] yes=43,no=44,missing=44
					43:leaf=-0.0324427
					44:leaf=-0.0114676
				22:[f5<61.5] yes=45,no=46,missing=46
					45:leaf=-0.0141427
					46:leaf=0.0391988
	2:[f3<10041] yes=5,no=6,missing=6
		5:[f3<7937] yes=11,no=12,missing=12
			11:[f6<2069.88] yes=23,no=24,missing=24
				23:[f5<2.5] yes=47,no=48,missing=47
					47:leaf=0.0111478
					48:leaf=0.0323792
				24:[f7<5.5] yes=49,no=50,missing=49
					49:leaf=-0.0418827
					50:leaf=-0.00649338
			12:[f3<9000] yes=25,no=26,missing=26
				25:leaf=-0.0439899
				26:[f7<5] yes=51,no=52,missing=51
					51:leaf=-0.0204326
					52:leaf=0.0223232
		6:[f8<37.5] yes=13,no=14,missing=13
			13:[f5<750] yes=27,no=28,missing=27
				27:[f1<56.5] yes=53,no=54,missing=54
					53:leaf=-0.0426482
					54:leaf=-0.00376301
				28:[f3<11141.5] yes=55,no=56,missing=56
					55:leaf=0.0187699
					56:leaf=0.0432423
			14:[f1<72.5] yes=29,no=30,missing=30
				29:[f6<1207.78] yes=57,no=58,missing=58
					57:leaf=0.0264636
					58:leaf=0.0394431
				30:[f5<12.5] yes=59,no=60,missing=59
					59:leaf=-0.0405764
					60:leaf=0.0274009
booster[13]:
0:[f3<7364] yes=1,no=2,missing=1
	1:[f8<51.5] yes=3,no=4,missing=3
		3:[f5<722.5] yes=7,no=8,missing=7
			7:[f4<1881.5] yes=15,no=16,missing=15
				15:[f8<25.5] yes=31,no=32,missing=31
					31:leaf=-0.0449179
					32:leaf=-0.0422281
				16:[f8<48.5] yes=33,no=34,missing=33
					33:leaf=-0.0311449
					34:leaf=0.0141234
			8:[f8<38.5] yes=17,no=18,missing=17
				17:[f5<8975] yes=35,no=36,missing=36
					35:leaf=-0.0400106
					36:leaf=-0.0166439
				18:[f7<2.5] yes=37,no=38,missing=38
					37:leaf=0.00705164
					38:leaf=-0.0209422
		4:[f5<11.5] yes=9,no=10,missing=9
			9:[f1<31.5] yes=19,no=20,missing=20
				19:[f2<1643.5] yes=39,no=40,missing=39
					39:leaf=-0.0427086
					40:leaf=-0.00730867
				20:[f4<1881.5] yes=41,no=42,missing=41
					41:leaf=-0.0339704
					42:leaf=-0.00233131
			10:[f5<2275] yes=21,no=22,missing=22
				21:[f4<1939.5] yes=43,no=44,missing=43
					43:leaf=-0.0169218
					44:leaf=0.0290886
				22:[f7<1.5] yes=45,no=46,missing=46
					45:leaf=-0.0141426
					46:leaf=0.0230757
	2:[f3<10041] yes=5,no=6,missing=6
		5:[f3<7937] yes=11,no=12,missing=12
			11:[f6<2069.88] yes=23,no=24,missing=24
				23:[f1<46.5] yes=47,no=48,missing=48
					47:leaf=0.0246546
					48:leaf=0.00452711
				24:[f7<5.5] yes=49,no=50,missing=49
					49:leaf=-0.0412092
					50:leaf=-0.00631991
			12:[f3<9000] yes=25,no=26,missing=26
				25:leaf=-0.0432696
				26:[f7<5] yes=51,no=52,missing=51
					51:leaf=-0.0199317
					52:leaf=0.0218265
		6:[f8<37.5] yes=13,no=14,missing=13
			13:[f5<750] yes=27,no=28,missing=27
				27:[f1<56.5] yes=53,no=54,missing=54
					53:leaf=-0.0419213
					54:leaf=-0.00366076
				28:[f3<11141.5] yes=55,no=56,missing=56
					55:leaf=0.0183913
					56:leaf=0.0425102
			14:[f1<72.5] yes=29,no=30,missing=30
				29:[f6<1207.78] yes=57,no=58,missing=58
					57:leaf=0.0258466
					58:leaf=0.0386451
				30:[f5<12.5] yes=59,no=60,missing=59
					59:leaf=-0.0397727
					60:leaf=0.0270446
booster[14]:
0:[f3<7055.5] yes=1,no=2,missing=1
	1:[f8<47.5] yes=3,no=4,missing=3
		3:[f5<2901] yes=7,no=8,missing=7
			7:[f8<25.5] yes=15,no=16,missing=15
				15:[f1<40.5] yes=31,no=32,missing=31
					31:leaf=-0.0445937
					32:leaf=-0.0433493
				16:[f5<19] yes=33,no=34,missing=33
					33:leaf=-0.0422861
					34:leaf=-0.0308848
			8:[f5<14715] yes=17,no=18,missing=18
				17:[f8<33] yes=35,no=36,missing=35
					35:leaf=-0.0314552
					36:leaf=-0.00144961
				18:[f1<52.5] yes=37,no=38,missing=38
					37:leaf=-0.0419424
					38:leaf=0.00543055
		4:[f5<114] yes=9,no=10,missing=9
			9:[f1<34.5] yes=19,no=20,missing=20
				19:[f1<29.5] yes=39,no=40,missing=40
					39:leaf=-0.04276
					40:leaf=-0.036885
				20:[f4<1881.5] yes=41,no=42,missing=41
					41:leaf=-0.0324941
					42:leaf=-0.00205993
			10:[f4<1894.5] yes=21,no=22,missing=21
				21:[f7<2.5] yes=43,no=44,missing=44
					43:leaf=-0.0248084
					44:leaf=-0.00602033
				22:[f1<31.5] yes=45,no=46,missing=46
					45:leaf=-0.0350105
					46:leaf=0.0358152
	2:[f3<10041] yes=5,no=6,missing=6
		5:[f6<2062.1] yes=11,no=12,missing=12
			11:[f5<21] yes=23,no=24,missing=23
				23:[f3<7792] yes=47,no=48,missing=48
					47:leaf=-0.000494542
					48:leaf=-0.0330766
				24:[f3<7937] yes=49,no=50,missing=50
					49:leaf=0.0280922
					50:leaf=-0.0157054
			12:[f1<61.5] yes=25,no=26,missing=26
				25:[f5<17] yes=51,no=52,missing=52
					51:leaf=-0.0135235
					52:leaf=-0.0329217
				26:[f7<0.5] yes=53,no=54,missing=53
					53:leaf=-0.00302986
					54:leaf=0.0434383
		6:[f8<37.5] yes=13,no=14,missing=13
			13:[f5<750] yes=27,no=28,missing=27
				27:[f3<15427.5] yes=55,no=56,missing=56
					55:leaf=-0.0346901
					56:leaf=0.00391053
				28:[f3<11141.5] yes=57,no=58,missing=58
					57:leaf=0.0180217
					58:leaf=0.041816
			14:[f1<72.5] yes=29,no=30,missing=30
				29:[f3<22587.5] yes=59,no=60,missing=60
					59:leaf=0.0306121
					60:leaf=0.0435057
				30:[f5<12.5] yes=61,no=62,missing=61
					61:leaf=-0.0390062
					62:leaf=0.0266979
booster[15]:
0:[f3<7055.5] yes=1,no=2,missing=1
	1:[f8<47.5] yes=3,no=4,missing=3
		3:[f5<2901] yes=7,no=8,missing=7
			7:[f8<25.5] yes=15,no=16,missing=15
				15:[f1<40.5] yes=31,no=32,missing=31
					31:leaf=-0.043954
					32:leaf=-0.0427017
				16:[f5<19] yes=33,no=34,missing=33
					33:leaf=-0.041625
					34:leaf=-0.0302304
			8:[f5<18239.5] yes=17,no=18,missing=18
				17:[f7<5.5] yes=35,no=36,missing=35
					35:leaf=-0.029737
					36:leaf=0.0010902
				18:[f6<2725.76] yes=37,no=38,missing=38
					37:leaf=0.0151008
					38:leaf=-0.0396295
		4:[f5<114] yes=9,no=10,missing=9
			9:[f1<34.5] yes=19,no=20,missing=20
				19:[f1<29.5] yes=39,no=40,missing=40
					39:leaf=-0.0420911
					40:leaf=-0.0361722
				20:[f4<1881.5] yes=41,no=42,missing=41
					41:leaf=-0.0318069
					42:leaf=-0.00199875
			10:[f4<1894.5] yes=21,no=22,missing=21
				21:[f7<2.5] yes=43,no=44,missing=44
					43:leaf=-0.0241422
					44:leaf=-0.00584382
				22:[f1<31.5] yes=45,no=46,missing=46
					45:leaf=-0.0344447
					46:leaf=0.034991
	2:[f3<10041] yes=5,no=6,missing=6
		5:[f6<2062.1] yes=11,no=12,missing=12
			11:[f5<21] yes=23,no=24,missing=23
				23:[f3<7792] yes=47,no=48,missing=48
					47:leaf=-0.000479906
					48:leaf=-0.0323809
				24:[f3<7937] yes=49,no=50,missing=50
					49:leaf=0.0272948
					50:leaf=-0.0153849
			12:[f1<61.5] yes=25,no=26,missing=26
				25:[f5<17] yes=51,no=52,missing=52
					51:leaf=-0.0131919
					52:leaf=-0.0322014
				26:[f7<0.5] yes=53,no=54,missing=53
					53:leaf=-0.00297002
					54:leaf=0.0425406
		6:[f8<37.5] yes=13,no=14,missing=13
			13:[f5<750] yes=27,no=28,missing=27
				27:[f1<56.5] yes=55,no=56,missing=56
					55:leaf=-0.0408638
					56:leaf=-0.00305757
				28:[f3<11141.5] yes=57,no=58,missing=58
					57:leaf=0.0176608
					58:leaf=0.0411569
			14:[f1<72.5] yes=29,no=30,missing=30
				29:[f6<1207.78] yes=59,no=60,missing=60
					59:leaf=0.0244643
					60:leaf=0.037227
				30:[f5<12.5] yes=61,no=62,missing=61
					61:leaf=-0.0382744
					62:leaf=0.0263603
booster[16]:
0:[f3<7055.5] yes=1,no=2,missing=1
	1:[f8<45.5] yes=3,no=4,missing=3
		3:[f5<2901] yes=7,no=8,missing=7
			7:[f8<25.5] yes=15,no=16,missing=15
				15:[f1<40.5] yes=31,no=32,missing=31
					31:leaf=-0.0433507
					32:leaf=-0.0420884
				16:[f4<1881.5] yes=33,no=34,missing=33
					33:leaf=-0.0404689
					34:leaf=-0.00805408
			8:[f5<14715] yes=17,no=18,missing=18
				17:[f3<5826.5] yes=35,no=36,missing=35
					35:leaf=-0.0294648
					36:leaf=0.0250973
				18:[f1<52.5] yes=37,no=38,missing=38
					37:leaf=-0.0410499
					38:leaf=0.00545855
		4:[f5<11.5] yes=9,no=10,missing=9
			9:[f1<29.5] yes=19,no=20,missing=20
				19:[f4<2391.5] yes=39,no=40,missing=39
					39:leaf=-0.0416348
					40:leaf=0.0122636
				20:[f4<1881.5] yes=41,no=42,missing=41
					41:leaf=-0.0328199
					42:leaf=-0.00309571
			10:[f4<1975.5] yes=21,no=22,missing=21
				21:[f5<2275] yes=43,no=44,missing=44
					43:leaf=-0.0168297
					44:leaf=0.00835696
				22:[f5<61.5] yes=45,no=46,missing=46
					45:leaf=-0.0144122
					46:leaf=0.0366525
	2:[f3<10041] yes=5,no=6,missing=6
		5:[f6<2062.1] yes=11,no=12,missing=12
			11:[f5<21] yes=23,no=24,missing=23
				23:[f3<7792] yes=47,no=48,missing=48
					47:leaf=-0.000465697
					48:leaf=-0.0317097
				24:[f8<46] yes=49,no=50,missing=49
					49:leaf=-0.00498193
					50:leaf=0.0283055
			12:[f1<61.5] yes=25,no=26,missing=26
				25:[f5<17] yes=51,no=52,missing=52
					51:leaf=-0.0128685
					52:leaf=-0.0315068
				26:[f7<0.5] yes=53,no=54,missing=53
					53:leaf=-0.00291136
					54:leaf=0.041685
		6:[f8<37.5] yes=13,no=14,missing=13
			13:[f5<750] yes=27,no=28,missing=27
				27:[f3<15427.5] yes=55,no=56,missing=56
					55:leaf=-0.0334581
					56:leaf=0.00424509
				28:[f3<11141.5] yes=57,no=58,missing=58
					57:leaf=0.0173083
					58:leaf=0.0405302
			14:[f1<72.5] yes=29,no=30,missing=30
				29:[f3<22587.5] yes=59,no=60,missing=60
					59:leaf=0.0292276
					60:leaf=0.0422348
				30:[f5<12.5] yes=61,no=62,missing=61
					61:leaf=-0.0375748
					62:leaf=0.0260313
booster[17]:
0:[f3<7055.5] yes=1,no=2,missing=1
	1:[f8<47.5] yes=3,no=4,missing=3
		3:[f5<2901] yes=7,no=8,missing=7
			7:[f8<25.5] yes=15,no=16,missing=15
				15:[f1<40.5] yes=31,no=32,missing=31
					31:leaf=-0.042781
					32:leaf=-0.0415065
				16:[f5<19] yes=33,no=34,missing=33
					33:leaf=-0.0404164
					34:leaf=-0.0288147
			8:[f5<14715] yes=17,no=18,missing=18
				17:[f8<33] yes=35,no=36,missing=35
					35:leaf=-0.0296063
					36:leaf=-3.02223e-005
				18:[f1<52.5] yes=37,no=38,missing=38
					37:leaf=-0.0402686
					38:leaf=0.00530109
		4:[f5<11.5] yes=9,no=10,missing=9
			9:[f1<29.5] yes=19,no=20,missing=20
				19:[f4<2391.5] yes=39,no=40,missing=39
					39:leaf=-0.0409991
					40:leaf=0.0119644
				20:[f4<1881.5] yes=41,no=42,missing=41
					41:leaf=-0.0321139
					42:leaf=-0.00271836
			10:[f4<1975.5] yes=21,no=22,missing=21
				21:[f1<33.5] yes=43,no=44,missing=44
					43:leaf=-0.0299391
					44:leaf=-0.00998688
				22:[f5<61.5] yes=45,no=46,missing=46
					45:leaf=-0.0140557
					46:leaf=0.0358653
	2:[f3<10041] yes=5,no=6,missing=6
		5:[f6<2062.1] yes=11,no=12,missing=12
			11:[f5<21] yes=23,no=24,missing=23
				23:[f3<7792] yes=47,no=48,missing=48
					47:leaf=-0.000451912
					48:leaf=-0.031061
				24:[f3<7937] yes=49,no=50,missing=50
					49:leaf=0.0258683
					50:leaf=-0.0151346
			12:[f1<61.5] yes=25,no=26,missing=26
				25:[f5<17] yes=51,no=52,missing=52
					51:leaf=-0.0125531
					52:leaf=-0.0308361
				26:[f7<0.5] yes=53,no=54,missing=53
					53:leaf=-0.00285385
					54:leaf=0.0408685
		6:[f8<37.5] yes=13,no=14,missing=13
			13:[f5<750] yes=27,no=28,missing=27
				27:[f1<56.5] yes=55,no=56,missing=56
					55:leaf=-0.039892
					56:leaf=-0.00249506
				28:[f3<11141.5] yes=57,no=58,missing=58
					57:leaf=0.0169639
					58:leaf=0.0399332
			14:[f1<72.5] yes=29,no=30,missing=30
				29:[f6<1207.78] yes=59,no=60,missing=60
					59:leaf=0.0231627
					60:leaf=0.0359207
				30:[f5<12.5] yes=61,no=62,missing=61
					61:leaf=-0.0369053
					62:leaf=0.0257106
booster[18]:
0:[f3<7055.5] yes=1,no=2,missing=1
	1:[f8<45.5] yes=3,no=4,missing=3
		3:[f5<2901] yes=7,no=8,missing=7
			7:[f5<49] yes=15,no=16,missing=15
				15:[f4<1881.5] yes=31,no=32,missing=31
					31:leaf=-0.0417575
					32:leaf=-0.0259394
				16:[f8<25.5] yes=33,no=34,missing=33
					33:leaf=-0.0396177
					34:leaf=-0.0278321
			8:[f5<14715] yes=17,no=18,missing=18
				17:[f3<5826.5] yes=35,no=36,missing=35
					35:leaf=-0.0282698
					36:leaf=0.025208
				18:[f1<52.5] yes=37,no=38,missing=38
					37:leaf=-0.0395237
					38:leaf=0.00514828
		4:[f5<114] yes=9,no=10,missing=9
			9:[f1<34.5] yes=19,no=20,missing=20
				19:[f1<29.5] yes=39,no=40,missing=40
					39:leaf=-0.0403326
					40:leaf=-0.0343754
				20:[f4<1881.5] yes=41,no=42,missing=41
					41:leaf=-0.0299148
					42:leaf=-0.00209391
			10:[f4<1894.5] yes=21,no=22,missing=21
				21:[f5<2275] yes=43,no=44,missing=44
					43:leaf=-0.0131724
					44:leaf=0.00891822
				22:[f1<31.5] yes=45,no=46,missing=46
					45:leaf=-0.0345086
					46:leaf=0.0333005
	2:[f3<10041] yes=5,no=6,missing=6
		5:[f6<1965.1] yes=11,no=12,missing=12
			11:[f3<7937] yes=23,no=24,missing=24
				23:[f8<51] yes=47,no=48,missing=47
					47:leaf=-0.0282843
					48:leaf=0.0136224
				24:[f6<727.17] yes=49,no=50,missing=50
					49:leaf=0.0191268
					50:leaf=-0.0338836
			12:[f1<61.5] yes=25,no=26,missing=26
				25:[f1<36.5] yes=51,no=52,missing=52
					51:leaf=-0.0376484
					52:leaf=-0.0194699
				26:[f5<148] yes=53,no=54,missing=53
					53:leaf=0.0500187
					54:leaf=0.00178678
		6:[f8<37.5] yes=13,no=14,missing=13
			13:[f5<750] yes=27,no=28,missing=27
				27:[f1<56.5] yes=55,no=56,missing=56
					55:leaf=-0.0392925
					56:leaf=-0.00242756
				28:[f3<11141.5] yes=57,no=58,missing=58
					57:leaf=0.0166273
					58:leaf=0.039364
			14:[f1<72.5] yes=29,no=30,missing=30
				29:[f3<22587.5] yes=59,no=60,missing=60
					59:leaf=0.0279293
					60:leaf=0.0410832
				30:[f5<12.5] yes=61,no=62,missing=61
					61:leaf=-0.0362637
					62:leaf=0.0253977
booster[19]:
0:[f3<7055.5] yes=1,no=2,missing=1
	1:[f8<47.5] yes=3,no=4,missing=3
		3:[f5<2901] yes=7,no=8,missing=7
			7:[f8<25.5] yes=15,no=16,missing=15
				15:[f1<40.5] yes=31,no=32,missing=31
					31:leaf=-0.0417388
					32:leaf=-0.0404222
				16:[f5<19] yes=33,no=34,missing=33
					33:leaf=-0.0392837
					34:leaf=-0.0276479
			8:[f5<40000] yes=17,no=18,missing=18
				17:[f3<5826.5] yes=35,no=36,missing=35
					35:leaf=-0.0250601
					36:leaf=0.0312887
				18:leaf=0.0377977
		4:[f5<11.5] yes=9,no=10,missing=9
			9:[f1<29.5] yes=19,no=20,missing=20
				19:[f2<1643.5] yes=37,no=38,missing=37
					37:leaf=-0.0399489
					38:leaf=-0.00299617
				20:[f4<1881.5] yes=39,no=40,missing=39
					39:leaf=-0.0308911
					40:leaf=-0.00249587
			10:[f1<34.5] yes=21,no=22,missing=22
				21:[f1<29.5] yes=41,no=42,missing=42
					41:leaf=-0.0383248
					42:leaf=-0.0203304
				22:[f7<5.5] yes=43,no=44,missing=44
					43:leaf=-0.0147189
					44:leaf=0.00206098
	2:[f3<10041] yes=5,no=6,missing=6
		5:[f6<638.17] yes=11,no=12,missing=12
			11:[f8<47] yes=23,no=24,missing=23
				23:[f6<522.865] yes=45,no=46,missing=46
					45:leaf=-0.0393621
					46:leaf=0.00516857
				24:[f6<275.69] yes=47,no=48,missing=48
					47:leaf=-0.0164882
					48:leaf=0.0442639
			12:[f3<7937] yes=25,no=26,missing=26
				25:[f6<1965.1] yes=49,no=50,missing=50
					49:leaf=0.0039241
					50:leaf=-0.0187403
				26:[f3<9000] yes=51,no=52,missing=52
					51:leaf=-0.0403725
					52:leaf=-0.0132616
		6:[f8<37.5] yes=13,no=14,missing=13
			13:[f5<750] yes=27,no=28,missing=27
				27:[f3<15427.5] yes=53,no=54,missing=54
					53:leaf=-0.0319709
					54:leaf=0.00496018
				28:[f3<11141.5] yes=55,no=56,missing=56
					55:leaf=0.0162981
					56:leaf=0.0388203
			14:[f1<72.5] yes=29,no=30,missing=30
				29:[f3<22587.5] yes=57,no=58,missing=58
					57:leaf=0.027346
					58:leaf=0.0404752
				30:[f5<12.5] yes=59,no=60,missing=59
					59:leaf=-0.0356483
					60:leaf=0.0250925
booster[20]:
0:[f8<45.5] yes=1,no=2,missing=1
	1:[f3<7364] yes=3,no=4,missing=3
		3:[f5<2901] yes=7,no=8,missing=7
			7:[f5<49] yes=15,no=16,missing=15
				15:[f4<1881.5] yes=31,no=32,missing=31
					31:leaf=-0.0407535
					32:leaf=-0.0245913
				16:[f8<25.5] yes=33,no=34,missing=33
					33:leaf=-0.0383445
					34:leaf=-0.0268307
			8:[f5<14715] yes=17,no=18,missing=18
				17:[f3<5826.5] yes=35,no=36,missing=35
					35:leaf=-0.0271613
					36:leaf=0.0238351
				18:[f6<2725.76] yes=37,no=38,missing=38
					37:leaf=0.00563669
					38:leaf=-0.0387411
		4:[f5<750] yes=9,no=10,missing=9
			9:[f7<5] yes=19,no=20,missing=19
				19:[f3<15427.5] yes=39,no=40,missing=40
					39:leaf=-0.0295411
					40:leaf=0.00483207
				20:[f3<11099] yes=41,no=42,missing=42
					41:leaf=0.0305331
					42:leaf=-0.0126507
			10:[f3<10585.5] yes=21,no=22,missing=22
				21:[f5<8843.5] yes=43,no=44,missing=44
					43:leaf=0.0206752
					44:leaf=-0.0389648
				22:leaf=0.0407625
	2:[f5<11.5] yes=5,no=6,missing=5
		5:[f3<7565.5] yes=11,no=12,missing=11
			11:[f1<34.5] yes=23,no=24,missing=24
				23:[f2<1815] yes=45,no=46,missing=45
					45:leaf=-0.0372893
					46:leaf=0.0037702
				24:[f4<1881.5] yes=47,no=48,missing=47
					47:leaf=-0.0293942
					48:leaf=-0.00117679
			12:[f3<10041] yes=25,no=26,missing=26
				25:[f3<7833] yes=49,no=50,missing=50
					49:leaf=0.0110737
					50:leaf=-0.0306951
				26:[f1<65.5] yes=51,no=52,missing=52
					51:leaf=0.0262561
					52:leaf=-0.0216844
		6:[f3<7073.5] yes=13,no=14,missing=13
			13:[f4<1975.5] yes=27,no=28,missing=27
				27:[f5<968] yes=53,no=54,missing=54
					53:leaf=-0.0169613
					54:leaf=6.44133e-005
				28:[f5<61.5] yes=55,no=56,missing=56
					55:leaf=-0.0134614
					56:leaf=0.0348427
			14:[f3<9953] yes=29,no=30,missing=30
				29:[f6<1660.55] yes=57,no=58,missing=58
					57:leaf=0.0308959
					58:leaf=-0.0122036
				30:[f6<310.31] yes=59,no=60,missing=60
					59:leaf=-0.0111056
					60:leaf=0.0363517
booster[21]:
0:[f8<45.5] yes=1,no=2,missing=1
	1:[f3<7364] yes=3,no=4,missing=3
		3:[f5<2901] yes=7,no=8,missing=7
			7:[f5<49] yes=15,no=16,missing=15
				15:[f4<1881.5] yes=31,no=32,missing=31
					31:leaf=-0.0402866
					32:leaf=-0.0240941
				16:[f8<25.5] yes=33,no=34,missing=33
					33:leaf=-0.037845
					34:leaf=-0.0262901
			8:[f5<18239.5] yes=17,no=18,missing=18
				17:[f3<5826.5] yes=35,no=36,missing=35
					35:leaf=-0.0258781
					36:leaf=0.0232652
				18:[f6<2725.76] yes=37,no=38,missing=38
					37:leaf=0.014856
					38:leaf=-0.0380572
		4:[f5<750] yes=9,no=10,missing=9
			9:[f8<38] yes=19,no=20,missing=19
				19:[f3<15427.5] yes=39,no=40,missing=40
					39:leaf=-0.0277233
					40:leaf=0.00470734
				20:[f5<8] yes=41,no=42,missing=41
					41:leaf=0.0347862
					42:leaf=-0.010207
			10:[f3<10585.5] yes=21,no=22,missing=22
				21:[f5<8843.5] yes=43,no=44,missing=44
					43:leaf=0.0201522
					44:leaf=-0.0382595
				22:leaf=0.0401959
	2:[f5<0.5] yes=5,no=6,missing=5
		5:[f3<7565.5] yes=11,no=12,missing=11
			11:[f1<29.5] yes=23,no=24,missing=24
				23:[f4<2391.5] yes=45,no=46,missing=45
					45:leaf=-0.0388121
					46:leaf=0.0145782
				24:[f4<1881.5] yes=47,no=48,missing=47
					47:leaf=-0.029914
					48:leaf=-0.00261277
			12:[f3<14682] yes=25,no=26,missing=26
				25:[f3<14214] yes=49,no=50,missing=50
					49:leaf=0.00545482
					50:leaf=-0.0653656
				26:[f1<65] yes=51,no=52,missing=52
					51:leaf=0.0271742
					52:leaf=-0.0216675
		6:[f3<7073.5] yes=13,no=14,missing=13
			13:[f1<34.5] yes=27,no=28,missing=28
				27:[f1<29.5] yes=53,no=54,missing=54
					53:leaf=-0.0370467
					54:leaf=-0.0210633
				28:[f7<5.5] yes=55,no=56,missing=56
					55:leaf=-0.0155648
					56:leaf=0.00191706
			14:[f3<9953] yes=29,no=30,missing=30
				29:[f6<1660.55] yes=57,no=58,missing=58
					57:leaf=0.0229489
					58:leaf=-0.00851639
				30:[f6<310.31] yes=59,no=60,missing=60
					59:leaf=-0.010894
					60:leaf=0.0360524
booster[22]:
0:[f8<45.5] yes=1,no=2,missing=1
	1:[f3<7364] yes=3,no=4,missing=3
		3:[f5<2901] yes=7,no=8,missing=7
			7:[f5<49] yes=15,no=16,missing=15
				15:[f4<1881.5] yes=31,no=32,missing=31
					31:leaf=-0.0398422
					32:leaf=-0.0236084
				16:[f8<25.5] yes=33,no=34,missing=33
					33:leaf=-0.0373653
					34:leaf=-0.0257632
			8:[f5<14715] yes=17,no=18,missing=18
				17:[f3<5826.5] yes=35,no=36,missing=35
					35:leaf=-0.026073
					36:leaf=0.0227141
				18:[f1<52.5] yes=37,no=38,missing=38
					37:leaf=-0.0384489
					38:leaf=0.00564329
		4:[f5<750] yes=9,no=10,missing=9
			9:[f7<5] yes=19,no=20,missing=19
				19:[f3<15427.5] yes=39,no=40,missing=40
					39:leaf=-0.0282582
					40:leaf=0.0045859
				20:[f3<11099] yes=41,no=42,missing=42
					41:leaf=0.0300251
					42:leaf=-0.012323
			10:[f3<10585.5] yes=21,no=22,missing=22
				21:[f5<8843.5] yes=43,no=44,missing=44
					43:leaf=0.0196458
					44:leaf=-0.0375804
				22:leaf=0.0396556
	2:[f5<11.5] yes=5,no=6,missing=5
		5:[f3<7565.5] yes=11,no=12,missing=11
			11:[f1<29.5] yes=23,no=24,missing=24
				23:[f2<1643.5] yes=45,no=46,missing=45
					45:leaf=-0.0384278
					46:leaf=-0.00175247
				24:[f4<1881.5] yes=47,no=48,missing=47
					47:leaf=-0.0290968
					48:leaf=-0.00249301
			12:[f3<10041] yes=25,no=26,missing=26
				25:[f3<7833] yes=49,no=50,missing=50
					49:leaf=0.0105921
					50:leaf=-0.0302472
				26:[f1<65.5] yes=51,no=52,missing=52
					51:leaf=0.0252803
					52:leaf=-0.0208976
		6:[f3<7073.5] yes=13,no=14,missing=13
			13:[f4<1975.5] yes=27,no=28,missing=27
				27:[f5<968] yes=53,no=54,missing=54
					53:leaf=-0.0162006
					54:leaf=0.000402651
				28:[f5<61.5] yes=55,no=56,missing=56
					55:leaf=-0.0129228
					56:leaf=0.0343496
			14:[f1<29.5] yes=29,no=30,missing=30
				29:leaf=-0.0351458
				30:[f3<9953] yes=57,no=58,missing=58
					57:leaf=0.0151042
					58:leaf=0.0342074
booster[23]:
0:[f8<45.5] yes=1,no=2,missing=1
	1:[f3<7364] yes=3,no=4,missing=3
		3:[f5<2901] yes=7,no=8,missing=7
			7:[f5<49] yes=15,no=16,missing=15
				15:[f4<1881.5] yes=31,no=32,missing=31
					31:leaf=-0.0394189
					32:leaf=-0.0231338
				16:[f8<25.5] yes=33,no=34,missing=33
					33:leaf=-0.036904
					34:leaf=-0.0252491
			8:[f5<40000] yes=17,no=18,missing=18
				17:[f3<5826.5] yes=35,no=36,missing=35
					35:leaf=-0.02347
					36:leaf=0.0289404
				18:leaf=0.0366581
		4:[f5<750] yes=9,no=10,missing=9
			9:[f8<38] yes=19,no=20,missing=19
				19:[f3<15427.5] yes=37,no=38,missing=38
					37:leaf=-0.0265646
					38:leaf=0.00446766
				20:[f5<8] yes=39,no=40,missing=39
					39:leaf=0.0341733
					40:leaf=-0.00947287
			10:[f3<10585.5] yes=21,no=22,missing=22
				21:[f5<8843.5] yes=41,no=42,missing=42
					41:leaf=0.019155
					42:leaf=-0.0369262
				22:leaf=0.0391396
	2:[f5<0.5] yes=5,no=6,missing=5
		5:[f3<7565.5] yes=11,no=12,missing=11
			11:[f1<29.5] yes=23,no=24,missing=24
				23:[f4<2391.5] yes=43,no=44,missing=43
					43:leaf=-0.037879
					44:leaf=0.0151809
				24:[f4<1881.5] yes=45,no=46,missing=45
					45:leaf=-0.0288171
					46:leaf=-0.00246177
			12:[f3<14682] yes=25,no=26,missing=26
				25:[f3<14214] yes=47,no=48,missing=48
					47:leaf=0.00520758
					48:leaf=-0.0638792
				26:[f1<65] yes=49,no=50,missing=50
					49:leaf=0.0261217
					50:leaf=-0.0207385
		6:[f3<7073.5] yes=13,no=14,missing=13
			13:[f1<34.5] yes=27,no=28,missing=28
				27:[f1<29.5] yes=51,no=52,missing=52
					51:leaf=-0.0360641
					52:leaf=-0.0202019
				28:[f7<5.5] yes=53,no=54,missing=54
					53:leaf=-0.0148644
					54:leaf=0.00223738
			14:[f3<9953] yes=29,no=30,missing=30
				29:[f6<1660.55] yes=55,no=56,missing=56
					55:leaf=0.0221791
					56:leaf=-0.00852336
				30:[f6<310.31] yes=57,no=58,missing=58
					57:leaf=-0.0113388
					58:leaf=0.0350054
booster[24]:
0:[f8<50.5] yes=1,no=2,missing=1
	1:[f3<9000] yes=3,no=4,missing=3
		3:[f5<2901] yes=7,no=8,missing=7
			7:[f8<25.5] yes=15,no=16,missing=15
				15:[f1<40.5] yes=31,no=32,missing=31
					31:leaf=-0.0395653
					32:leaf=-0.0380814
				16:[f4<1881.5] yes=33,no=34,missing=33
					33:leaf=-0.0355224
					34:leaf=0.00134217
			8:[f3<5826.5] yes=17,no=18,missing=17
				17:[f5<40000] yes=35,no=36,missing=36
					35:leaf=-0.0222798
					36:leaf=0.0360262
				18:[f5<5206] yes=37,no=38,missing=38
					37:leaf=-0.0280217
					38:leaf=0.0498602
		4:[f5<750] yes=9,no=10,missing=9
			9:[f8<38] yes=19,no=20,missing=19
				19:[f1<56.5] yes=39,no=40,missing=40
					39:leaf=-0.0375568
					40:leaf=-0.00148465
				20:[f6<2141.43] yes=41,no=42,missing=42
					41:leaf=0.031331
					42:leaf=-0.0211659
			10:[f3<10585.5] yes=21,no=22,missing=22
				21:[f5<6343.5] yes=43,no=44,missing=44
					43:leaf=0.0305038
					44:leaf=-0.0362952
				22:leaf=0.0390552
	2:[f5<0.5] yes=5,no=6,missing=5
		5:[f3<7565.5] yes=11,no=12,missing=11
			11:[f1<29.5] yes=23,no=24,missing=24
				23:[f2<1643.5] yes=45,no=46,missing=45
					45:leaf=-0.0375901
					46:leaf=-0.000736839
				24:[f4<1881.5] yes=47,no=48,missing=47
					47:leaf=-0.0279258
					48:leaf=-0.00236742
			12:[f3<14682] yes=25,no=26,missing=26
				25:[f3<14214] yes=49,no=50,missing=50
					49:leaf=0.00435824
					50:leaf=-0.0615974
				26:[f6<1706.05] yes=51,no=52,missing=52
					51:leaf=0.0131709
					52:leaf=0.0376639
		6:[f3<7073.5] yes=13,no=14,missing=13
			13:[f1<32.5] yes=27,no=28,missing=28
				27:[f1<29.5] yes=53,no=54,missing=54
					53:leaf=-0.0359167
					54:leaf=-0.0202136
				28:[f5<2275] yes=55,no=56,missing=56
					55:leaf=-0.00965203
					56:leaf=0.0154956
			14:[f1<29.5] yes=29,no=30,missing=30
				29:leaf=-0.0364362
				30:[f3<9953] yes=57,no=58,missing=58
					57:leaf=0.0157895
					58:leaf=0.0328944
booster[25]:
0:[f8<45.5] yes=1,no=2,missing=1
	1:[f5<2901] yes=3,no=4,missing=3
		3:[f3<9000] yes=7,no=8,missing=7
			7:[f8<25.5] yes=15,no=16,missing=15
				15:[f1<40.5] yes=31,no=32,missing=31
					31:leaf=-0.0391895
					32:leaf=-0.0376806
				16:[f4<1975.5] yes=33,no=34,missing=33
					33:leaf=-0.0356756
					34:leaf=0.00967017
			8:[f6<898.62] yes=17,no=18,missing=18
				17:leaf=0.0375174
				18:[f6<1047.04] yes=35,no=36,missing=36
					35:leaf=-0.0397961
					36:leaf=0.00150429
		4:[f3<5826.5] yes=9,no=10,missing=9
			9:[f5<40000] yes=19,no=20,missing=20
				19:[f5<8975] yes=37,no=38,missing=38
					37:leaf=-0.0271172
					38:leaf=-0.0139752
				20:leaf=0.0354199
			10:[f5<5206] yes=21,no=22,missing=22
				21:[f1<69.5] yes=39,no=40,missing=40
					39:leaf=0.0238092
					40:leaf=-0.0276494
				22:[f6<872.74] yes=41,no=42,missing=42
					41:leaf=0.00761161
					42:leaf=0.0373509
	2:[f5<0.5] yes=5,no=6,missing=5
		5:[f3<7565.5] yes=11,no=12,missing=11
			11:[f1<29.5] yes=23,no=24,missing=24
				23:[f4<2391.5] yes=43,no=44,missing=43
					43:leaf=-0.0370212
					44:leaf=0.0157516
				24:[f4<1881.5] yes=45,no=46,missing=45
					45:leaf=-0.0277692
					46:leaf=-0.00232416
			12:[f3<14682] yes=25,no=26,missing=26
				25:[f3<14214] yes=47,no=48,missing=48
					47:leaf=0.00491843
					48:leaf=-0.0594953
				26:[f1<65] yes=49,no=50,missing=50
					49:leaf=0.0251218
					50:leaf=-0.0206843
		6:[f3<7073.5] yes=13,no=14,missing=13
			13:[f4<1975.5] yes=27,no=28,missing=27
				27:[f5<968] yes=51,no=52,missing=52
					51:leaf=-0.0158152
					52:leaf=0.000818453
				28:[f1<31.5] yes=53,no=54,missing=54
					53:leaf=-0.0299621
					54:leaf=0.03285
			14:[f3<9953] yes=29,no=30,missing=30
				29:[f6<1660.55] yes=55,no=56,missing=56
					55:leaf=0.0213098
					56:leaf=-0.00858823
				30:[f6<310.31] yes=57,no=58,missing=58
					57:leaf=-0.0117518
					58:leaf=0.0340236
booster[26]:
0:[f8<45.5] yes=1,no=2,missing=1
	1:[f5<2901] yes=3,no=4,missing=3
		3:[f3<9000] yes=7,no=8,missing=7
			7:[f5<49] yes=15,no=16,missing=15
				15:[f4<1881.5] yes=31,no=32,missing=31
					31:leaf=-0.0382497
					32:leaf=-0.0216241
				16:[f8<14.5] yes=33,no=34,missing=33
					33:leaf=-0.0360745
					34:leaf=-0.0248327
			8:[f6<898.62] yes=17,no=18,missing=18
				17:leaf=0.036903
				18:[f6<1047.04] yes=35,no=36,missing=36
					35:leaf=-0.0391496
					36:leaf=0.00146174
		4:[f3<5826.5] yes=9,no=10,missing=9
			9:[f5<40000] yes=19,no=20,missing=20
				19:[f5<8975] yes=37,no=38,missing=38
					37:leaf=-0.026608
					38:leaf=-0.0136156
				20:leaf=0.0348375
			10:[f5<5206] yes=21,no=22,missing=22
				21:[f1<69.5] yes=39,no=40,missing=40
					39:leaf=0.0235407
					40:leaf=-0.0272872
				22:[f6<872.74] yes=41,no=42,missing=42
					41:leaf=0.0074668
					42:leaf=0.0366796
	2:[f5<11.5] yes=5,no=6,missing=5
		5:[f3<7565.5] yes=11,no=12,missing=11
			11:[f1<34.5] yes=23,no=24,missing=24
				23:[f1<29.5] yes=43,no=44,missing=44
					43:leaf=-0.0365325
					44:leaf=-0.0306252
				24:[f4<1881.5] yes=45,no=46,missing=45
					45:leaf=-0.0261279
					46:leaf=-0.000781194
			12:[f3<10041] yes=25,no=26,missing=26
				25:[f3<7833] yes=47,no=48,missing=48
					47:leaf=0.00984726
					48:leaf=-0.030035
				26:[f1<65.5] yes=49,no=50,missing=50
					49:leaf=0.0236204
					50:leaf=-0.0202157
		6:[f3<4668.5] yes=13,no=14,missing=13
			13:[f4<1975.5] yes=27,no=28,missing=27
				27:[f7<5.5] yes=51,no=52,missing=52
					51:leaf=-0.0175239
					52:leaf=-0.00298095
				28:[f5<61.5] yes=53,no=54,missing=54
					53:leaf=-0.0129783
					54:leaf=0.0334498
			14:[f3<9953] yes=29,no=30,missing=30
				29:[f3<4973.5] yes=55,no=56,missing=56
					55:leaf=0.0557571
					56:leaf=0.00384342
				30:[f6<580.35] yes=57,no=58,missing=58
					57:leaf=0.00511211
					58:leaf=0.0342515
booster[27]:
0:[f8<45.5] yes=1,no=2,missing=1
	1:[f5<2901] yes=3,no=4,missing=3
		3:[f3<9000] yes=7,no=8,missing=7
			7:[f8<25.5] yes=15,no=16,missing=15
				15:[f3<7055.5] yes=31,no=32,missing=31
					31:leaf=-0.0380228
					32:leaf=-0.0169447
				16:[f4<1881.5] yes=33,no=34,missing=33
					33:leaf=-0.0349352
					34:leaf=-0.00167793
			8:[f6<898.62] yes=17,no=18,missing=18
				17:leaf=0.0363126
				18:[f6<1047.04] yes=35,no=36,missing=36
					35:leaf=-0.0385299
					36:leaf=0.00142039
		4:[f3<5826.5] yes=9,no=10,missing=9
			9:[f5<40000] yes=19,no=20,missing=20
				19:[f8<33] yes=37,no=38,missing=37
					37:leaf=-0.023123
					38:leaf=0.00132977
				20:leaf=0.0342774
			10:[f5<5206] yes=21,no=22,missing=22
				21:[f1<69.5] yes=39,no=40,missing=40
					39:leaf=0.023278
					40:leaf=-0.0269348
				22:[f6<872.74] yes=41,no=42,missing=42
					41:leaf=0.00732478
					42:leaf=0.0360319
	2:[f5<0.5] yes=5,no=6,missing=5
		5:[f3<7565.5] yes=11,no=12,missing=11
			11:[f1<29.5] yes=23,no=24,missing=24
				23:[f2<1643.5] yes=43,no=44,missing=43
					43:leaf=-0.0362899
					44:leaf=0.00120247
				24:[f4<1881.5] yes=45,no=46,missing=45
					45:leaf=-0.0267781
					46:leaf=-0.00215908
			12:[f3<14682] yes=25,no=26,missing=26
				25:[f3<14214] yes=47,no=48,missing=48
					47:leaf=0.00470434
					48:leaf=-0.0583141
				26:[f6<1551.22] yes=49,no=50,missing=50
					49:leaf=0.00921684
					50:leaf=0.0320206
		6:[f3<7073.5] yes=13,no=14,missing=13
			13:[f1<34.5] yes=27,no=28,missing=28
				27:[f1<29.5] yes=51,no=52,missing=52
					51:leaf=-0.0342903
					52:leaf=-0.0187179
				28:[f7<5.5] yes=53,no=54,missing=54
					53:leaf=-0.0136015
					54:leaf=0.00286955
			14:[f1<29.5] yes=29,no=30,missing=30
				29:leaf=-0.0359382
				30:[f3<9953] yes=55,no=56,missing=56
					55:leaf=0.0131248
					56:leaf=0.0320476
booster[28]:
0:[f8<45.5] yes=1,no=2,missing=1
	1:[f5<2901] yes=3,no=4,missing=3
		3:[f3<7364] yes=7,no=8,missing=7
			7:[f5<49] yes=15,no=16,missing=15
				15:[f4<1881.5] yes=31,no=32,missing=31
					31:leaf=-0.0375796
					32:leaf=-0.0206873
				16:[f8<25.5] yes=33,no=34,missing=33
					33:leaf=-0.0347643
					34:leaf=-0.0221995
			8:[f5<750] yes=17,no=18,missing=17
				17:[f7<3.5] yes=35,no=36,missing=35
					35:leaf=-0.0219518
					36:leaf=0.00700892
				18:[f1<64.5] yes=37,no=38,missing=38
					37:leaf=-0.00245515
					38:leaf=0.0322318
		4:[f3<5826.5] yes=9,no=10,missing=9
			9:[f5<14715] yes=19,no=20,missing=20
				19:[f8<33] yes=39,no=40,missing=39
					39:leaf=-0.0252861
					40:leaf=0.00129319
				20:[f6<1531.48] yes=41,no=42,missing=42
					41:leaf=-0.0208642
					42:leaf=0.0106685
			10:[f5<5206] yes=21,no=22,missing=22
				21:[f1<69.5] yes=43,no=44,missing=44
					43:leaf=0.0230207
					44:leaf=-0.0265917
				22:[f6<872.74] yes=45,no=46,missing=46
					45:leaf=0.00718549
					46:leaf=0.0354063
	2:[f5<0.5] yes=5,no=6,missing=5
		5:[f3<7364] yes=11,no=12,missing=11
			11:[f1<29.5] yes=23,no=24,missing=24
				23:[f4<2391.5] yes=47,no=48,missing=47
					47:leaf=-0.0358476
					48:leaf=0.0172258
				24:[f4<1881.5] yes=49,no=50,missing=49
					49:leaf=-0.0263135
					50:leaf=-0.0020952
			12:[f3<10041] yes=25,no=26,missing=26
				25:[f6<975.15] yes=51,no=52,missing=52
					51:leaf=0.0323668
					52:leaf=-0.00818193
				26:[f1<65.5] yes=53,no=54,missing=54
					53:leaf=0.0221694
					54:leaf=-0.0199674
		6:[f3<7073.5] yes=13,no=14,missing=13
			13:[f1<34.5] yes=27,no=28,missing=28
				27:[f1<29.5] yes=55,no=56,missing=56
					55:leaf=-0.0336847
					56:leaf=-0.018263
				28:[f7<5.5] yes=57,no=58,missing=58
					57:leaf=-0.0132332
					58:leaf=0.00278232
			14:[f1<29.5] yes=29,no=30,missing=30
				29:leaf=-0.0354141
				30:[f3<9953] yes=59,no=60,missing=60
					59:leaf=0.0127444
					60:leaf=0.0315893
booster[29]:
0:[f8<45.5] yes=1,no=2,missing=1
	1:[f5<2901] yes=3,no=4,missing=3
		3:[f3<9000] yes=7,no=8,missing=7
			7:[f8<25.5] yes=15,no=16,missing=15
				15:[f1<40.5] yes=31,no=32,missing=31
					31:leaf=-0.0378684
					32:leaf=-0.0362102
				16:[f5<47.5] yes=33,no=34,missing=33
					33:leaf=-0.0348714
					34:leaf=-0.0217622
			8:[f1<44.5] yes=17,no=18,missing=18
				17:[f3<12772] yes=35,no=36,missing=36
					35:leaf=0.00886867
					36:leaf=-0.0360724
				18:[f1<80] yes=37,no=38,missing=38
					37:leaf=0.015353
					38:leaf=-0.030974
		4:[f3<5826.5] yes=9,no=10,missing=9
			9:[f5<40000] yes=19,no=20,missing=20
				19:[f5<8975] yes=39,no=40,missing=40
					39:leaf=-0.0253001
					40:leaf=-0.0123302
				20:leaf=0.0339018
			10:[f5<5206] yes=21,no=22,missing=22
				21:[f1<69.5] yes=41,no=42,missing=42
					41:leaf=0.0227687
					42:leaf=-0.0262574
				22:[f3<8641] yes=43,no=44,missing=44
					43:leaf=0.045284
					44:leaf=0.0214047
	2:[f5<11.5] yes=5,no=6,missing=5
		5:[f3<7364] yes=11,no=12,missing=11
			11:[f1<34.5] yes=23,no=24,missing=24
				23:[f1<29.5] yes=45,no=46,missing=46
					45:leaf=-0.0353942
					46:leaf=-0.0293
				24:[f4<1881.5] yes=47,no=48,missing=47
					47:leaf=-0.0246939
					48:leaf=-0.000629042
			12:[f3<10041] yes=25,no=26,missing=26
				25:[f3<7833] yes=49,no=50,missing=50
					49:leaf=0.00803755
					50:leaf=-0.0295519
				26:[f1<65.5] yes=51,no=52,missing=52
					51:leaf=0.0223723
					52:leaf=-0.0194801
		6:[f3<4668.5] yes=13,no=14,missing=13
			13:[f4<1975.5] yes=27,no=28,missing=27
				27:[f5<968] yes=53,no=54,missing=54
					53:leaf=-0.0141696
					54:leaf=0.00176635
				28:[f5<61.5] yes=55,no=56,missing=56
					55:leaf=-0.0123278
					56:leaf=0.0331568
			14:[f3<9953] yes=29,no=30,missing=30
				29:[f3<4973.5] yes=57,no=58,missing=58
					57:leaf=0.0547442
					58:leaf=0.00336524
				30:[f6<580.35] yes=59,no=60,missing=60
					59:leaf=0.00350632
					60:leaf=0.0329562
booster[30]:
0:[f8<50.5] yes=1,no=2,missing=1
	1:[f3<7364] yes=3,no=4,missing=3
		3:[f5<722.5] yes=7,no=8,missing=7
			7:[f4<1881.5] yes=15,no=16,missing=15
				15:[f8<25.5] yes=31,no=32,missing=31
					31:leaf=-0.0371088
					32:leaf=-0.0337123
				16:[f8<12.5] yes=33,no=34,missing=33
					33:leaf=-0.0330287
					34:leaf=0.000590396
			8:[f8<38.5] yes=17,no=18,missing=17
				17:[f5<8975] yes=35,no=36,missing=36
					35:leaf=-0.0312118
					36:leaf=-0.00935607
				18:[f7<2.5] yes=37,no=38,missing=38
					37:leaf=0.0136605
					38:leaf=-0.0130485
		4:[f5<750] yes=9,no=10,missing=9
			9:[f8<38] yes=19,no=20,missing=19
				19:[f1<59] yes=39,no=40,missing=40
					39:leaf=-0.0317163
					40:leaf=-0.00544355
				20:[f8<49.5] yes=41,no=42,missing=42
					41:leaf=0.0291729
					42:leaf=-0.0188124
			10:[f3<10585.5] yes=21,no=22,missing=22
				21:[f5<8843.5] yes=43,no=44,missing=44
					43:leaf=0.0170342
					44:leaf=-0.037876
				22:leaf=0.037091
	2:[f5<0.5] yes=5,no=6,missing=5
		5:[f3<5119] yes=11,no=12,missing=11
			11:[f1<29.5] yes=23,no=24,missing=24
				23:[f2<1643.5] yes=45,no=46,missing=45
					45:leaf=-0.0354328
					46:leaf=0.0030788
				24:[f4<1881.5] yes=47,no=48,missing=47
					47:leaf=-0.0252013
					48:leaf=-0.00192275
			12:[f3<10041] yes=25,no=26,missing=26
				25:[f6<2717.79] yes=49,no=50,missing=50
					49:leaf=-0.000397852
					50:leaf=-0.0345115
				26:[f6<1741.7] yes=51,no=52,missing=52
					51:leaf=0.00797968
					52:leaf=0.0318458
		6:[f3<7073.5] yes=13,no=14,missing=13
			13:[f1<32.5] yes=27,no=28,missing=28
				27:[f1<29.5] yes=53,no=54,missing=54
					53:leaf=-0.0334128
					54:leaf=-0.0179477
				28:[f5<2275] yes=55,no=56,missing=56
					55:leaf=-0.00808439
					56:leaf=0.0155729
			14:[f1<29.5] yes=29,no=30,missing=30
				29:leaf=-0.0348545
				30:[f3<9953] yes=57,no=58,missing=58
					57:leaf=0.0143007
					58:leaf=0.0300972
booster[31]:
0:[f8<45.5] yes=1,no=2,missing=1
	1:[f5<2901] yes=3,no=4,missing=3
		3:[f3<7364] yes=7,no=8,missing=7
			7:[f5<49] yes=15,no=16,missing=15
				15:[f4<1881.5] yes=31,no=32,missing=31
					31:leaf=-0.0366518
					32:leaf=-0.0191962
				16:[f8<14.5] yes=33,no=34,missing=33
					33:leaf=-0.0341708
					34:leaf=-0.0222577
			8:[f5<750] yes=17,no=18,missing=17
				17:[f7<3.5] yes=35,no=36,missing=35
					35:leaf=-0.0209348
					36:leaf=0.00738021
				18:[f1<64.5] yes=37,no=38,missing=38
					37:leaf=-0.00267303
					38:leaf=0.0312357
		4:[f3<5826.5] yes=9,no=10,missing=9
			9:[f5<40000] yes=19,no=20,missing=20
				19:[f1<80.5] yes=39,no=40,missing=40
					39:leaf=-0.0172665
					40:leaf=-0.0364107
				20:leaf=0.0335396
			10:[f5<5206] yes=21,no=22,missing=22
				21:[f1<69.5] yes=41,no=42,missing=42
					41:leaf=0.0222513
					42:leaf=-0.0258139
				22:[f3<8641] yes=43,no=44,missing=44
					43:leaf=0.0444391
					44:leaf=0.0206143
	2:[f5<0.5] yes=5,no=6,missing=5
		5:[f3<4668.5] yes=11,no=12,missing=11
			11:[f1<29.5] yes=23,no=24,missing=24
				23:[f2<1489.5] yes=45,no=46,missing=45
					45:leaf=-0.0351149
					46:leaf=-0.00481646
				24:[f4<1881.5] yes=47,no=48,missing=47
					47:leaf=-0.0251688
					48:leaf=-0.00189142
			12:[f3<10041] yes=25,no=26,missing=26
				25:[f3<4973.5] yes=49,no=50,missing=50
					49:leaf=0.0670199
					50:leaf=-0.00912039
				26:[f1<65.5] yes=51,no=52,missing=52
					51:leaf=0.0208561
					52:leaf=-0.019191
		6:[f3<7073.5] yes=13,no=14,missing=13
			13:[f1<34.5] yes=27,no=28,missing=28
				27:[f1<29.5] yes=53,no=54,missing=54
					53:leaf=-0.0323188
					54:leaf=-0.0171722
				28:[f7<5.5] yes=55,no=56,missing=56
					55:leaf=-0.0125219
					56:leaf=0.00321566
			14:[f1<29.5] yes=29,no=30,missing=30
				29:leaf=-0.0343693
				30:[f3<9953] yes=57,no=58,missing=58
					57:leaf=0.0120048
					58:leaf=0.0303077
booster[32]:
0:[f8<45.5] yes=1,no=2,missing=1
	1:[f5<2901] yes=3,no=4,missing=3
		3:[f3<7364] yes=7,no=8,missing=7
			7:[f5<49] yes=15,no=16,missing=15
				15:[f4<1881.5] yes=31,no=32,missing=31
					31:leaf=-0.0363657
					32:leaf=-0.0188093
				16:[f8<14.5] yes=33,no=34,missing=33
					33:leaf=-0.0338341
					34:leaf=-0.0218435
			8:[f5<750] yes=17,no=18,missing=17
				17:[f7<5] yes=35,no=36,missing=35
					35:leaf=-0.0169155
					36:leaf=0.0160639
				18:[f1<64.5] yes=37,no=38,missing=38
					37:leaf=-0.00262881
					38:leaf=0.0308392
		4:[f3<5826.5] yes=9,no=10,missing=9
			9:[f5<14715] yes=19,no=20,missing=20
				19:[f7<5.5] yes=39,no=40,missing=39
					39:leaf=-0.0233354
					40:leaf=0.00569163
				20:[f6<2725.76] yes=41,no=42,missing=42
					41:leaf=0.00648808
					42:leaf=-0.0353914
			10:[f5<5206] yes=21,no=22,missing=22
				21:[f1<69.5] yes=43,no=44,missing=44
					43:leaf=0.0220145
					44:leaf=-0.0254989
				22:[f6<872.74] yes=45,no=46,missing=46
					45:leaf=0.00611666
					46:leaf=0.0335269
	2:[f5<0.5] yes=5,no=6,missing=5
		5:[f3<4668.5] yes=11,no=12,missing=11
			11:[f1<29.5] yes=23,no=24,missing=24
				23:[f4<2391.5] yes=47,no=48,missing=47
					47:leaf=-0.0346514
					48:leaf=0.01958
				24:[f4<1881.5] yes=49,no=50,missing=49
					49:leaf=-0.0247235
					50:leaf=-0.00183544
			12:[f3<10041] yes=25,no=26,missing=26
				25:[f3<4973.5] yes=51,no=52,missing=52
					51:leaf=0.0636027
					52:leaf=-0.00886859
				26:[f1<65.5] yes=53,no=54,missing=54
					53:leaf=0.0204234
					54:leaf=-0.0187267
		6:[f3<9953] yes=13,no=14,missing=13
			13:[f1<34.5] yes=27,no=28,missing=28
				27:[f1<29.5] yes=55,no=56,missing=56
					55:leaf=-0.0322292
					56:leaf=-0.0163328
				28:[f7<5.5] yes=57,no=58,missing=58
					57:leaf=-0.011717
					58:leaf=0.0039516
			14:[f6<580.35] yes=29,no=30,missing=30
				29:[f7<2.5] yes=59,no=60,missing=60
					59:leaf=-0.0359341
					60:leaf=0.0295572
				30:[f6<2747.62] yes=61,no=62,missing=62
					61:leaf=0.0362231
					62:leaf=0.0109069
booster[33]:
0:[f8<45.5] yes=1,no=2,missing=1
	1:[f5<2901] yes=3,no=4,missing=3
		3:[f3<7364] yes=7,no=8,missing=7
			7:[f5<49] yes=15,no=16,missing=15
				15:[f4<1881.5] yes=31,no=32,missing=31
					31:leaf=-0.0360906
					32:leaf=-0.0184293
				16:[f8<14.5] yes=33,no=34,missing=33
					33:leaf=-0.0335065
					34:leaf=-0.0214363
			8:[f7<3.5] yes=17,no=18,missing=17
				17:[f3<10585.5] yes=35,no=36,missing=36
					35:leaf=-0.0357599
					36:leaf=0.00602009
				18:[f6<1620.33] yes=37,no=38,missing=38
					37:leaf=-0.00663216
					38:leaf=0.0324182
		4:[f3<5826.5] yes=9,no=10,missing=9
			9:[f5<40000] yes=19,no=20,missing=20
				19:[f1<80.5] yes=39,no=40,missing=40
					39:leaf=-0.0164641
					40:leaf=-0.0356391
				20:leaf=0.0329296
			10:[f5<5206] yes=21,no=22,missing=22
				21:[f1<69.5] yes=41,no=42,missing=42
					41:leaf=0.0217824
					42:leaf=-0.0251915
				22:[f6<872.74] yes=43,no=44,missing=44
					43:leaf=0.006001
					44:leaf=0.032979
	2:[f5<11.5] yes=5,no=6,missing=5
		5:[f3<7565.5] yes=11,no=12,missing=11
			11:[f1<34.5] yes=23,no=24,missing=24
				23:[f2<1815] yes=45,no=46,missing=45
					45:leaf=-0.0317664
					46:leaf=0.0125481
				24:[f2<2075] yes=47,no=48,missing=47
					47:leaf=-0.0225006
					48:leaf=0.0291321
			12:[f3<23638] yes=25,no=26,missing=26
				25:[f6<604.565] yes=49,no=50,missing=50
					49:leaf=0.0311337
					50:leaf=0.00292734
				26:[f1<32.5] yes=51,no=52,missing=52
					51:leaf=-0.0184193
					52:leaf=0.0374637
		6:[f3<4668.5] yes=13,no=14,missing=13
			13:[f4<1975.5] yes=27,no=28,missing=27
				27:[f5<968] yes=53,no=54,missing=54
					53:leaf=-0.0130433
					54:leaf=0.00221896
				28:[f5<61.5] yes=55,no=56,missing=56
					55:leaf=-0.0115553
					56:leaf=0.0329066
			14:[f3<9953] yes=29,no=30,missing=30
				29:[f3<4973.5] yes=57,no=58,missing=58
					57:leaf=0.0536494
					58:leaf=0.00307253
				30:[f6<580.35] yes=59,no=60,missing=60
					59:leaf=0.00190726
					60:leaf=0.0313832
booster[34]:
0:[f8<45.5] yes=1,no=2,missing=1
	1:[f5<2901] yes=3,no=4,missing=3
		3:[f3<7364] yes=7,no=8,missing=7
			7:[f8<25.5] yes=15,no=16,missing=15
				15:[f1<40.5] yes=31,no=32,missing=31
					31:leaf=-0.0365378
					32:leaf=-0.0346649
				16:[f5<47.5] yes=33,no=34,missing=33
					33:leaf=-0.0331845
					34:leaf=-0.0194858
			8:[f1<58.5] yes=17,no=18,missing=18
				17:[f8<38] yes=35,no=36,missing=35
					35:leaf=-0.0307834
					36:leaf=0.0120105
				18:[f3<11141.5] yes=37,no=38,missing=38
					37:leaf=-0.00929521
					38:leaf=0.0243002
		4:[f3<5826.5] yes=9,no=10,missing=9
			9:[f5<14715] yes=19,no=20,missing=20
				19:[f8<33] yes=39,no=40,missing=39
					39:leaf=-0.0228083
					40:leaf=0.00358289
				20:[f6<1531.48] yes=41,no=42,missing=42
					41:leaf=-0.0197482
					42:leaf=0.012106
			10:[f5<5206] yes=21,no=22,missing=22
				21:[f1<69.5] yes=43,no=44,missing=44
					43:leaf=0.0215546
					44:leaf=-0.0248914
				22:[f3<8641] yes=45,no=46,missing=46
					45:leaf=0.042201
					46:leaf=0.0192439
	2:[f5<0.5] yes=5,no=6,missing=5
		5:[f3<4668.5] yes=11,no=12,missing=11
			11:[f1<29.5] yes=23,no=24,missing=24
				23:[f2<1489.5] yes=47,no=48,missing=47
					47:leaf=-0.0341881
					48:leaf=-0.0034982
				24:[f4<1881.5] yes=49,no=50,missing=49
					49:leaf=-0.0238637
					50:leaf=-0.00110304
			12:[f3<4973.5] yes=25,no=26,missing=26
				25:[f3<4826] yes=51,no=52,missing=52
					51:leaf=0.079693
					52:leaf=0.0252582
				26:[f3<10041] yes=53,no=54,missing=54
					53:leaf=-0.00836873
					54:leaf=0.0164719
		6:[f3<7073.5] yes=13,no=14,missing=13
			13:[f4<1975.5] yes=27,no=28,missing=27
				27:[f5<968] yes=55,no=56,missing=56
					55:leaf=-0.0130762
					56:leaf=0.00206343
				28:[f1<31.5] yes=57,no=58,missing=58
					57:leaf=-0.0291638
					58:leaf=0.0312233
			14:[f1<29.5] yes=29,no=30,missing=30
				29:leaf=-0.0334282
				30:[f3<9953] yes=59,no=60,missing=60
					59:leaf=0.01173
					60:leaf=0.0291179
booster[35]:
0:[f8<45.5] yes=1,no=2,missing=1
	1:[f5<2901] yes=3,no=4,missing=3
		3:[f3<7364] yes=7,no=8,missing=7
			7:[f8<25.5] yes=15,no=16,missing=15
				15:[f1<40.5] yes=31,no=32,missing=31
					31:leaf=-0.0362984
					32:leaf=-0.0343872
				16:[f5<47.5] yes=33,no=34,missing=33
					33:leaf=-0.0328753
					34:leaf=-0.0190977
			8:[f1<58.5] yes=17,no=18,missing=18
				17:[f8<38] yes=35,no=36,missing=35
					35:leaf=-0.0302808
					36:leaf=0.0117404
				18:[f3<11141.5] yes=37,no=38,missing=38
					37:leaf=-0.00904895
					38:leaf=0.0237428
		4:[f3<5826.5] yes=9,no=10,missing=9
			9:[f5<14715] yes=19,no=20,missing=20
				19:[f7<5.5] yes=39,no=40,missing=39
					39:leaf=-0.0221401
					40:leaf=0.00651765
				20:[f6<2725.76] yes=41,no=42,missing=42
					41:leaf=0.00677285
					42:leaf=-0.0347104
			10:[f5<5206] yes=21,no=22,missing=22
				21:[f1<69.5] yes=43,no=44,missing=44
					43:leaf=0.021331
					44:leaf=-0.0245983
				22:[f6<872.74] yes=45,no=46,missing=46
					45:leaf=0.0055237
					46:leaf=0.0319441
	2:[f5<0.5] yes=5,no=6,missing=5
		5:[f3<4668.5] yes=11,no=12,missing=11
			11:[f1<29.5] yes=23,no=24,missing=24
				23:[f4<2391.5] yes=47,no=48,missing=47
					47:leaf=-0.0337464
					48:leaf=0.0208431
				24:[f7<4.5] yes=49,no=50,missing=50
					49:leaf=-0.0259055
					50:leaf=-0.0182243
			12:[f3<10041] yes=25,no=26,missing=26
				25:[f3<4973.5] yes=51,no=52,missing=52
					51:leaf=0.0592
					52:leaf=-0.00813679
				26:[f1<65.5] yes=53,no=54,missing=54
					53:leaf=0.0194074
					54:leaf=-0.0187429
		6:[f3<9953] yes=13,no=14,missing=13
			13:[f1<34.5] yes=27,no=28,missing=28
				27:[f1<29.5] yes=55,no=56,missing=56
					55:leaf=-0.0313341
					56:leaf=-0.0154094
				28:[f7<5.5] yes=57,no=58,missing=58
					57:leaf=-0.0110578
					58:leaf=0.00433126
			14:[f6<2747.62] yes=29,no=30,missing=30
				29:[f6<580.35] yes=59,no=60,missing=60
					59:leaf=0.00116125
					60:leaf=0.0352921
				30:[f7<5] yes=61,no=62,missing=62
					61:leaf=0.0319786
					62:leaf=-0.0170764
booster[36]:
0:[f8<47.5] yes=1,no=2,missing=1
	1:[f5<2901] yes=3,no=4,missing=3
		3:[f3<7364] yes=7,no=8,missing=7
			7:[f8<25.5] yes=15,no=16,missing=15
				15:[f1<40.5] yes=31,no=32,missing=31
					31:leaf=-0.036069
					32:leaf=-0.0341176
				16:[f5<174.5] yes=33,no=34,missing=33
					33:leaf=-0.0322685
					34:leaf=-0.0157925
			8:[f8<38] yes=17,no=18,missing=17
				17:[f1<58.5] yes=35,no=36,missing=36
					35:leaf=-0.0297916
					36:leaf=0.00157448
				18:[f3<10041] yes=37,no=38,missing=38
					37:leaf=-0.00486788
					38:leaf=0.0330256
		4:[f3<5826.5] yes=9,no=10,missing=9
			9:[f8<33] yes=19,no=20,missing=19
				19:[f5<14715] yes=39,no=40,missing=40
					39:leaf=-0.0219924
					40:leaf=-0.00152465
				20:[f7<5.5] yes=41,no=42,missing=42
					41:leaf=-0.00873599
					42:leaf=0.0540957
			10:[f3<10585.5] yes=21,no=22,missing=22
				21:[f3<7937] yes=43,no=44,missing=44
					43:leaf=0.0300362
					44:leaf=-0.0257749
				22:leaf=0.0340072
	2:[f5<114] yes=5,no=6,missing=5
		5:[f3<7073.5] yes=11,no=12,missing=11
			11:[f1<34.5] yes=23,no=24,missing=24
				23:[f1<29.5] yes=45,no=46,missing=46
					45:leaf=-0.0331758
					46:leaf=-0.0261946
				24:[f7<4.5] yes=47,no=48,missing=48
					47:leaf=-0.0238274
					48:leaf=-0.0153818
			12:[f3<10041] yes=25,no=26,missing=26
				25:[f6<679.1] yes=49,no=50,missing=50
					49:leaf=0.0345306
					50:leaf=-0.00529729
				26:[f6<1741.7] yes=51,no=52,missing=52
					51:leaf=0.00924584
					52:leaf=0.0290153
		6:[f3<4536.5] yes=13,no=14,missing=13
			13:[f4<1894.5] yes=27,no=28,missing=27
				27:[f7<5.5] yes=53,no=54,missing=54
					53:leaf=-0.0120466
					54:leaf=0.0025679
				28:[f1<31.5] yes=55,no=56,missing=56
					55:leaf=-0.0311786
					56:leaf=0.0314062
			14:[f1<50.5] yes=29,no=30,missing=30
				29:[f3<21426] yes=57,no=58,missing=58
					57:leaf=0.00724257
					58:leaf=0.034184
				30:[f6<1660.55] yes=59,no=60,missing=60
					59:leaf=0.0396128
					60:leaf=0.0174483
booster[37]:
0:[f8<45.5] yes=1,no=2,missing=1
	1:[f5<2901] yes=3,no=4,missing=3
		3:[f3<7364] yes=7,no=8,missing=7
			7:[f5<49] yes=15,no=16,missing=15
				15:[f4<1881.5] yes=31,no=32,missing=31
					31:leaf=-0.0350924
					32:leaf=-0.0159637
				16:[f8<14.5] yes=33,no=34,missing=33
					33:leaf=-0.0322267
					34:leaf=-0.0197505
			8:[f7<3.5] yes=17,no=18,missing=17
				17:[f3<10585.5] yes=35,no=36,missing=36
					35:leaf=-0.0345827
					36:leaf=0.00602593
				18:[f6<1620.33] yes=37,no=38,missing=38
					37:leaf=-0.00588778
					38:leaf=0.0324479
		4:[f3<5826.5] yes=9,no=10,missing=9
			9:[f5<40000] yes=19,no=20,missing=20
				19:[f1<80.5] yes=39,no=40,missing=40
					39:leaf=-0.0149193
					40:leaf=-0.0345243
				20:leaf=0.0322266
			10:[f3<10585.5] yes=21,no=22,missing=22
				21:[f3<7937] yes=41,no=42,missing=42
					41:leaf=0.0293714
					42:leaf=-0.0252133
				22:leaf=0.0336755
	2:[f5<0.5] yes=5,no=6,missing=5
		5:[f3<4668.5] yes=11,no=12,missing=11
			11:[f1<29.5] yes=23,no=24,missing=24
				23:[f2<1489.5] yes=43,no=44,missing=43
					43:leaf=-0.0333175
					44:leaf=-0.00166883
				24:[f4<1881.5] yes=45,no=46,missing=45
					45:leaf=-0.022656
					46:leaf=0.000243153
			12:[f3<4973.5] yes=25,no=26,missing=26
				25:[f3<4826] yes=47,no=48,missing=48
					47:leaf=0.0743878
					48:leaf=0.0234484
				26:[f3<10041] yes=49,no=50,missing=50
					49:leaf=-0.00774186
					50:leaf=0.0153278
		6:[f3<9953] yes=13,no=14,missing=13
			13:[f1<34.5] yes=27,no=28,missing=28
				27:[f1<29.5] yes=51,no=52,missing=52
					51:leaf=-0.0305515
					52:leaf=-0.0146785
				28:[f7<5.5] yes=53,no=54,missing=54
					53:leaf=-0.0104258
					54:leaf=0.0042619
			14:[f6<2747.62] yes=29,no=30,missing=30
				29:[f6<580.35] yes=55,no=56,missing=56
					55:leaf=0.000796488
					56:leaf=0.034759
				30:[f7<5] yes=57,no=58,missing=58
					57:leaf=0.0315247
					58:leaf=-0.0170448
booster[38]:
0:[f8<47.5] yes=1,no=2,missing=1
	1:[f5<2901] yes=3,no=4,missing=3
		3:[f3<7364] yes=7,no=8,missing=7
			7:[f8<25.5] yes=15,no=16,missing=15
				15:[f1<40.5] yes=31,no=32,missing=31
					31:leaf=-0.0356429
					32:leaf=-0.0335962
				16:[f5<174.5] yes=33,no=34,missing=33
					33:leaf=-0.0316514
					34:leaf=-0.0150408
			8:[f8<38] yes=17,no=18,missing=17
				17:[f1<58.5] yes=35,no=36,missing=36
					35:leaf=-0.0292778
					36:leaf=0.00177333
				18:[f5<15.5] yes=37,no=38,missing=37
					37:leaf=0.0339619
					38:leaf=-0.0027343
		4:[f3<5826.5] yes=9,no=10,missing=9
			9:[f8<33] yes=19,no=20,missing=19
				19:[f5<14715] yes=39,no=40,missing=40
					39:leaf=-0.0212557
					40:leaf=-0.0010353
				20:[f7<2] yes=41,no=42,missing=42
					41:leaf=0.0604006
					42:leaf=-0.00544101
			10:[f3<10585.5] yes=21,no=22,missing=22
				21:[f3<7937] yes=43,no=44,missing=44
					43:leaf=0.0287291
					44:leaf=-0.0246674
				22:leaf=0.0333536
	2:[f5<0.5] yes=5,no=6,missing=5
		5:[f3<4668.5] yes=11,no=12,missing=11
			11:[f1<29.5] yes=23,no=24,missing=24
				23:[f2<1489.5] yes=45,no=46,missing=45
					45:leaf=-0.0329864
					46:leaf=-0.00162479
				24:[f4<1881.5] yes=47,no=48,missing=47
					47:leaf=-0.0221835
					48:leaf=0.000515105
			12:[f3<4973.5] yes=25,no=26,missing=26
				25:[f3<4826] yes=49,no=50,missing=50
					49:leaf=0.0712241
					50:leaf=0.0227842
				26:[f3<7565.5] yes=51,no=52,missing=52
					51:leaf=-0.013864
					52:leaf=0.00794608
		6:[f3<7073.5] yes=13,no=14,missing=13
			13:[f1<30.5] yes=27,no=28,missing=28
				27:[f6<1171.91] yes=53,no=54,missing=54
					53:leaf=-0.0376059
					54:leaf=-0.0236637
				28:[f4<1975.5] yes=55,no=56,missing=55
					55:leaf=-0.0065321
					56:leaf=0.0290275
			14:[f1<29.5] yes=29,no=30,missing=30
				29:leaf=-0.032191
				30:[f3<9953] yes=57,no=58,missing=58
					57:leaf=0.0122743
					58:leaf=0.0275531
booster[39]:
0:[f8<45.5] yes=1,no=2,missing=1
	1:[f5<2901] yes=3,no=4,missing=3
		3:[f3<7364] yes=7,no=8,missing=7
			7:[f8<25.5] yes=15,no=16,missing=15
				15:[f1<40.5] yes=31,no=32,missing=31
					31:leaf=-0.0354401
					32:leaf=-0.0333483
				16:[f4<1881.5] yes=33,no=34,missing=33
					33:leaf=-0.0308335
					34:leaf=0.00543557
			8:[f5<750] yes=17,no=18,missing=17
				17:[f7<3.5] yes=35,no=36,missing=35
					35:leaf=-0.0190028
					36:leaf=0.00777575
				18:[f1<64.5] yes=37,no=38,missing=38
					37:leaf=-0.00278262
					38:leaf=0.0306538
		4:[f3<5826.5] yes=9,no=10,missing=9
			9:[f5<8975] yes=19,no=20,missing=20
				19:[f5<5012] yes=39,no=40,missing=40
					39:leaf=-0.0149016
					40:leaf=-0.0344565
				20:[f1<80.5] yes=41,no=42,missing=42
					41:leaf=6.86033e-005
					42:leaf=-0.0316506
			10:[f3<10585.5] yes=21,no=22,missing=22
				21:[f3<7937] yes=43,no=44,missing=44
					43:leaf=0.0281079
					44:leaf=-0.0241366
				22:leaf=0.033041
	2:[f5<114] yes=5,no=6,missing=5
		5:[f3<7073.5] yes=11,no=12,missing=11
			11:[f1<29.5] yes=23,no=24,missing=24
				23:[f4<2391.5] yes=45,no=46,missing=45
					45:leaf=-0.0325272
					46:leaf=0.0230397
				24:[f7<4.5] yes=47,no=48,missing=48
					47:leaf=-0.0239032
					48:leaf=-0.0153378
			12:[f3<10041] yes=25,no=26,missing=26
				25:[f3<7833] yes=49,no=50,missing=50
					49:leaf=0.00310311
					50:leaf=-0.0298302
				26:[f6<1741.7] yes=51,no=52,missing=52
					51:leaf=0.00866073
					52:leaf=0.0283046
		6:[f3<4536.5] yes=13,no=14,missing=13
			13:[f4<1894.5] yes=27,no=28,missing=27
				27:[f7<2.5] yes=53,no=54,missing=54
					53:leaf=-0.0166747
					54:leaf=-0.000618246
				28:[f1<31.5] yes=55,no=56,missing=56
					55:leaf=-0.0305034
					56:leaf=0.0305507
			14:[f3<4973.5] yes=29,no=30,missing=30
				29:leaf=0.0525983
				30:[f3<9953] yes=57,no=58,missing=58
					57:leaf=0.0034797
					58:leaf=0.0250358
booster[40]:
0:[f8<45.5] yes=1,no=2,missing=1
	1:[f5<2476] yes=3,no=4,missing=3
		3:[f3<7364] yes=7,no=8,missing=7
			7:[f5<49] yes=15,no=16,missing=15
				15:[f4<1881.5] yes=29,no=30,missing=29
					29:leaf=-0.0344318
					30:leaf=-0.0145297
				16:[f7<5.5] yes=31,no=32,missing=31
					31:leaf=-0.0297901
					32:leaf=-0.0138071
			8:[f5<750] yes=17,no=18,missing=17
				17:[f7<3.5] yes=33,no=34,missing=33
					33:leaf=-0.0185383
					34:leaf=0.00755775
				18:leaf=0.0302754
		4:[f3<10585.5] yes=9,no=10,missing=9
			9:[f8<33] yes=19,no=20,missing=19
				19:[f5<14715] yes=35,no=36,missing=36
					35:leaf=-0.0210753
					36:leaf=0.000590119
				20:[f7<2.5] yes=37,no=38,missing=38
					37:leaf=0.0754762
					38:leaf=-0.012814
			10:leaf=0.0331589
	2:[f5<0.5] yes=5,no=6,missing=5
		5:[f3<4668.5] yes=11,no=12,missing=11
			11:[f1<29.5] yes=21,no=22,missing=22
				21:[f2<1489.5] yes=39,no=40,missing=39
					39:leaf=-0.0325083
					40:leaf=-0.000716053
				22:[f4<1881.5] yes=41,no=42,missing=41
					41:leaf=-0.0214922
					42:leaf=0.000841736
			12:[f3<4973.5] yes=23,no=24,missing=24
				23:[f3<4826] yes=43,no=44,missing=44
					43:leaf=0.0692114
					44:leaf=0.0227497
				24:[f3<7565.5] yes=45,no=46,missing=46
					45:leaf=-0.0137602
					46:leaf=0.00768889
		6:[f3<9953] yes=13,no=14,missing=13
			13:[f1<34.5] yes=25,no=26,missing=26
				25:[f1<29.5] yes=47,no=48,missing=48
					47:leaf=-0.0293633
					48:leaf=-0.0138354
				26:[f7<5.5] yes=49,no=50,missing=50
					49:leaf=-0.00974153
					50:leaf=0.00440403
			14:[f1<41.5] yes=27,no=28,missing=28
				27:[f1<40.5] yes=51,no=52,missing=52
					51:leaf=0.0211361
					52:leaf=-0.0284801
				28:[f6<621.665] yes=53,no=54,missing=54
					53:leaf=0.00827996
					54:leaf=0.0337587
booster[41]:
0:[f8<50.5] yes=1,no=2,missing=1
	1:[f5<49] yes=3,no=4,missing=3
		3:[f8<25.5] yes=7,no=8,missing=7
			7:[f3<7364] yes=15,no=16,missing=15
				15:[f1<40.5] yes=31,no=32,missing=31
					31:leaf=-0.0351009
					32:leaf=-0.0331945
				16:[f7<3.5] yes=33,no=34,missing=33
					33:leaf=-0.0237987
					34:leaf=0.0254565
			8:[f4<2384.5] yes=17,no=18,missing=17
				17:[f3<9000] yes=35,no=36,missing=35
					35:leaf=-0.0303835
					36:leaf=0.0073821
				18:leaf=0.0525382
		4:[f3<10585.5] yes=9,no=10,missing=9
			9:[f5<8975] yes=19,no=20,missing=20
				19:[f8<14.5] yes=37,no=38,missing=37
					37:leaf=-0.0286902
					38:leaf=-0.0167693
				20:[f1<80.5] yes=39,no=40,missing=40
					39:leaf=6.89543e-005
					40:leaf=-0.0309901
			10:[f6<2479.46] yes=21,no=22,missing=22
				21:[f1<40.5] yes=41,no=42,missing=42
					41:leaf=0.00332862
					42:leaf=0.0363578
				22:leaf=0.00622672
	2:[f5<0.5] yes=5,no=6,missing=5
		5:[f1<31.5] yes=11,no=12,missing=12
			11:[f3<7073.5] yes=23,no=24,missing=23
				23:[f2<1643.5] yes=43,no=44,missing=43
					43:leaf=-0.0308362
					44:leaf=0.00937822
				24:[f6<1231.86] yes=45,no=46,missing=46
					45:leaf=-0.0242378
					46:leaf=0.0160777
			12:[f3<5095.5] yes=25,no=26,missing=25
				25:[f2<2075] yes=47,no=48,missing=47
					47:leaf=-0.0199211
					48:leaf=0.0349949
				26:[f3<14682] yes=49,no=50,missing=50
					49:leaf=-0.0017661
					50:leaf=0.0194783
		6:[f5<2275] yes=13,no=14,missing=14
			13:[f3<7073.5] yes=27,no=28,missing=27
				27:[f2<125] yes=51,no=52,missing=51
					51:leaf=-0.00634981
					52:leaf=-0.0279221
				28:[f1<41.5] yes=53,no=54,missing=54
					53:leaf=-0.000402447
					54:leaf=0.0230705
			14:[f7<1.5] yes=29,no=30,missing=30
				29:[f6<3817.79] yes=55,no=56,missing=56
					55:leaf=-0.010053
					56:leaf=0.0479401
				30:[f1<30.5] yes=57,no=58,missing=58
					57:leaf=-0.0383652
					58:leaf=0.0262945
booster[42]:
0:[f8<45.5] yes=1,no=2,missing=1
	1:[f5<2476] yes=3,no=4,missing=3
		3:[f3<5095.5] yes=7,no=8,missing=7
			7:[f1<28.5] yes=15,no=16,missing=15
				15:[f4<2231.5] yes=31,no=32,missing=31
					31:leaf=-0.0349126
					32:leaf=-0.00841392
				16:[f8<5.5] yes=33,no=34,missing=33
					33:leaf=-0.0334118
					34:leaf=-0.0279565
			8:[f5<786.5] yes=17,no=18,missing=17
				17:[f6<1049.91] yes=35,no=36,missing=36
					35:leaf=-0.0281704
					36:leaf=-0.00434075
				18:leaf=0.02989
		4:[f3<5826.5] yes=9,no=10,missing=9
			9:[f8<33] yes=19,no=20,missing=19
				19:[f5<9944] yes=37,no=38,missing=38
					37:leaf=-0.023764
					38:leaf=-0.00691331
				20:[f7<2.5] yes=39,no=40,missing=40
					39:leaf=0.0727779
					40:leaf=-0.0122378
			10:[f3<10585.5] yes=21,no=22,missing=22
				21:[f3<7937] yes=41,no=42,missing=42
					41:leaf=0.0208787
					42:leaf=-0.0229697
				22:leaf=0.0325981
	2:[f5<11.5] yes=5,no=6,missing=5
		5:[f1<31.5] yes=11,no=12,missing=12
			11:[f3<7493] yes=23,no=24,missing=23
				23:[f2<1643.5] yes=43,no=44,missing=43
					43:leaf=-0.0304035
					44:leaf=0.00462715
				24:[f7<4.5] yes=45,no=46,missing=46
					45:leaf=0.0383181
					46:leaf=-0.0196909
			12:[f3<4668.5] yes=25,no=26,missing=25
				25:[f7<4.5] yes=47,no=48,missing=48
					47:leaf=-0.0228747
					48:leaf=-0.0146441
				26:[f3<4973.5] yes=49,no=50,missing=50
					49:leaf=0.0564321
					50:leaf=0.0015871
		6:[f3<4668.5] yes=13,no=14,missing=13
			13:[f5<968] yes=27,no=28,missing=28
				27:[f4<1894.5] yes=51,no=52,missing=51
					51:leaf=-0.0111343
					52:leaf=0.0180673
				28:[f1<55.5] yes=53,no=54,missing=54
					53:leaf=0.00966645
					54:leaf=-0.0115625
			14:[f3<9953] yes=29,no=30,missing=30
				29:[f3<4973.5] yes=55,no=56,missing=56
					55:leaf=0.0511869
					56:leaf=0.00247899
				30:[f1<41.5] yes=57,no=58,missing=58
					57:leaf=0.0105852
					58:leaf=0.0312339
booster[43]:
0:[f8<45.5] yes=1,no=2,missing=1
	1:[f5<2476] yes=3,no=4,missing=3
		3:[f3<5095.5] yes=7,no=8,missing=7
			7:[f8<25.5] yes=15,no=16,missing=15
				15:[f1<40.5] yes=31,no=32,missing=31
					31:leaf=-0.0347118
					32:leaf=-0.0324324
				16:[f4<1881.5] yes=33,no=34,missing=33
					33:leaf=-0.0299219
					34:leaf=0.00733411
			8:[f5<786.5] yes=17,no=18,missing=17
				17:[f6<1049.91] yes=35,no=36,missing=36
					35:leaf=-0.027673
					36:leaf=-0.00422045
				18:leaf=0.0295323
		4:[f3<5826.5] yes=9,no=10,missing=9
			9:[f8<33] yes=19,no=20,missing=19
				19:[f5<9944] yes=37,no=38,missing=38
					37:leaf=-0.0233794
					38:leaf=-0.00672587
				20:[f7<2.5] yes=39,no=40,missing=40
					39:leaf=0.0697587
					40:leaf=-0.0119552
			10:[f3<10585.5] yes=21,no=22,missing=22
				21:[f3<7937] yes=41,no=42,missing=42
					41:leaf=0.0203786
					42:leaf=-0.0224842
				22:leaf=0.0323132
	2:[f5<0.5] yes=5,no=6,missing=5
		5:[f1<34.5] yes=11,no=12,missing=12
			11:[f3<7565.5] yes=23,no=24,missing=23
				23:[f1<29.5] yes=43,no=44,missing=44
					43:leaf=-0.031224
					44:leaf=-0.024133
				24:[f6<876.925] yes=45,no=46,missing=46
					45:leaf=-0.0423482
					46:leaf=0.0238509
			12:[f3<4668.5] yes=25,no=26,missing=25
				25:[f2<2075] yes=47,no=48,missing=47
					47:leaf=-0.0189956
					48:leaf=0.0364191
				26:[f3<23638] yes=49,no=50,missing=50
					49:leaf=-0.00111757
					50:leaf=0.0357448
		6:[f3<9953] yes=13,no=14,missing=13
			13:[f1<34.5] yes=27,no=28,missing=28
				27:[f1<29.5] yes=51,no=52,missing=52
					51:leaf=-0.0285825
					52:leaf=-0.013088
				28:[f7<5.5] yes=53,no=54,missing=54
					53:leaf=-0.00918148
					54:leaf=0.00459711
			14:[f6<2747.62] yes=29,no=30,missing=30
				29:[f6<580.35] yes=55,no=56,missing=56
					55:leaf=-0.00188008
					56:leaf=0.0334064
				30:[f7<5] yes=57,no=58,missing=58
					57:leaf=0.0300239
					58:leaf=-0.0203838
booster[44]:
0:[f8<45.5] yes=1,no=2,missing=1
	1:[f5<2901] yes=3,no=4,missing=3
		3:[f3<5095.5] yes=7,no=8,missing=7
			7:[f8<25.5] yes=15,no=16,missing=15
				15:[f1<40.5] yes=31,no=32,missing=31
					31:leaf=-0.0345452
					32:leaf=-0.0322317
				16:[f5<47.5] yes=33,no=34,missing=33
					33:leaf=-0.0304522
					34:leaf=-0.0146714
			8:[f3<15427.5] yes=17,no=18,missing=18
				17:[f1<25.5] yes=35,no=36,missing=36
					35:leaf=0.0350877
					36:leaf=-0.0151833
				18:[f1<48] yes=37,no=38,missing=38
					37:leaf=-0.0254846
					38:leaf=0.0286063
		4:[f3<5826.5] yes=9,no=10,missing=9
			9:[f1<51.5] yes=19,no=20,missing=20
				19:[f6<3493.42] yes=39,no=40,missing=40
					39:leaf=-0.0335985
					40:leaf=0.0144391
				20:[f7<5.5] yes=41,no=42,missing=41
					41:leaf=-0.0134048
					42:leaf=0.0452251
			10:[f5<5206] yes=21,no=22,missing=22
				21:[f1<69.5] yes=43,no=44,missing=44
					43:leaf=0.0213466
					44:leaf=-0.0240907
				22:[f3<8641] yes=45,no=46,missing=46
					45:leaf=0.0386565
					46:leaf=0.0153765
	2:[f5<148] yes=5,no=6,missing=5
		5:[f1<34.5] yes=11,no=12,missing=12
			11:[f3<7565.5] yes=23,no=24,missing=23
				23:[f1<29.5] yes=47,no=48,missing=48
					47:leaf=-0.0309639
					48:leaf=-0.0234385
				24:[f6<876.925] yes=49,no=50,missing=50
					49:leaf=-0.0410082
					50:leaf=0.0222985
			12:[f3<7073.5] yes=25,no=26,missing=25
				25:[f2<2075] yes=51,no=52,missing=51
					51:leaf=-0.0176405
					52:leaf=0.0335118
				26:[f6<648.135] yes=53,no=54,missing=54
					53:leaf=0.0366992
					54:leaf=0.00413854
		6:[f5<2275] yes=13,no=14,missing=14
			13:[f4<1894.5] yes=27,no=28,missing=27
				27:[f7<2.5] yes=55,no=56,missing=56
					55:leaf=-0.015135
					56:leaf=-0.000813872
				28:[f1<31.5] yes=57,no=58,missing=58
					57:leaf=-0.0297543
					58:leaf=0.0333027
			14:[f7<1.5] yes=29,no=30,missing=30
				29:[f1<60.5] yes=59,no=60,missing=60
					59:leaf=-0.0148157
					60:leaf=0.0188228
				30:[f1<30.5] yes=61,no=62,missing=62
					61:leaf=-0.0375147
					62:leaf=0.0235902
booster[45]:
0:[f8<45.5] yes=1,no=2,missing=1
	1:[f5<2476] yes=3,no=4,missing=3
		3:[f3<5095.5] yes=7,no=8,missing=7
			7:[f1<28.5] yes=15,no=16,missing=15
				15:[f4<2231.5] yes=29,no=30,missing=29
					29:leaf=-0.0344135
					30:leaf=-0.00706508
				16:[f8<5.5] yes=31,no=32,missing=31
					31:leaf=-0.0328018
					32:leaf=-0.0270066
			8:[f5<786.5] yes=17,no=18,missing=17
				17:[f6<1049.91] yes=33,no=34,missing=34
					33:leaf=-0.0270712
					34:leaf=-0.00384748
				18:leaf=0.0292832
		4:[f3<10585.5] yes=9,no=10,missing=9
			9:[f8<33] yes=19,no=20,missing=19
				19:[f5<14715] yes=35,no=36,missing=36
					35:leaf=-0.0193235
					36:leaf=0.00150491
				20:[f7<2.5] yes=37,no=38,missing=38
					37:leaf=0.0673594
					38:leaf=-0.0117094
			10:leaf=0.031892
	2:[f5<0.5] yes=5,no=6,missing=5
		5:[f1<29.5] yes=11,no=12,missing=12
			11:[f3<7073.5] yes=21,no=22,missing=21
				21:[f4<2391.5] yes=39,no=40,missing=39
					39:leaf=-0.0310566
					40:leaf=0.0269193
				22:[f6<1456.48] yes=41,no=42,missing=42
					41:leaf=-0.0115247
					42:leaf=0.0271258
			12:[f3<4668.5] yes=23,no=24,missing=23
				23:[f4<1881.5] yes=43,no=44,missing=43
					43:leaf=-0.0196738
					44:leaf=0.00310577
				24:[f3<14682] yes=45,no=46,missing=46
					45:leaf=-0.00439072
					46:leaf=0.0171694
		6:[f3<9953] yes=13,no=14,missing=13
			13:[f1<30.5] yes=25,no=26,missing=26
				25:[f8<47] yes=47,no=48,missing=48
					47:leaf=0.01128
					48:leaf=-0.0254385
				26:[f7<5.5] yes=49,no=50,missing=50
					49:leaf=-0.00954729
					50:leaf=0.00300591
			14:[f6<2747.62] yes=27,no=28,missing=28
				27:[f6<580.35] yes=51,no=52,missing=52
					51:leaf=-0.00190017
					52:leaf=0.0331082
				28:[f7<5] yes=53,no=54,missing=54
					53:leaf=0.0297239
					54:leaf=-0.0200623
booster[46]:
0:[f8<45.5] yes=1,no=2,missing=1
	1:[f5<49] yes=3,no=4,missing=3
		3:[f3<7364] yes=7,no=8,missing=7
			7:[f4<1881.5] yes=15,no=16,missing=15
				15:[f1<27.5] yes=31,no=32,missing=31
					31:leaf=-0.0343173
					32:leaf=-0.0317831
				16:[f8<37] yes=33,no=34,missing=34
					33:leaf=0.00773775
					34:leaf=-0.0297971
			8:[f7<5] yes=17,no=18,missing=17
				17:[f1<25.5] yes=35,no=36,missing=36
					35:leaf=0.0201438
					36:leaf=-0.021283
				18:[f3<11099] yes=37,no=38,missing=38
					37:leaf=0.0321227
					38:leaf=-0.0131654
		4:[f3<10585.5] yes=9,no=10,missing=9
			9:[f5<3991.5] yes=19,no=20,missing=20
				19:[f8<4.5] yes=39,no=40,missing=39
					39:leaf=-0.0302748
					40:leaf=-0.0155776
				20:[f1<53] yes=41,no=42,missing=42
					41:leaf=-0.0285846
					42:leaf=-0.00672589
			10:[f1<55] yes=21,no=22,missing=22
				21:[f8<29.5] yes=43,no=44,missing=44
					43:leaf=-0.019507
					44:leaf=0.0220415
				22:leaf=0.0352399
	2:[f5<11.5] yes=5,no=6,missing=5
		5:[f1<31.5] yes=11,no=12,missing=12
			11:[f3<7493] yes=23,no=24,missing=23
				23:[f2<1643.5] yes=45,no=46,missing=45
					45:leaf=-0.0293042
					46:leaf=0.00702218
				24:[f7<4.5] yes=47,no=48,missing=48
					47:leaf=0.0372874
					48:leaf=-0.0195315
			12:[f3<4668.5] yes=25,no=26,missing=25
				25:[f7<4.5] yes=49,no=50,missing=50
					49:leaf=-0.0215225
					50:leaf=-0.0131185
				26:[f3<4973.5] yes=51,no=52,missing=52
					51:leaf=0.0551163
					52:leaf=0.00132758
		6:[f3<4668.5] yes=13,no=14,missing=13
			13:[f4<1975.5] yes=27,no=28,missing=27
				27:[f5<968] yes=53,no=54,missing=54
					53:leaf=-0.00993506
					54:leaf=0.00341455
				28:[f5<61.5] yes=55,no=56,missing=56
					55:leaf=-0.0109869
					56:leaf=0.0308896
			14:[f1<46.5] yes=29,no=30,missing=30
				29:[f6<926.5] yes=57,no=58,missing=58
					57:leaf=-0.0175768
					58:leaf=0.0126563
				30:[f6<1660.55] yes=59,no=60,missing=60
					59:leaf=0.0338955
					60:leaf=0.0145016
booster[47]:
0:[f8<45.5] yes=1,no=2,missing=1
	1:[f5<49] yes=3,no=4,missing=3
		3:[f3<7364] yes=7,no=8,missing=7
			7:[f4<1881.5] yes=15,no=16,missing=15
				15:[f1<27.5] yes=31,no=32,missing=31
					31:leaf=-0.0341695
					32:leaf=-0.031576
				16:[f4<1989] yes=33,no=34,missing=34
					33:leaf=0.0149361
					34:leaf=-0.024361
			8:[f7<5] yes=17,no=18,missing=17
				17:[f1<25.5] yes=35,no=36,missing=36
					35:leaf=0.0197229
					36:leaf=-0.0208144
				18:[f3<11099] yes=37,no=38,missing=38
					37:leaf=0.0313744
					38:leaf=-0.0129107
		4:[f3<5826.5] yes=9,no=10,missing=9
			9:[f5<8975] yes=19,no=20,missing=20
				19:[f8<14.5] yes=39,no=40,missing=39
					39:leaf=-0.0276815
					40:leaf=-0.0148839
				20:[f1<80.5] yes=41,no=42,missing=42
					41:leaf=0.00177011
					42:leaf=-0.0297957
			10:[f1<73.5] yes=21,no=22,missing=22
				21:[f3<10585.5] yes=43,no=44,missing=44
					43:leaf=-0.01875
					44:leaf=0.0233118
				22:[f6<872.74] yes=45,no=46,missing=46
					45:leaf=-0.00436744
					46:leaf=0.0391551
	2:[f5<0.5] yes=5,no=6,missing=5
		5:[f1<29.5] yes=11,no=12,missing=12
			11:[f3<7073.5] yes=23,no=24,missing=23
				23:[f2<1489.5] yes=47,no=48,missing=47
					47:leaf=-0.0307646
					48:leaf=0.00252695
				24:[f6<1456.48] yes=49,no=50,missing=50
					49:leaf=-0.0111211
					50:leaf=0.0267256
			12:[f3<4668.5] yes=25,no=26,missing=25
				25:[f4<1881.5] yes=51,no=52,missing=51
					51:leaf=-0.0189683
					52:leaf=0.00358273
				26:[f3<14682] yes=53,no=54,missing=54
					53:leaf=-0.00431894
					54:leaf=0.0167649
		6:[f1<34.5] yes=13,no=14,missing=14
			13:[f1<29.5] yes=27,no=28,missing=28
				27:[f8<47] yes=55,no=56,missing=56
					55:leaf=0.0242457
					56:leaf=-0.0283817
				28:[f5<477] yes=57,no=58,missing=58
					57:leaf=-0.0170172
					58:leaf=0.0056121
			14:[f3<4536.5] yes=29,no=30,missing=29
				29:[f7<5.5] yes=59,no=60,missing=60
					59:leaf=-0.0093309
					60:leaf=0.00421914
				30:[f3<4973.5] yes=61,no=62,missing=62
					61:leaf=0.0496873
					62:leaf=0.0156463
booster[48]:
0:[f8<47.5] yes=1,no=2,missing=1
	1:[f5<49] yes=3,no=4,missing=3
		3:[f3<7364] yes=7,no=8,missing=7
			7:[f4<1881.5] yes=15,no=16,missing=15
				15:[f1<27.5] yes=29,no=30,missing=29
					29:leaf=-0.0340301
					30:leaf=-0.0312607
				16:[f8<37] yes=31,no=32,missing=32
					31:leaf=0.00784955
					32:leaf=-0.0299897
			8:[f8<38] yes=17,no=18,missing=17
				17:[f6<1237.72] yes=33,no=34,missing=34
					33:leaf=-0.0310596
					34:leaf=0.00163285
				18:[f6<1322.07] yes=35,no=36,missing=36
					35:leaf=0.0307229
					36:leaf=0.00830386
		4:[f3<10585.5] yes=9,no=10,missing=9
			9:[f5<2901] yes=19,no=20,missing=20
				19:[f8<14.5] yes=37,no=38,missing=37
					37:leaf=-0.0291741
					38:leaf=-0.0152903
				20:[f7<5.5] yes=39,no=40,missing=39
					39:leaf=-0.0132402
					40:leaf=0.0153064
			10:[f1<55] yes=21,no=22,missing=22
				21:[f8<29.5] yes=41,no=42,missing=42
					41:leaf=-0.0195439
					42:leaf=0.0238691
				22:leaf=0.0346642
	2:[f5<148] yes=5,no=6,missing=5
		5:[f1<34.5] yes=11,no=12,missing=12
			11:[f3<7565.5] yes=23,no=24,missing=23
				23:[f1<29.5] yes=43,no=44,missing=44
					43:leaf=-0.0299126
					44:leaf=-0.0220684
				24:[f6<876.925] yes=45,no=46,missing=46
					45:leaf=-0.0395893
					46:leaf=0.0215
			12:[f3<7073.5] yes=25,no=26,missing=25
				25:[f2<50] yes=47,no=48,missing=47
					47:leaf=-0.0143072
					48:leaf=-0.0278006
				26:[f6<648.135] yes=49,no=50,missing=50
					49:leaf=0.0395075
					50:leaf=0.00337209
		6:[f6<263.675] yes=13,no=14,missing=14
			13:leaf=-0.0472388
			14:[f1<30.5] yes=27,no=28,missing=28
				27:[f6<2579.16] yes=51,no=52,missing=52
					51:leaf=-0.0294402
					52:leaf=-0.000769945
				28:[f5<2275] yes=53,no=54,missing=54
					53:leaf=-0.000246751
					54:leaf=0.01549
booster[49]:
0:[f8<45.5] yes=1,no=2,missing=1
	1:[f5<49] yes=3,no=4,missing=3
		3:[f3<7364] yes=7,no=8,missing=7
			7:[f4<1881.5] yes=15,no=16,missing=15
				15:[f1<27.5] yes=31,no=32,missing=31
					31:leaf=-0.0338903
					32:leaf=-0.0311729
				16:[f4<1989] yes=33,no=34,missing=34
					33:leaf=0.0147964
					34:leaf=-0.0238823
			8:[f7<5] yes=17,no=18,missing=17
				17:[f1<25.5] yes=35,no=36,missing=36
					35:leaf=0.019143
					36:leaf=-0.0200558
				18:[f3<11099] yes=37,no=38,missing=38
					37:leaf=0.0304354
					38:leaf=-0.0125007
		4:[f3<5826.5] yes=9,no=10,missing=9
			9:[f5<8975] yes=19,no=20,missing=20
				19:[f8<14.5] yes=39,no=40,missing=39
					39:leaf=-0.027131
					40:leaf=-0.0142786
				20:[f1<80.5] yes=41,no=42,missing=42
					41:leaf=0.00203217
					42:leaf=-0.0291275
			10:[f1<73.5] yes=21,no=22,missing=22
				21:[f3<10585.5] yes=43,no=44,missing=44
					43:leaf=-0.0179089
					44:leaf=0.0226117
				22:[f6<872.74] yes=45,no=46,missing=46
					45:leaf=-0.00444759
					46:leaf=0.0386018
	2:[f5<0.5] yes=5,no=6,missing=5
		5:[f1<29.5] yes=11,no=12,missing=12
			11:[f3<7073.5] yes=23,no=24,missing=23
				23:[f4<2391.5] yes=47,no=48,missing=47
					47:leaf=-0.030132
					48:leaf=0.0288385
				24:[f6<1456.48] yes=49,no=50,missing=50
					49:leaf=-0.0105376
					50:leaf=0.0263369
			12:[f3<4668.5] yes=25,no=26,missing=25
				25:[f7<4.5] yes=51,no=52,missing=52
					51:leaf=-0.02093
					52:leaf=-0.0127243
				26:[f3<4973.5] yes=53,no=54,missing=54
					53:leaf=0.0537086
					54:leaf=-0.000337938
		6:[f3<9953] yes=13,no=14,missing=13
			13:[f4<1975.5] yes=27,no=28,missing=27
				27:[f7<1.5] yes=55,no=56,missing=56
					55:leaf=-0.0181675
					56:leaf=-0.00318909
				28:[f1<31.5] yes=57,no=58,missing=58
					57:leaf=-0.0263731
					58:leaf=0.0293686
			14:[f6<2747.62] yes=29,no=30,missing=30
				29:[f6<580.35] yes=59,no=60,missing=60
					59:leaf=-0.00208412
					60:leaf=0.0325389
				30:[f7<5] yes=61,no=62,missing=62
					61:leaf=0.0292006
					62:leaf=-0.0205953
booster[50]:
0:[f8<45.5] yes=1,no=2,missing=1
	1:[f5<49] yes=3,no=4,missing=3
		3:[f3<7364] yes=7,no=8,missing=7
			7:[f4<1881.5] yes=15,no=16,missing=15
				15:[f1<27.5] yes=31,no=32,missing=31
					31:leaf=-0.0337584
					32:leaf=-0.0309757
				16:[f8<37] yes=33,no=34,missing=34
					33:leaf=0.0079437
					34:leaf=-0.0289568
			8:[f8<38] yes=17,no=18,missing=17
				17:[f6<1237.72] yes=35,no=36,missing=36
					35:leaf=-0.0301639
					36:leaf=0.00173428
				18:[f7<5] yes=37,no=38,missing=38
					37:leaf=0.00188482
					38:leaf=0.0292776
		4:[f3<5826.5] yes=9,no=10,missing=9
			9:[f5<8975] yes=19,no=20,missing=20
				19:[f8<14.5] yes=39,no=40,missing=39
					39:leaf=-0.0268438
					40:leaf=-0.0139775
				20:[f1<80.5] yes=41,no=42,missing=42
					41:leaf=0.00197132
					42:leaf=-0.0286798
			10:[f1<73.5] yes=21,no=22,missing=22
				21:[f3<10585.5] yes=43,no=44,missing=44
					43:leaf=-0.0174846
					44:leaf=0.0222044
				22:[f6<872.74] yes=45,no=46,missing=46
					45:leaf=-0.00437524
					46:leaf=0.0379653
	2:[f5<0.5] yes=5,no=6,missing=5
		5:[f1<29.5] yes=11,no=12,missing=12
			11:[f3<7073.5] yes=23,no=24,missing=23
				23:[f2<1489.5] yes=47,no=48,missing=47
					47:leaf=-0.0300873
					48:leaf=0.00418679
				24:[f6<1456.48] yes=49,no=50,missing=50
					49:leaf=-0.0102829
					50:leaf=0.025554
			12:[f3<4668.5] yes=25,no=26,missing=25
				25:[f4<1881.5] yes=51,no=52,missing=51
					51:leaf=-0.0179707
					52:leaf=0.00450034
				26:[f3<14682] yes=53,no=54,missing=54
					53:leaf=-0.00428358
					54:leaf=0.0162682
		6:[f1<34.5] yes=13,no=14,missing=14
			13:[f1<29.5] yes=27,no=28,missing=28
				27:[f8<47] yes=55,no=56,missing=56
					55:leaf=0.0246379
					56:leaf=-0.0274952
				28:[f5<477] yes=57,no=58,missing=58
					57:leaf=-0.0161933
					58:leaf=0.00566374
			14:[f5<2275] yes=29,no=30,missing=30
				29:[f7<5.5] yes=59,no=60,missing=60
					59:leaf=-0.00901589
					60:leaf=0.0035766
				30:[f7<1.5] yes=61,no=62,missing=62
					61:leaf=-0.00118505
					62:leaf=0.021584
booster[51]:
0:[f8<45.5] yes=1,no=2,missing=1
	1:[f5<49] yes=3,no=4,missing=3
		3:[f3<7364] yes=7,no=8,missing=7
			7:[f4<1881.5] yes=15,no=16,missing=15
				15:[f1<27.5] yes=31,no=32,missing=31
					31:leaf=-0.0336313
					32:leaf=-0.0307813
				16:[f4<1989] yes=33,no=34,missing=34
					33:leaf=0.0146373
					34:leaf=-0.0234212
			8:[f7<5] yes=17,no=18,missing=17
				17:[f1<25.5] yes=35,no=36,missing=36
					35:leaf=0.0187112
					36:leaf=-0.0193249
				18:[f3<11099] yes=37,no=38,missing=38
					37:leaf=0.0295439
					38:leaf=-0.0122651
		4:[f3<5826.5] yes=9,no=10,missing=9
			9:[f5<8975] yes=19,no=20,missing=20
				19:[f8<14.5] yes=39,no=40,missing=39
					39:leaf=-0.0265586
					40:leaf=-0.013681
				20:[f1<80.5] yes=41,no=42,missing=42
					41:leaf=0.00191233
					42:leaf=-0.0282421
			10:[f1<73.5] yes=21,no=22,missing=22
				21:[f3<10585.5] yes=43,no=44,missing=44
					43:leaf=-0.0170708
					44:leaf=0.0218029
				22:[f6<872.74] yes=45,no=46,missing=46
					45:leaf=-0.00430408
					46:leaf=0.0373436
	2:[f5<11.5] yes=5,no=6,missing=5
		5:[f1<31.5] yes=11,no=12,missing=12
			11:[f3<7493] yes=23,no=24,missing=23
				23:[f2<1494] yes=47,no=48,missing=47
					47:leaf=-0.028087
					48:leaf=0.00259349
				24:[f7<4.5] yes=49,no=50,missing=50
					49:leaf=0.03631
					50:leaf=-0.0191136
			12:[f3<4668.5] yes=25,no=26,missing=25
				25:[f7<4.5] yes=51,no=52,missing=52
					51:leaf=-0.0198935
					52:leaf=-0.0113814
				26:[f3<4973.5] yes=53,no=54,missing=54
					53:leaf=0.051858
					54:leaf=0.00110434
		6:[f3<9953] yes=13,no=14,missing=13
			13:[f4<1975.5] yes=27,no=28,missing=27
				27:[f7<1.5] yes=55,no=56,missing=56
					55:leaf=-0.0164414
					56:leaf=-0.00247514
				28:[f5<61.5] yes=57,no=58,missing=58
					57:leaf=-0.0108369
					58:leaf=0.0301102
			14:[f1<41.5] yes=29,no=30,missing=30
				29:[f1<40.5] yes=59,no=60,missing=60
					59:leaf=0.0185199
					60:leaf=-0.0311796
				30:[f6<621.665] yes=61,no=62,missing=62
					61:leaf=0.00674457
					62:leaf=0.0317234
booster[52]:
0:[f8<45.5] yes=1,no=2,missing=1
	1:[f5<49] yes=3,no=4,missing=3
		3:[f3<4003] yes=7,no=8,missing=7
			7:[f4<1881.5] yes=15,no=16,missing=15
				15:[f1<27.5] yes=29,no=30,missing=29
					29:leaf=-0.0335087
					30:leaf=-0.0306555
				16:[f8<37] yes=31,no=32,missing=32
					31:leaf=0.00802156
