booster[0]:
0:[f2<7364] yes=1,no=2,missing=1
	1:[f4<11.5] yes=3,no=4,missing=3
		3:[f6<47.5] yes=7,no=8,missing=7
			7:[f3<1881.5] yes=15,no=16,missing=15
				15:leaf=-0.05946
				16:[f6<37] yes=31,no=32,missing=32
					31:leaf=-0.0142857
					32:leaf=-0.051
			8:[f3<1881.5] yes=17,no=18,missing=17
				17:[f0<31.5] yes=33,no=34,missing=34
					33:leaf=-0.0569284
					34:leaf=-0.0475332
				18:[f0<35.5] yes=35,no=36,missing=36
					35:leaf=-0.036
					36:leaf=-0.00139535
		4:[f6<50.5] yes=9,no=10,missing=9
			9:[f4<14715] yes=19,no=20,missing=20
				19:[f6<27.5] yes=37,no=38,missing=37
					37:leaf=-0.0546383
					38:leaf=-0.0413428
				20:[f0<79.5] yes=39,no=40,missing=40
					39:leaf=0.00428571
					40:leaf=-0.0230769
			10:[f3<1894.5] yes=21,no=22,missing=21
				21:[f4<2275] yes=41,no=42,missing=42
					41:leaf=-0.0251044
					42:leaf=0.0072973
				22:[f0<31.5] yes=43,no=44,missing=44
					43:leaf=-0.03
					44:leaf=0.0366667
	2:[f2<10041] yes=5,no=6,missing=6
		5:[f2<7937] yes=11,no=12,missing=12
			11:[f5<12] yes=23,no=24,missing=24
				23:[f4<55] yes=45,no=46,missing=46
					45:leaf=0.0381818
					46:leaf=0.012
				24:[f0<71] yes=47,no=48,missing=48
					47:leaf=-0.03
					48:leaf=-0
			12:[f4<1174] yes=25,no=26,missing=25
				25:[f6<50] yes=49,no=50,missing=50
					49:leaf=-0.012
					50:leaf=-0.048
				26:leaf=0.00666667
		6:[f6<37.5] yes=13,no=14,missing=14
			13:[f0<55] yes=27,no=28,missing=28
				27:leaf=-0.04
				28:leaf=0.015
			14:[f0<80] yes=29,no=30,missing=30
				29:[f1<833.5] yes=51,no=52,missing=52
					51:leaf=-0
					52:leaf=0.04608
				30:leaf=-0.00666667
booster[1]:
0:[f2<7364] yes=1,no=2,missing=1
	1:[f4<199998] yes=3,no=4,missing=4
		3:[f6<50.5] yes=7,no=8,missing=7
			7:[f4<14715] yes=15,no=16,missing=16
				15:[f6<27.5] yes=31,no=32,missing=31
					31:leaf=-0.0533346
					32:leaf=-0.0417809
				16:[f0<79.5] yes=33,no=34,missing=34
					33:leaf=0.00417553
					34:leaf=-0.0225997
			8:[f3<1894.5] yes=17,no=18,missing=17
				17:[f4<194.5] yes=35,no=36,missing=36
					35:leaf=-0.0330031
					36:leaf=-0.0137098
				18:[f4<61.5] yes=37,no=38,missing=38
					37:leaf=-0.00913456
					38:leaf=0.0375745
		4:[f6<47.5] yes=9,no=10,missing=9
			9:[f3<1881.5] yes=19,no=20,missing=19
				19:leaf=-0.0577259
				20:[f6<37] yes=39,no=40,missing=40
					39:leaf=-0.0139394
					40:leaf=-0.0494253
			10:[f3<1881.5] yes=21,no=22,missing=21
				21:[f0<29.5] yes=41,no=42,missing=42
					41:leaf=-0.0561981
					42:leaf=-0.0467499
				22:[f3<1978.5] yes=43,no=44,missing=44
					43:leaf=0.003373
					44:leaf=-0.0268989
	2:[f2<10041] yes=5,no=6,missing=6
		5:[f2<7937] yes=11,no=12,missing=12
			11:[f5<12] yes=23,no=24,missing=24
				23:[f4<55] yes=45,no=46,missing=46
					45:leaf=0.0374617
					46:leaf=0.0116548
				24:leaf=-0.0197015
			12:[f4<1174] yes=25,no=26,missing=25
				25:[f6<50] yes=47,no=48,missing=48
					47:leaf=-0.0117843
					48:leaf=-0.0467756
				26:leaf=0.0065556
		6:[f6<37.5] yes=13,no=14,missing=14
			13:[f0<45.5] yes=27,no=28,missing=28
				27:leaf=-0.0374278
				28:leaf=0.00660045
			14:[f1<833.5] yes=29,no=30,missing=30
				29:leaf=-0.00664445
				30:[f4<199998] yes=49,no=50,missing=50
					49:leaf=0.0502539
					50:leaf=0.0349173
booster[2]:
0:[f2<7364] yes=1,no=2,missing=1
	1:[f4<11.5] yes=3,no=4,missing=3
		3:[f6<47.5] yes=7,no=8,missing=7
			7:[f3<1881.5] yes=15,no=16,missing=15
				15:leaf=-0.0561423
				16:[f6<37] yes=31,no=32,missing=32
					31:leaf=-0.0136025
					32:leaf=-0.0484057
			8:[f3<1881.5] yes=17,no=18,missing=17
				17:[f0<31.5] yes=33,no=34,missing=34
					33:leaf=-0.0537658
					34:leaf=-0.0448168
				18:[f0<35.5] yes=35,no=36,missing=36
					35:leaf=-0.0346263
					36:leaf=-0.00110366
		4:[f6<50.5] yes=9,no=10,missing=9
			9:[f4<14715] yes=19,no=20,missing=20
				19:[f6<27.5] yes=37,no=38,missing=37
					37:leaf=-0.0515654
					38:leaf=-0.038952
				20:[f0<79.5] yes=39,no=40,missing=40
					39:leaf=0.0040682
					40:leaf=-0.0221364
			10:[f3<1894.5] yes=21,no=22,missing=21
				21:[f4<2275] yes=41,no=42,missing=42
					41:leaf=-0.0236942
					42:leaf=0.00748455
				22:[f4<61.5] yes=43,no=44,missing=44
					43:leaf=-0.0142662
					44:leaf=0.0365487
	2:[f2<10041] yes=5,no=6,missing=6
		5:[f2<7937] yes=11,no=12,missing=12
			11:[f5<12] yes=23,no=24,missing=24
				23:[f4<55] yes=45,no=46,missing=46
					45:leaf=0.0367718
					46:leaf=0.0113203
				24:leaf=-0.0193107
			12:[f4<1174] yes=25,no=26,missing=25
				25:[f6<50] yes=47,no=48,missing=48
					47:leaf=-0.0115729
					48:leaf=-0.0456263
				26:leaf=0.00644646
		6:[f6<37.5] yes=13,no=14,missing=14
			13:[f0<45.5] yes=27,no=28,missing=28
				27:leaf=-0.0367394
				28:leaf=0.00649053
			14:[f0<80] yes=29,no=30,missing=30
				29:[f4<199998] yes=49,no=50,missing=50
					49:leaf=0.048733
					50:leaf=0.0344055
				30:leaf=-0.00710226
booster[3]:
0:[f2<7364] yes=1,no=2,missing=1
	1:[f4<199998] yes=3,no=4,missing=4
		3:[f6<50.5] yes=7,no=8,missing=7
			7:[f4<8975] yes=15,no=16,missing=16
				15:[f6<27.5] yes=31,no=32,missing=31
					31:leaf=-0.0513682
					32:leaf=-0.040055
				16:[f4<18239.5] yes=33,no=34,missing=34
					33:leaf=-0.0277163
					34:leaf=0.00243815
			8:[f3<1894.5] yes=17,no=18,missing=17
				17:[f4<148] yes=35,no=36,missing=36
					35:leaf=-0.0322412
					36:leaf=-0.0135552
				18:[f0<32.5] yes=37,no=38,missing=38
					37:leaf=-0.0206441
					38:leaf=0.033992
		4:[f6<47.5] yes=9,no=10,missing=9
			9:[f3<1881.5] yes=19,no=20,missing=19
				19:leaf=-0.0546807
				20:[f6<37] yes=39,no=40,missing=40
					39:leaf=-0.0132747
					40:leaf=-0.0470023
			10:[f3<1881.5] yes=21,no=22,missing=21
				21:[f0<29.5] yes=41,no=42,missing=42
					41:leaf=-0.0532388
					42:leaf=-0.0441812
				22:[f3<1978.5] yes=43,no=44,missing=44
					43:leaf=0.00347753
					44:leaf=-0.0257972
	2:[f2<10041] yes=5,no=6,missing=6
		5:[f2<7937] yes=11,no=12,missing=12
			11:[f5<12] yes=23,no=24,missing=24
				23:[f0<56.5] yes=45,no=46,missing=46
					45:leaf=0.0105846
					46:leaf=0.0335437
				24:leaf=-0.01893
			12:[f4<1174] yes=25,no=26,missing=25
				25:[f6<50] yes=47,no=48,missing=48
					47:leaf=-0.0113658
					48:leaf=-0.0445452
				26:leaf=0.00633921
		6:[f6<37.5] yes=13,no=14,missing=14
			13:[f0<45.5] yes=27,no=28,missing=28
				27:leaf=-0.0360793
				28:leaf=0.00638253
			14:[f0<80] yes=29,no=30,missing=30
				29:[f4<199998] yes=49,no=50,missing=50
					49:leaf=0.04745
					50:leaf=0.033462
				30:leaf=-0.00698358
booster[4]:
0:[f2<7364] yes=1,no=2,missing=1
	1:[f4<11.5] yes=3,no=4,missing=3
		3:[f6<47.5] yes=7,no=8,missing=7
			7:[f3<1881.5] yes=15,no=16,missing=15
				15:leaf=-0.0533392
				16:[f6<37] yes=31,no=32,missing=32
					31:leaf=-0.0129558
					32:leaf=-0.0461342
			8:[f3<1881.5] yes=17,no=18,missing=17
				17:[f0<31.5] yes=33,no=34,missing=34
					33:leaf=-0.0510637
					34:leaf=-0.0424231
				18:[f0<35.5] yes=35,no=36,missing=36
					35:leaf=-0.0333495
					36:leaf=-0.000844976
		4:[f6<44.5] yes=9,no=10,missing=9
			9:[f4<14715] yes=19,no=20,missing=20
				19:[f4<2901] yes=37,no=38,missing=38
					37:leaf=-0.049718
					38:leaf=-0.0376823
				20:[f0<79.5] yes=39,no=40,missing=40
					39:leaf=0.00447921
					40:leaf=-0.0215331
			10:[f3<1975.5] yes=21,no=22,missing=21
				21:[f4<2275] yes=41,no=42,missing=42
					41:leaf=-0.0231134
					42:leaf=0.00642459
				22:[f4<61.5] yes=43,no=44,missing=44
					43:leaf=-0.00745646
					44:leaf=0.0419016
	2:[f2<10041] yes=5,no=6,missing=6
		5:[f2<7937] yes=11,no=12,missing=12
			11:[f6<38] yes=23,no=24,missing=23
				23:[f0<59] yes=45,no=46,missing=46
					45:leaf=-0.0198816
					46:leaf=-0.0045335
				24:[f4<55] yes=47,no=48,missing=48
					47:leaf=0.0359228
					48:leaf=0.0111321
			12:[f2<9000] yes=25,no=26,missing=26
				25:leaf=-0.0466234
				26:[f5<5] yes=49,no=50,missing=50
					49:leaf=-0.0207564
					50:leaf=0.00689472
		6:[f6<37.5] yes=13,no=14,missing=14
			13:[f0<45.5] yes=27,no=28,missing=28
				27:leaf=-0.0354457
				28:leaf=0.00627639
			14:[f1<833.5] yes=29,no=30,missing=30
				29:leaf=-0.00739463
				30:[f4<199998] yes=51,no=52,missing=52
					51:leaf=0.046432
					52:leaf=0.0321407
booster[5]:
0:[f2<7364] yes=1,no=2,missing=1
	1:[f4<199998] yes=3,no=4,missing=4
		3:[f6<50.5] yes=7,no=8,missing=7
			7:[f4<8975] yes=15,no=16,missing=16
				15:[f6<27.5] yes=31,no=32,missing=31
					31:leaf=-0.0489126
					32:leaf=-0.0380035
				16:[f4<18239.5] yes=33,no=34,missing=34
					33:leaf=-0.0261795
					34:leaf=0.00243077
			8:[f3<1975.5] yes=17,no=18,missing=17
				17:[f4<148] yes=35,no=36,missing=36
					35:leaf=-0.0305985
					36:leaf=-0.0120786
				18:[f4<61.5] yes=37,no=38,missing=38
					37:leaf=-0.000661621
					38:leaf=0.0409503
		4:[f6<47.5] yes=9,no=10,missing=9
			9:[f3<1881.5] yes=19,no=20,missing=19
				19:leaf=-0.0520917
				20:[f6<37] yes=39,no=40,missing=40
					39:leaf=-0.0126454
					40:leaf=-0.04487
			10:[f3<1881.5] yes=21,no=22,missing=21
				21:[f0<29.5] yes=41,no=42,missing=42
					41:leaf=-0.050704
					42:leaf=-0.0419091
				22:[f3<1978.5] yes=43,no=44,missing=44
					43:leaf=0.00356662
					44:leaf=-0.0247633
	2:[f2<10041] yes=5,no=6,missing=6
		5:[f2<7937] yes=11,no=12,missing=12
			11:[f5<12] yes=23,no=24,missing=24
				23:[f0<56.5] yes=45,no=46,missing=46
					45:leaf=0.00994191
					46:leaf=0.032649
				24:leaf=-0.0183962
			12:[f4<1174] yes=25,no=26,missing=25
				25:[f6<50] yes=47,no=48,missing=48
					47:leaf=-0.0107225
					48:leaf=-0.0427419
				26:leaf=0.00638954
		6:[f6<37.5] yes=13,no=14,missing=14
			13:[f0<45.5] yes=27,no=28,missing=28
				27:leaf=-0.0348369
				28:leaf=0.00617208
			14:[f0<80] yes=29,no=30,missing=30
				29:[f4<199998] yes=49,no=50,missing=50
					49:leaf=0.0451176
					50:leaf=0.0317491
				30:leaf=-0.00736882
booster[6]:
0:[f2<7364] yes=1,no=2,missing=1
	1:[f4<199998] yes=3,no=4,missing=4
		3:[f6<50.5] yes=7,no=8,missing=7
			7:[f4<8975] yes=15,no=16,missing=16
				15:[f6<27.5] yes=31,no=32,missing=31
					31:leaf=-0.0477837
					32:leaf=-0.0370333
				16:[f4<18239.5] yes=33,no=34,missing=34
					33:leaf=-0.0255066
					34:leaf=0.00236864
			8:[f3<1894.5] yes=17,no=18,missing=17
				17:[f4<2275] yes=35,no=36,missing=36
					35:leaf=-0.0224797
					36:leaf=0.00782732
				18:[f0<32.5] yes=37,no=38,missing=38
					37:leaf=-0.020859
					38:leaf=0.0320346
		4:[f6<47.5] yes=9,no=10,missing=9
			9:[f3<1881.5] yes=19,no=20,missing=19
				19:leaf=-0.0509382
				20:[f6<37] yes=39,no=40,missing=40
					39:leaf=-0.0123431
					40:leaf=-0.0438986
			10:[f3<1881.5] yes=21,no=22,missing=21
				21:[f0<29.5] yes=41,no=42,missing=42
					41:leaf=-0.0495588
					42:leaf=-0.0408669
				22:[f0<35.5] yes=43,no=44,missing=44
					43:leaf=-0.0321583
					44:leaf=-0.000627328
	2:[f2<10041] yes=5,no=6,missing=6
		5:[f2<7937] yes=11,no=12,missing=12
			11:[f6<38] yes=23,no=24,missing=23
				23:[f0<59] yes=45,no=46,missing=46
					45:leaf=-0.0195351
					46:leaf=-0.00423777
				24:[f4<55] yes=47,no=48,missing=48
					47:leaf=0.0351243
					48:leaf=0.0104699
			12:[f2<9000] yes=25,no=26,missing=26
				25:leaf=-0.0448549
				26:[f5<5] yes=49,no=50,missing=50
					49:leaf=-0.0198342
					50:leaf=0.00709469
		6:[f6<37.5] yes=13,no=14,missing=14
			13:[f0<45.5] yes=27,no=28,missing=28
				27:leaf=-0.0342516
				28:leaf=0.00606958
			14:[f0<64.5] yes=29,no=30,missing=30
				29:[f0<38.5] yes=51,no=52,missing=52
					51:leaf=0.0295009
					52:leaf=0.0438375
				30:[f4<199998] yes=53,no=54,missing=54
					53:leaf=0.0371827
					54:leaf=-0.0169571
booster[7]:
0:[f2<7364] yes=1,no=2,missing=1
	1:[f6<47.5] yes=3,no=4,missing=3
		3:[f4<2901] yes=7,no=8,missing=7
			7:[f6<25.5] yes=15,no=16,missing=15
				15:[f2<6808] yes=31,no=32,missing=31
					31:leaf=-0.0500116
					32:leaf=-0.0142755
				16:[f3<1975.5] yes=33,no=34,missing=33
					33:leaf=-0.047166
					34:leaf=-0.00466452
			8:[f4<18239.5] yes=17,no=18,missing=18
				17:[f6<33] yes=35,no=36,missing=35
					35:leaf=-0.0353379
					36:leaf=-0.0034221
				18:[f4<20377] yes=37,no=38,missing=38
					37:leaf=0.0161945
					38:leaf=-0.00634992
		4:[f4<114] yes=9,no=10,missing=9
			9:[f0<34.5] yes=19,no=20,missing=20
				19:[f0<29.5] yes=39,no=40,missing=40
					39:leaf=-0.048476
					40:leaf=-0.0427164
				20:[f3<1881.5] yes=41,no=42,missing=41
					41:leaf=-0.0378739
					42:leaf=-0.00249497
			10:[f3<1894.5] yes=21,no=22,missing=21
				21:[f5<5.5] yes=43,no=44,missing=44
					43:leaf=-0.0211088
					44:leaf=-0.00348005
				22:[f0<34] yes=45,no=46,missing=46
					45:leaf=-0.00243012
					46:leaf=0.037555
	2:[f2<10041] yes=5,no=6,missing=6
		5:[f2<7937] yes=11,no=12,missing=12
			11:[f5<12] yes=23,no=24,missing=24
				23:[f0<56.5] yes=47,no=48,missing=48
					47:leaf=0.00933812
					48:leaf=0.0318048
				24:leaf=-0.0178834
			12:[f2<9000] yes=25,no=26,missing=26
				25:leaf=-0.0439496
				26:[f5<5] yes=49,no=50,missing=50
					49:leaf=-0.0194465
					50:leaf=0.00695823
		6:[f6<37.5] yes=13,no=14,missing=14
			13:[f0<45.5] yes=27,no=28,missing=28
				27:leaf=-0.0336881
				28:leaf=0.00596884
			14:[f1<833.5] yes=29,no=30,missing=30
				29:leaf=-0.00775013
				30:[f5<12] yes=51,no=52,missing=52
					51:leaf=0.039659
					52:leaf=0.0187328
booster[8]:
0:[f2<7364] yes=1,no=2,missing=1
	1:[f6<47.5] yes=3,no=4,missing=3
		3:[f4<2901] yes=7,no=8,missing=7
			7:[f6<25.5] yes=15,no=16,missing=15
				15:[f2<6808] yes=31,no=32,missing=31
					31:leaf=-0.0490094
					32:leaf=-0.0140614
				16:[f4<174.5] yes=33,no=34,missing=33
					33:leaf=-0.046749
					34:leaf=-0.0320863
			8:[f4<18239.5] yes=17,no=18,missing=18
				17:[f6<33] yes=35,no=36,missing=35
					35:leaf=-0.0344969
					36:leaf=-0.00334252
				18:[f4<20377] yes=37,no=38,missing=38
					37:leaf=0.0158868
					38:leaf=-0.00620205
		4:[f4<114] yes=9,no=10,missing=9
			9:[f0<34.5] yes=19,no=20,missing=20
				19:[f0<29.5] yes=39,no=40,missing=40
					39:leaf=-0.04747
					40:leaf=-0.0417314
				20:[f3<1881.5] yes=41,no=42,missing=41
					41:leaf=-0.0369629
					42:leaf=-0.00242211
			10:[f3<1894.5] yes=21,no=22,missing=21
				21:[f5<5.5] yes=43,no=44,missing=44
					43:leaf=-0.0205091
					44:leaf=-0.00337733
				22:[f0<34] yes=45,no=46,missing=46
					45:leaf=-0.00238627
					46:leaf=0.0366295
	2:[f2<10041] yes=5,no=6,missing=6
		5:[f2<7937] yes=11,no=12,missing=12
			11:[f6<38] yes=23,no=24,missing=23
				23:[f0<59] yes=47,no=48,missing=48
					47:leaf=-0.0191952
					48:leaf=-0.00395428
				24:[f4<55] yes=49,no=50,missing=50
					49:leaf=0.0343716
					50:leaf=0.00984681
			12:[f4<1174] yes=25,no=26,missing=25
				25:[f6<50] yes=51,no=52,missing=52
					51:leaf=-0.00970902
					52:leaf=-0.0404513
				26:leaf=0.00657223
		6:[f6<37.5] yes=13,no=14,missing=14
			13:[f0<45.5] yes=27,no=28,missing=28
				27:leaf=-0.0331453
				28:leaf=0.00586982
			14:[f0<64.5] yes=29,no=30,missing=30
				29:[f0<38.5] yes=53,no=54,missing=54
					53:leaf=0.0278458
					54:leaf=0.0419235
				30:[f4<199998] yes=55,no=56,missing=56
					55:leaf=0.0358616
					56:leaf=-0.0170502
booster[9]:
0:[f2<7364] yes=1,no=2,missing=1
	1:[f6<50.5] yes=3,no=4,missing=3
		3:[f4<2901] yes=7,no=8,missing=7
			7:[f3<1881.5] yes=15,no=16,missing=15
				15:[f6<35.5] yes=31,no=32,missing=31
					31:leaf=-0.047983
					32:leaf=-0.044105
				16:[f6<48.5] yes=33,no=34,missing=33
					33:leaf=-0.0332149
					34:leaf=0.0225331
			8:[f4<18239.5] yes=17,no=18,missing=18
				17:[f5<1.5] yes=35,no=36,missing=36
					35:leaf=-0.00692447
					36:leaf=-0.0335799
				18:[f4<20377] yes=37,no=38,missing=38
					37:leaf=0.0193277
					38:leaf=-0.00905814
		4:[f4<114] yes=9,no=10,missing=9
			9:[f0<34.5] yes=19,no=20,missing=20
				19:[f0<29.5] yes=39,no=40,missing=40
					39:leaf=-0.0466044
					40:leaf=-0.0404771
				20:[f3<1881.5] yes=41,no=42,missing=41
					41:leaf=-0.0357625
					42:leaf=-0.00289583
			10:[f3<1894.5] yes=21,no=22,missing=21
				21:[f5<2.5] yes=43,no=44,missing=44
					43:leaf=-0.026181
					44:leaf=-0.00650934
				22:[f0<34] yes=45,no=46,missing=46
					45:leaf=-0.00234322
					46:leaf=0.0366807
	2:[f2<10041] yes=5,no=6,missing=6
		5:[f2<7937] yes=11,no=12,missing=12
			11:[f5<12] yes=23,no=24,missing=24
				23:[f0<56.5] yes=47,no=48,missing=48
					47:leaf=0.00877042
					48:leaf=0.0310066
				24:leaf=-0.0173904
			12:[f2<9000] yes=25,no=26,missing=26
				25:leaf=-0.0424491
				26:[f5<5] yes=49,no=50,missing=50
					49:leaf=-0.0186026
					50:leaf=0.00713422
		6:[f6<37.5] yes=13,no=14,missing=14
			13:[f0<45.5] yes=27,no=28,missing=28
				27:leaf=-0.032622
				28:leaf=0.00577251
			14:[f1<833.5] yes=29,no=30,missing=30
				29:leaf=-0.00768507
				30:[f4<199998] yes=51,no=52,missing=52
					51:leaf=0.0416768
					52:leaf=0.0278991
booster[10]:
0:[f2<7364] yes=1,no=2,missing=1
	1:[f6<51.5] yes=3,no=4,missing=3
		3:[f4<2901] yes=7,no=8,missing=7
			7:[f3<1881.5] yes=15,no=16,missing=15
				15:[f6<35.5] yes=31,no=32,missing=31
					31:leaf=-0.0471083
					32:leaf=-0.0431262
				16:[f6<48.5] yes=33,no=34,missing=33
					33:leaf=-0.0324586
					34:leaf=0.015598
			8:[f4<18239.5] yes=17,no=18,missing=18
				17:[f5<1.5] yes=35,no=36,missing=36
					35:leaf=-0.00675876
					36:leaf=-0.0330601
				18:[f4<20377] yes=37,no=38,missing=38
					37:leaf=0.0189466
					38:leaf=-0.00884436
		4:[f4<119] yes=9,no=10,missing=9
			9:[f0<34.5] yes=19,no=20,missing=20
				19:[f0<29.5] yes=39,no=40,missing=40
					39:leaf=-0.0456913
					40:leaf=-0.0396644
				20:[f3<1881.5] yes=41,no=42,missing=41
					41:leaf=-0.0348213
					42:leaf=-0.00242943
			10:[f3<1894.5] yes=21,no=22,missing=21
				21:[f4<2275] yes=43,no=44,missing=44
					43:leaf=-0.0147143
					44:leaf=0.00978171
				22:[f0<34] yes=45,no=46,missing=46
					45:leaf=-0.00230095
					46:leaf=0.0355749
	2:[f2<10041] yes=5,no=6,missing=6
		5:[f2<7937] yes=11,no=12,missing=12
			11:[f5<12] yes=23,no=24,missing=24
				23:[f4<55] yes=47,no=48,missing=48
					47:leaf=0.0336607
					48:leaf=0.00882991
				24:leaf=-0.0170574
			12:[f4<1174] yes=25,no=26,missing=25
				25:[f6<50] yes=49,no=50,missing=50
					49:leaf=-0.00915218
					50:leaf=-0.0390437
				26:leaf=0.00659718
		6:[f6<37.5] yes=13,no=14,missing=14
			13:[f0<45.5] yes=27,no=28,missing=28
				27:leaf=-0.032117
				28:leaf=0.00567686
			14:[f0<64.5] yes=29,no=30,missing=30
				29:[f0<38.5] yes=51,no=52,missing=52
					51:leaf=0.0264397
					52:leaf=0.0402331
				30:[f4<199998] yes=53,no=54,missing=54
					53:leaf=0.0342894
					54:leaf=-0.0171348
booster[11]:
0:[f2<7364] yes=1,no=2,missing=1
	1:[f6<47.5] yes=3,no=4,missing=3
		3:[f4<2901] yes=7,no=8,missing=7
			7:[f6<25.5] yes=15,no=16,missing=15
				15:[f2<6808] yes=31,no=32,missing=31
					31:leaf=-0.0463839
					32:leaf=-0.0124466
				16:[f4<174.5] yes=33,no=34,missing=33
					33:leaf=-0.0441473
					34:leaf=-0.029284
			8:[f4<18239.5] yes=17,no=18,missing=18
				17:[f6<33] yes=35,no=36,missing=35
					35:leaf=-0.0322505
					36:leaf=-0.00196147
				18:[f0<67] yes=37,no=38,missing=38
					37:leaf=-0.0124983
					38:leaf=0.0098448
		4:[f4<11.5] yes=9,no=10,missing=9
			9:[f3<1881.5] yes=19,no=20,missing=19
				19:[f0<31.5] yes=39,no=40,missing=40
					39:leaf=-0.0440639
					40:leaf=-0.0358975
				20:[f3<2396] yes=41,no=42,missing=42
					41:leaf=-0.0126983
					42:leaf=0.0278655
			10:[f3<1975.5] yes=21,no=22,missing=21
				21:[f0<33.5] yes=43,no=44,missing=44
					43:leaf=-0.0333692
					44:leaf=-0.0116626
				22:[f4<61.5] yes=45,no=46,missing=46
					45:leaf=-0.00768585
					46:leaf=0.0372956
	2:[f2<10041] yes=5,no=6,missing=6
		5:[f2<7937] yes=11,no=12,missing=12
			11:[f6<38] yes=23,no=24,missing=23
				23:[f0<59] yes=47,no=48,missing=48
					47:leaf=-0.0188453
					48:leaf=-0.00343044
				24:[f4<55] yes=49,no=50,missing=50
					49:leaf=0.0331189
					50:leaf=0.00901067
			12:[f2<9000] yes=25,no=26,missing=26
				25:leaf=-0.041092
				26:[f5<5] yes=51,no=52,missing=52
					51:leaf=-0.0178063
					52:leaf=0.00729391
		6:[f6<37.5] yes=13,no=14,missing=14
			13:[f0<45.5] yes=27,no=28,missing=28
				27:leaf=-0.0316292
				28:leaf=0.00558284
			14:[f0<80] yes=29,no=30,missing=30
				29:[f2<23582] yes=53,no=54,missing=54
					53:leaf=0.0299435
					54:leaf=0.0445431
				30:leaf=-0.00813034
booster[12]:
0:[f2<7364] yes=1,no=2,missing=1
	1:[f6<47.5] yes=3,no=4,missing=3
		3:[f4<2901] yes=7,no=8,missing=7
			7:[f6<25.5] yes=15,no=16,missing=15
				15:[f2<6808] yes=31,no=32,missing=31
					31:leaf=-0.045614
					32:leaf=-0.0122648
				16:[f4<174.5] yes=33,no=34,missing=33
					33:leaf=-0.0433735
					34:leaf=-0.0286255
			8:[f4<18239.5] yes=17,no=18,missing=18
				17:[f6<33] yes=35,no=36,missing=35
					35:leaf=-0.0315313
					36:leaf=-0.00191575
				18:[f0<67] yes=37,no=38,missing=38
					37:leaf=-0.0122724
					38:leaf=0.00961132
		4:[f4<11.5] yes=9,no=10,missing=9
			9:[f3<1881.5] yes=19,no=20,missing=19
				19:[f0<29.5] yes=39,no=40,missing=40
					39:leaf=-0.044125
					40:leaf=-0.0354396
				20:[f3<2396] yes=41,no=42,missing=42
					41:leaf=-0.0123355
					42:leaf=0.0271289
			10:[f3<1975.5] yes=21,no=22,missing=21
				21:[f0<33.5] yes=43,no=44,missing=44
					43:leaf=-0.0325368
					44:leaf=-0.0113285
				22:[f4<61.5] yes=45,no=46,missing=46
					45:leaf=-0.00755687
					46:leaf=0.0364642
	2:[f2<10041] yes=5,no=6,missing=6
		5:[f2<7937] yes=11,no=12,missing=12
			11:[f5<12] yes=23,no=24,missing=24
				23:[f0<56.5] yes=47,no=48,missing=48
					47:leaf=0.00794361
					48:leaf=0.0300846
				24:leaf=-0.0165953
			12:[f2<9000] yes=25,no=26,missing=26
				25:leaf=-0.0403836
				26:[f5<3.5] yes=49,no=50,missing=49
					49:leaf=-0.0156739
					50:leaf=0.00974654
		6:[f6<37.5] yes=13,no=14,missing=14
			13:[f0<45.5] yes=27,no=28,missing=28
				27:leaf=-0.0311578
				28:leaf=0.00549043
			14:[f0<64.5] yes=29,no=30,missing=30
				29:[f0<38.5] yes=51,no=52,missing=52
					51:leaf=0.0250342
					52:leaf=0.0386946
				30:[f4<199998] yes=53,no=54,missing=54
					53:leaf=0.0330545
					54:leaf=-0.0172555
booster[13]:
0:[f2<7055.5] yes=1,no=2,missing=1
	1:[f6<45.5] yes=3,no=4,missing=3
		3:[f4<8975] yes=7,no=8,missing=7
			7:[f4<49] yes=15,no=16,missing=15
				15:[f3<1881.5] yes=31,no=32,missing=31
					31:leaf=-0.0447956
					32:leaf=-0.0291271
				16:[f6<14.5] yes=33,no=34,missing=33
					33:leaf=-0.04156
					34:leaf=-0.0320547
			8:[f3<2795] yes=17,no=18,missing=18
				17:leaf=0.0231064
				18:[f0<64.5] yes=35,no=36,missing=36
					35:leaf=-0.0321401
					36:leaf=-0.00917051
		4:[f4<114] yes=9,no=10,missing=9
			9:[f0<34.5] yes=19,no=20,missing=20
				19:[f0<29.5] yes=37,no=38,missing=38
					37:leaf=-0.0434503
					38:leaf=-0.0375969
				20:[f3<1881.5] yes=39,no=40,missing=39
					39:leaf=-0.0332419
					40:leaf=-0.00212127
			10:[f3<1894.5] yes=21,no=22,missing=21
				21:[f4<2275] yes=41,no=42,missing=42
					41:leaf=-0.0149824
					42:leaf=0.00819547
				22:[f0<34] yes=43,no=44,missing=44
					43:leaf=-0.00317173
					44:leaf=0.0333716
	2:[f2<10041] yes=5,no=6,missing=6
		5:[f2<7937] yes=11,no=12,missing=12
			11:[f6<51] yes=23,no=24,missing=23
				23:[f0<61.5] yes=45,no=46,missing=46
					45:leaf=-0.0361927
					46:leaf=0.00377012
				24:[f4<800] yes=47,no=48,missing=48
					47:leaf=0.0186339
					48:leaf=-0.00232231
			12:[f4<1174] yes=25,no=26,missing=25
				25:[f6<50] yes=49,no=50,missing=50
					49:leaf=-0.00828833
					50:leaf=-0.0372459
				26:leaf=0.00687398
		6:[f6<37.5] yes=13,no=14,missing=14
			13:[f0<45.5] yes=27,no=28,missing=28
				27:leaf=-0.0307017
				28:leaf=0.0053996
			14:[f0<64.5] yes=29,no=30,missing=30
				29:[f0<38.5] yes=51,no=52,missing=52
					51:leaf=0.0244587
					52:leaf=0.0379228
				30:[f4<199998] yes=53,no=54,missing=54
					53:leaf=0.0324273
					54:leaf=-0.0168362
booster[14]:
0:[f2<7364] yes=1,no=2,missing=1
	1:[f6<51.5] yes=3,no=4,missing=3
		3:[f4<2901] yes=7,no=8,missing=7
			7:[f3<1881.5] yes=15,no=16,missing=15
				15:[f6<35.5] yes=31,no=32,missing=31
					31:leaf=-0.0441183
					32:leaf=-0.0401112
				16:[f6<48.5] yes=33,no=34,missing=33
					33:leaf=-0.0293437
					34:leaf=0.0146546
			8:[f4<18239.5] yes=17,no=18,missing=18
				17:[f5<1.5] yes=35,no=36,missing=36
					35:leaf=-0.00527231
					36:leaf=-0.0303206
				18:[f4<20377] yes=37,no=38,missing=38
					37:leaf=0.0186881
					38:leaf=-0.00854251
		4:[f4<11.5] yes=9,no=10,missing=9
			9:[f0<31.5] yes=19,no=20,missing=20
				19:[f1<1643.5] yes=39,no=40,missing=39
					39:leaf=-0.0419769
					40:leaf=-0.0052488
				20:[f3<1881.5] yes=41,no=42,missing=41
					41:leaf=-0.033251
					42:leaf=-0.00212746
			10:[f0<33.5] yes=21,no=22,missing=22
				21:[f4<121.5] yes=43,no=44,missing=44
					43:leaf=-0.0387626
					44:leaf=-0.0214489
				22:[f5<5.5] yes=45,no=46,missing=46
					45:leaf=-0.0159595
					46:leaf=0.00145774
	2:[f2<10041] yes=5,no=6,missing=6
		5:[f2<7937] yes=11,no=12,missing=12
			11:[f5<12] yes=23,no=24,missing=24
				23:[f0<56.5] yes=47,no=48,missing=48
					47:leaf=0.00769762
					48:leaf=0.0294159
				24:leaf=-0.016169
			12:[f2<9000] yes=25,no=26,missing=26
				25:leaf=-0.0392075
				26:[f5<3.5] yes=49,no=50,missing=49
					49:leaf=-0.0150185
					50:leaf=0.00997102
		6:[f6<37.5] yes=13,no=14,missing=14
			13:[f0<45.5] yes=27,no=28,missing=28
				27:leaf=-0.0302603
				28:leaf=0.00531031
			14:[f4<199998] yes=29,no=30,missing=30
				29:[f2<10585.5] yes=51,no=52,missing=52
					51:leaf=0.00926622
					52:leaf=0.039451
				30:[f0<64.5] yes=53,no=54,missing=54
					53:leaf=0.0287433
					54:leaf=-0.0164293
booster[15]:
0:[f2<7055.5] yes=1,no=2,missing=1
	1:[f6<47.5] yes=3,no=4,missing=3
		3:[f4<2901] yes=7,no=8,missing=7
			7:[f6<25.5] yes=15,no=16,missing=15
				15:leaf=-0.0435722
				16:[f4<174.5] yes=31,no=32,missing=31
					31:leaf=-0.0412576
					32:leaf=-0.0264198
			8:[f4<18239.5] yes=17,no=18,missing=18
				17:[f6<33] yes=33,no=34,missing=33
					33:leaf=-0.0295131
					34:leaf=-0.000719345
				18:[f0<67] yes=35,no=36,missing=36
					35:leaf=-0.0116507
					36:leaf=0.00954206
		4:[f4<114] yes=9,no=10,missing=9
			9:[f0<34.5] yes=19,no=20,missing=20
				19:[f0<29.5] yes=37,no=38,missing=38
					37:leaf=-0.0420586
					38:leaf=-0.0361203
				20:[f3<1881.5] yes=39,no=40,missing=39
					39:leaf=-0.0317973
					40:leaf=-0.0017257
			10:[f3<1894.5] yes=21,no=22,missing=21
				21:[f5<2.5] yes=41,no=42,missing=42
					41:leaf=-0.0239785
					42:leaf=-0.00573841
				22:[f0<34] yes=43,no=44,missing=44
					43:leaf=-0.00272717
					44:leaf=0.0327442
	2:[f2<10041] yes=5,no=6,missing=6
		5:[f2<7937] yes=11,no=12,missing=12
			11:[f6<51] yes=23,no=24,missing=23
				23:[f0<61.5] yes=45,no=46,missing=46
					45:leaf=-0.0350399
					46:leaf=0.00395905
				24:[f4<800] yes=47,no=48,missing=48
					47:leaf=0.0182194
					48:leaf=-0.00202511
			12:[f2<9000] yes=25,no=26,missing=26
				25:leaf=-0.038587
				26:[f5<5] yes=49,no=50,missing=50
					49:leaf=-0.0165852
					50:leaf=0.007466
		6:[f6<37.5] yes=13,no=14,missing=14
			13:[f0<45.5] yes=27,no=28,missing=28
				27:leaf=-0.0298326
				28:leaf=0.00522253
			14:[f4<199998] yes=29,no=30,missing=30
				29:[f2<10585.5] yes=51,no=52,missing=52
					51:leaf=0.0091017
					52:leaf=0.0387411
				30:[f0<64.5] yes=53,no=54,missing=54
					53:leaf=0.0281075
					54:leaf=-0.0160342
booster[16]:
0:[f2<7055.5] yes=1,no=2,missing=1
	1:[f6<45.5] yes=3,no=4,missing=3
		3:[f4<8975] yes=7,no=8,missing=7
			7:[f4<49] yes=15,no=16,missing=15
				15:[f3<1881.5] yes=31,no=32,missing=31
					31:leaf=-0.0428682
					32:leaf=-0.0270161
				16:[f6<14.5] yes=33,no=34,missing=33
					33:leaf=-0.0395218
					34:leaf=-0.029923
			8:[f3<2795] yes=17,no=18,missing=18
				17:leaf=0.0231446
				18:[f0<64.5] yes=35,no=36,missing=36
					35:leaf=-0.0305365
					36:leaf=-0.00789728
		4:[f4<11.5] yes=9,no=10,missing=9
			9:[f0<29.5] yes=19,no=20,missing=20
				19:[f1<1643.5] yes=37,no=38,missing=37
					37:leaf=-0.0416558
					38:leaf=-0.00489912
				20:[f3<1881.5] yes=39,no=40,missing=39
					39:leaf=-0.0328113
					40:leaf=-0.00298418
			10:[f3<1975.5] yes=21,no=22,missing=21
				21:[f1<1587.5] yes=41,no=42,missing=42
					41:leaf=-0.0445437
					42:leaf=-0.0121187
				22:[f4<61.5] yes=43,no=44,missing=44
					43:leaf=-0.00721526
					44:leaf=0.0348133
	2:[f2<10041] yes=5,no=6,missing=6
		5:[f2<7937] yes=11,no=12,missing=12
			11:[f6<51] yes=23,no=24,missing=23
				23:[f0<61.5] yes=45,no=46,missing=46
					45:leaf=-0.0344293
					46:leaf=0.00387391
				24:[f4<800] yes=47,no=48,missing=48
					47:leaf=0.0177083
					48:leaf=-0.0019665
			12:[f4<1174] yes=25,no=26,missing=25
				25:[f6<50] yes=49,no=50,missing=50
					49:leaf=-0.00748809
					50:leaf=-0.0356614
				26:leaf=0.00712176
		6:[f6<37.5] yes=13,no=14,missing=14
			13:[f2<17537.5] yes=27,no=28,missing=28
				27:leaf=-0.0309998
				28:leaf=0.00390038
			14:[f4<199998] yes=29,no=30,missing=30
				29:[f2<10585.5] yes=51,no=52,missing=52
					51:leaf=0.0089402
					52:leaf=0.0380622
				30:[f0<64.5] yes=53,no=54,missing=54
					53:leaf=0.0274918
					54:leaf=-0.0156504
booster[17]:
0:[f2<7055.5] yes=1,no=2,missing=1
	1:[f6<47.5] yes=3,no=4,missing=3
		3:[f4<2901] yes=7,no=8,missing=7
			7:[f6<25.5] yes=15,no=16,missing=15
				15:leaf=-0.0423944
				16:[f4<174.5] yes=31,no=32,missing=31
					31:leaf=-0.0400177
					32:leaf=-0.0252374
			8:[f4<18239.5] yes=17,no=18,missing=18
				17:[f5<5.5] yes=33,no=34,missing=33
					33:leaf=-0.0280767
					34:leaf=0.00217328
				18:[f0<67] yes=35,no=36,missing=36
					35:leaf=-0.0110577
					36:leaf=0.00945571
		4:[f4<114] yes=9,no=10,missing=9
			9:[f0<34.5] yes=19,no=20,missing=20
				19:[f0<29.5] yes=37,no=38,missing=38
					37:leaf=-0.0408283
					38:leaf=-0.0348606
				20:[f3<1881.5] yes=39,no=40,missing=39
					39:leaf=-0.0304825
					40:leaf=-0.00162204
			10:[f3<1894.5] yes=21,no=22,missing=21
				21:[f4<2275] yes=41,no=42,missing=42
					41:leaf=-0.0134032
					42:leaf=0.00866002
				22:[f0<34] yes=43,no=44,missing=44
					43:leaf=-0.0031662
					44:leaf=0.0316123
	2:[f2<10041] yes=5,no=6,missing=6
		5:[f2<7937] yes=11,no=12,missing=12
			11:[f2<7364] yes=23,no=24,missing=24
				23:[f4<46] yes=45,no=46,missing=45
					45:leaf=-0.0191942
					46:leaf=0.0140071
				24:[f5<12] yes=47,no=48,missing=48
					47:leaf=0.0104733
					48:leaf=-0.0156661
			12:[f2<9000] yes=25,no=26,missing=26
				25:leaf=-0.0375564
				26:[f5<3.5] yes=49,no=50,missing=49
					49:leaf=-0.0142083
					50:leaf=0.010128
		6:[f6<37.5] yes=13,no=14,missing=14
			13:[f0<45.5] yes=27,no=28,missing=28
				27:leaf=-0.0291997
				28:leaf=0.00530325
			14:[f4<199998] yes=29,no=30,missing=30
				29:[f2<10585.5] yes=51,no=52,missing=52
					51:leaf=0.00878166
					52:leaf=0.0374118
				30:[f0<64.5] yes=53,no=54,missing=54
					53:leaf=0.0268949
					54:leaf=-0.0152774
booster[18]:
0:[f2<7055.5] yes=1,no=2,missing=1
	1:[f6<45.5] yes=3,no=4,missing=3
		3:[f4<2901] yes=7,no=8,missing=7
			7:[f6<25.5] yes=15,no=16,missing=15
				15:leaf=-0.04185
				16:[f3<1881.5] yes=31,no=32,missing=31
					31:leaf=-0.0391349
					32:leaf=-0.00580002
			8:[f4<14715] yes=17,no=18,missing=18
				17:[f6<33] yes=33,no=34,missing=33
					33:leaf=-0.0285218
					34:leaf=-0.00364954
				18:[f0<79.5] yes=35,no=36,missing=36
					35:leaf=0.0074246
					36:leaf=-0.0190274
		4:[f4<11.5] yes=9,no=10,missing=9
			9:[f0<29.5] yes=19,no=20,missing=20
				19:[f1<1643.5] yes=37,no=38,missing=37
					37:leaf=-0.0404888
					38:leaf=-0.00398431
				20:[f3<1881.5] yes=39,no=40,missing=39
					39:leaf=-0.0315491
					40:leaf=-0.00276319
			10:[f3<1975.5] yes=21,no=22,missing=21
				21:[f1<1587.5] yes=41,no=42,missing=42
					41:leaf=-0.043223
					42:leaf=-0.0113327
				22:[f4<61.5] yes=43,no=44,missing=44
					43:leaf=-0.00706749
					44:leaf=0.0336248
	2:[f2<10041] yes=5,no=6,missing=6
		5:[f2<7937] yes=11,no=12,missing=12
			11:[f6<51] yes=23,no=24,missing=23
				23:[f0<61.5] yes=45,no=46,missing=46
					45:leaf=-0.0336842
					46:leaf=0.0039617
				24:[f4<55] yes=47,no=48,missing=48
					47:leaf=0.0265821
					48:leaf=0.000197745
			12:[f2<9000] yes=25,no=26,missing=26
				25:leaf=-0.0370068
				26:[f5<5] yes=49,no=50,missing=50
					49:leaf=-0.0156822
					50:leaf=0.00758799
		6:[f6<37.5] yes=13,no=14,missing=14
			13:[f2<17537.5] yes=27,no=28,missing=28
				27:leaf=-0.0303428
				28:leaf=0.00404023
			14:[f4<199998] yes=29,no=30,missing=30
				29:[f2<10585.5] yes=51,no=52,missing=52
					51:leaf=0.00862602
					52:leaf=0.0367878
				30:[f0<64.5] yes=53,no=54,missing=54
					53:leaf=0.0263156
					54:leaf=-0.0149148
booster[19]:
0:[f2<7055.5] yes=1,no=2,missing=1
	1:[f6<51.5] yes=3,no=4,missing=3
		3:[f4<722.5] yes=7,no=8,missing=7
			7:[f3<1881.5] yes=15,no=16,missing=15
				15:[f6<25.5] yes=31,no=32,missing=31
					31:leaf=-0.0413759
					32:leaf=-0.0384295
				16:[f6<24] yes=33,no=34,missing=33
					33:leaf=-0.0337178
					34:leaf=-0.00288548
			8:[f6<38.5] yes=17,no=18,missing=17
				17:[f4<8975] yes=35,no=36,missing=36
					35:leaf=-0.0359539
					36:leaf=-0.0133082
				18:[f5<2.5] yes=37,no=38,missing=38
					37:leaf=0.00887159
					38:leaf=-0.0164854
		4:[f4<99.5] yes=9,no=10,missing=9
			9:[f0<31.5] yes=19,no=20,missing=20
				19:[f1<1643.5] yes=39,no=40,missing=39
					39:leaf=-0.0388954
					40:leaf=-0.00524772
				20:[f3<1881.5] yes=41,no=42,missing=41
					41:leaf=-0.0296281
					42:leaf=-0.00242862
			10:[f5<1.5] yes=21,no=22,missing=22
				21:[f4<550] yes=43,no=44,missing=44
					43:leaf=-0.0339322
					44:leaf=-0.0156631
				22:[f4<2250] yes=45,no=46,missing=46
					45:leaf=-0.00739154
					46:leaf=0.0229618
	2:[f2<10041] yes=5,no=6,missing=6
		5:[f2<7937] yes=11,no=12,missing=12
			11:[f2<7364] yes=23,no=24,missing=24
				23:[f4<46] yes=47,no=48,missing=47
					47:leaf=-0.0186979
					48:leaf=0.013573
				24:[f5<12] yes=49,no=50,missing=50
					49:leaf=0.0101548
					50:leaf=-0.015283
			12:[f4<1174] yes=25,no=26,missing=25
				25:[f6<50] yes=51,no=52,missing=52
					51:leaf=-0.00674427
					52:leaf=-0.0342506
				26:leaf=0.00734224
		6:[f6<37.5] yes=13,no=14,missing=14
			13:[f0<45.5] yes=27,no=28,missing=28
				27:leaf=-0.0286002
				28:leaf=0.0053775
			14:[f4<199998] yes=29,no=30,missing=30
				29:[f2<10585.5] yes=53,no=54,missing=54
					53:leaf=0.00847321
					54:leaf=0.036188
				30:[f0<64.5] yes=55,no=56,missing=56
					55:leaf=0.0257529
					56:leaf=-0.0145622
booster[20]:
0:[f6<45.5] yes=1,no=2,missing=1
	1:[f4<2901] yes=3,no=4,missing=3
		3:[f2<9000] yes=7,no=8,missing=7
			7:[f4<49] yes=15,no=16,missing=15
				15:[f3<1881.5] yes=31,no=32,missing=31
					31:leaf=-0.0407351
					32:leaf=-0.0245505
				16:[f6<25.5] yes=33,no=34,missing=33
					33:leaf=-0.0382476
					34:leaf=-0.0259923
			8:[f4<750] yes=17,no=18,missing=17
				17:[f6<38] yes=35,no=36,missing=35
					35:leaf=-0.0210085
					36:leaf=0.0128447
				18:leaf=0.0265288
		4:[f2<5826.5] yes=9,no=10,missing=9
			9:[f4<14715] yes=19,no=20,missing=20
				19:[f6<33] yes=37,no=38,missing=37
					37:leaf=-0.028507
					38:leaf=-0.00329607
				20:[f0<79.5] yes=39,no=40,missing=40
					39:leaf=0.00545901
					40:leaf=-0.0184057
			10:[f2<10585.5] yes=21,no=22,missing=22
				21:leaf=0.0133636
				22:leaf=0.0342672
	2:[f4<11.5] yes=5,no=6,missing=5
		5:[f2<7565.5] yes=11,no=12,missing=11
			11:[f0<34.5] yes=23,no=24,missing=24
				23:[f1<1815] yes=41,no=42,missing=41
					41:leaf=-0.0372732
					42:leaf=0.00211276
				24:[f3<1881.5] yes=43,no=44,missing=43
					43:leaf=-0.0293959
					44:leaf=-0.00109959
			12:[f2<10041] yes=25,no=26,missing=26
				25:[f2<7833] yes=45,no=46,missing=46
					45:leaf=0.0112284
					46:leaf=-0.0271627
				26:[f0<65.5] yes=47,no=48,missing=48
					47:leaf=0.0264303
					48:leaf=-0.0167698
		6:[f2<7073.5] yes=13,no=14,missing=13
			13:[f0<34.5] yes=27,no=28,missing=28
				27:[f0<29.5] yes=49,no=50,missing=50
					49:leaf=-0.0365044
					50:leaf=-0.0203909
				28:[f5<5.5] yes=51,no=52,missing=52
					51:leaf=-0.0142573
					52:leaf=0.00240998
			14:[f2<9953] yes=29,no=30,missing=30
				29:[f0<44.5] yes=53,no=54,missing=54
					53:leaf=-0.00616506
					54:leaf=0.0237201
				30:[f0<41.5] yes=55,no=56,missing=56
					55:leaf=0.021057
					56:leaf=0.0378104
booster[21]:
0:[f6<45.5] yes=1,no=2,missing=1
	1:[f4<2901] yes=3,no=4,missing=3
		3:[f2<9000] yes=7,no=8,missing=7
			7:[f4<49] yes=15,no=16,missing=15
				15:[f3<1881.5] yes=31,no=32,missing=31
					31:leaf=-0.0402675
					32:leaf=-0.0240643
				16:[f6<25.5] yes=33,no=34,missing=33
					33:leaf=-0.0377465
					34:leaf=-0.0254755
			8:[f4<750] yes=17,no=18,missing=17
				17:[f6<38] yes=35,no=36,missing=35
					35:leaf=-0.0204842
					36:leaf=0.0126597
				18:leaf=0.026192
		4:[f2<5826.5] yes=9,no=10,missing=9
			9:[f4<14715] yes=19,no=20,missing=20
				19:[f5<5.5] yes=37,no=38,missing=37
					37:leaf=-0.0277921
					38:leaf=-0.000794169
				20:[f0<79.5] yes=39,no=40,missing=40
					39:leaf=0.00532035
					40:leaf=-0.0180542
			10:[f2<10585.5] yes=21,no=22,missing=22
				21:leaf=0.0130702
				22:leaf=0.0337882
	2:[f4<199998] yes=5,no=6,missing=6
		5:[f2<7073.5] yes=11,no=12,missing=11
			11:[f0<34.5] yes=23,no=24,missing=24
				23:[f0<29.5] yes=41,no=42,missing=42
					41:leaf=-0.036569
					42:leaf=-0.0210438
				24:[f5<5.5] yes=43,no=44,missing=44
					43:leaf=-0.0152439
					44:leaf=0.00189874
			12:[f0<29.5] yes=25,no=26,missing=26
				25:leaf=-0.0294469
				26:[f2<9953] yes=45,no=46,missing=46
					45:leaf=0.0142744
					46:leaf=0.0342544
		6:[f2<7565.5] yes=13,no=14,missing=13
			13:[f0<29.5] yes=27,no=28,missing=28
				27:[f1<1643.5] yes=47,no=48,missing=47
					47:leaf=-0.0388403
					48:leaf=-0.00362735
				28:[f3<1881.5] yes=49,no=50,missing=49
					49:leaf=-0.0299143
					50:leaf=-0.0025049
			14:[f2<14682] yes=29,no=30,missing=30
				29:[f5<4.5] yes=51,no=52,missing=52
					51:leaf=0.0128503
					52:leaf=-0.00688578
				30:[f0<57.5] yes=53,no=54,missing=54
					53:leaf=0.0282684
					54:leaf=0.00173258
booster[22]:
0:[f6<45.5] yes=1,no=2,missing=1
	1:[f4<2901] yes=3,no=4,missing=3
		3:[f2<9000] yes=7,no=8,missing=7
			7:[f6<25.5] yes=15,no=16,missing=15
				15:[f2<7055.5] yes=31,no=32,missing=31
					31:leaf=-0.0399427
					32:leaf=-0.0175547
				16:[f3<1881.5] yes=33,no=34,missing=33
					33:leaf=-0.0370314
					34:leaf=-0.00439855
			8:[f4<750] yes=17,no=18,missing=17
				17:[f6<38] yes=35,no=36,missing=35
					35:leaf=-0.0199759
					36:leaf=0.0124778
				18:leaf=0.0258635
		4:[f2<5826.5] yes=9,no=10,missing=9
			9:[f4<14715] yes=19,no=20,missing=20
				19:[f5<1.5] yes=37,no=38,missing=38
					37:leaf=-0.0032402
					38:leaf=-0.0275493
				20:[f0<79.5] yes=39,no=40,missing=40
					39:leaf=0.0051853
					40:leaf=-0.0177112
			10:[f2<10585.5] yes=21,no=22,missing=22
				21:leaf=0.012784
				22:leaf=0.0333256
	2:[f4<11.5] yes=5,no=6,missing=5
		5:[f2<7565.5] yes=11,no=12,missing=11
			11:[f0<29.5] yes=23,no=24,missing=24
				23:[f1<1643.5] yes=41,no=42,missing=41
					41:leaf=-0.038396
					42:leaf=-0.00355451
				24:[f3<1881.5] yes=43,no=44,missing=43
					43:leaf=-0.029096
					44:leaf=-0.00237861
			12:[f2<10041] yes=25,no=26,missing=26
				25:[f2<7833] yes=45,no=46,missing=46
					45:leaf=0.0108232
					46:leaf=-0.026751
				26:[f0<65.5] yes=47,no=48,missing=48
					47:leaf=0.0254551
					48:leaf=-0.0165218
		6:[f2<7073.5] yes=13,no=14,missing=13
			13:[f3<1975.5] yes=27,no=28,missing=27
				27:[f1<1587.5] yes=49,no=50,missing=50
					49:leaf=-0.0415343
					50:leaf=-0.0100344
				28:[f4<61.5] yes=51,no=52,missing=52
					51:leaf=-0.0066429
					52:leaf=0.033446
			14:[f2<9953] yes=29,no=30,missing=30
				29:[f0<44.5] yes=53,no=54,missing=54
					53:leaf=-0.00620146
					54:leaf=0.0227427
				30:[f0<41.5] yes=55,no=56,missing=56
					55:leaf=0.0200058
					56:leaf=0.0367855
booster[23]:
0:[f6<45.5] yes=1,no=2,missing=1
	1:[f4<2901] yes=3,no=4,missing=3
		3:[f2<9000] yes=7,no=8,missing=7
			7:[f4<49] yes=15,no=16,missing=15
				15:[f3<1881.5] yes=31,no=32,missing=31
					31:leaf=-0.039401
					32:leaf=-0.02304
				16:[f6<25.5] yes=33,no=34,missing=33
					33:leaf=-0.0367719
					34:leaf=-0.0242598
			8:[f4<750] yes=17,no=18,missing=17
				17:[f6<38] yes=35,no=36,missing=35
					35:leaf=-0.0194828
					36:leaf=0.0122988
				18:leaf=0.025543
		4:[f2<5826.5] yes=9,no=10,missing=9
			9:[f4<14715] yes=19,no=20,missing=20
				19:[f6<33] yes=37,no=38,missing=37
					37:leaf=-0.0269486
					38:leaf=-0.00218163
				20:[f0<79.5] yes=39,no=40,missing=40
					39:leaf=0.00505375
					40:leaf=-0.0173762
			10:[f2<10585.5] yes=21,no=22,missing=22
				21:leaf=0.0125048
				22:leaf=0.0328785
	2:[f4<199998] yes=5,no=6,missing=6
		5:[f2<7073.5] yes=11,no=12,missing=11
			11:[f0<34.5] yes=23,no=24,missing=24
				23:[f0<29.5] yes=41,no=42,missing=42
					41:leaf=-0.0355743
					42:leaf=-0.0202233
				24:[f5<5.5] yes=43,no=44,missing=44
					43:leaf=-0.0145353
					44:leaf=0.0021943
			12:[f0<29.5] yes=25,no=26,missing=26
				25:leaf=-0.028873
				26:[f2<9953] yes=45,no=46,missing=46
					45:leaf=0.0136977
					46:leaf=0.0332271
		6:[f2<7565.5] yes=13,no=14,missing=13
			13:[f0<29.5] yes=27,no=28,missing=28
				27:[f1<1643.5] yes=47,no=48,missing=47
					47:leaf=-0.0379048
					48:leaf=-0.0034831
				28:[f3<1881.5] yes=49,no=50,missing=49
					49:leaf=-0.0288175
					50:leaf=-0.00236307
			14:[f2<14682] yes=29,no=30,missing=30
				29:[f5<4.5] yes=51,no=52,missing=52
					51:leaf=0.0124093
					52:leaf=-0.00689727
				30:[f0<57.5] yes=53,no=54,missing=54
					53:leaf=0.0272287
					54:leaf=0.00141774
booster[24]:
0:[f6<45.5] yes=1,no=2,missing=1
	1:[f4<2901] yes=3,no=4,missing=3
		3:[f2<9000] yes=7,no=8,missing=7
			7:[f6<25.5] yes=15,no=16,missing=15
				15:[f2<7055.5] yes=31,no=32,missing=31
					31:leaf=-0.0391215
					32:leaf=-0.0164206
				16:[f3<1881.5] yes=33,no=34,missing=33
					33:leaf=-0.0360965
					34:leaf=-0.0037502
			8:[f4<750] yes=17,no=18,missing=17
				17:[f6<38] yes=35,no=36,missing=35
					35:leaf=-0.0190042
					36:leaf=0.0121229
				18:leaf=0.0252302
		4:[f2<5826.5] yes=9,no=10,missing=9
			9:[f4<14715] yes=19,no=20,missing=20
				19:[f5<5.5] yes=37,no=38,missing=37
					37:leaf=-0.0262704
					38:leaf=0.00031346
				20:[f0<79.5] yes=39,no=40,missing=40
					39:leaf=0.00492563
					40:leaf=-0.0170489
			10:[f2<10585.5] yes=21,no=22,missing=22
				21:leaf=0.0122325
				22:leaf=0.0324459
	2:[f4<199998] yes=5,no=6,missing=6
		5:[f2<7073.5] yes=11,no=12,missing=11
			11:[f1<1587.5] yes=23,no=24,missing=24
				23:[f0<20.5] yes=41,no=42,missing=42
					41:leaf=-0.00988793
					42:leaf=-0.0422689
				24:[f3<1975.5] yes=43,no=44,missing=43
					43:leaf=-0.0103313
					44:leaf=0.0310858
			12:[f0<29.5] yes=25,no=26,missing=26
				25:leaf=-0.0284723
				26:[f2<9953] yes=45,no=46,missing=46
					45:leaf=0.0133138
					46:leaf=0.032724
		6:[f2<7565.5] yes=13,no=14,missing=13
			13:[f0<29.5] yes=27,no=28,missing=28
				27:[f1<1643.5] yes=47,no=48,missing=47
					47:leaf=-0.0374654
					48:leaf=-0.0034131
				28:[f3<1881.5] yes=49,no=50,missing=49
					49:leaf=-0.028288
					50:leaf=-0.00229443
			14:[f2<14682] yes=29,no=30,missing=30
				29:[f5<4.5] yes=51,no=52,missing=52
					51:leaf=0.0120707
					52:leaf=-0.00670337
				30:[f0<57.5] yes=53,no=54,missing=54
					53:leaf=0.0267078
					54:leaf=0.00138574
booster[25]:
0:[f6<45.5] yes=1,no=2,missing=1
	1:[f4<2901] yes=3,no=4,missing=3
		3:[f2<9000] yes=7,no=8,missing=7
			7:[f4<49] yes=15,no=16,missing=15
				15:[f3<1881.5] yes=31,no=32,missing=31
					31:leaf=-0.0386128
					32:leaf=-0.0220623
				16:[f6<25.5] yes=33,no=34,missing=33
					33:leaf=-0.0358678
					34:leaf=-0.0230955
			8:[f4<750] yes=17,no=18,missing=17
				17:[f6<38] yes=35,no=36,missing=35
					35:leaf=-0.0185395
					36:leaf=0.0119498
				18:leaf=0.0249247
		4:[f2<5826.5] yes=9,no=10,missing=9
			9:[f4<14715] yes=19,no=20,missing=20
				19:[f5<1.5] yes=37,no=38,missing=38
					37:leaf=-0.00207158
					38:leaf=-0.0260685
				20:[f0<79.5] yes=39,no=40,missing=40
					39:leaf=0.00480082
					40:leaf=-0.0167292
			10:[f2<10585.5] yes=21,no=22,missing=22
				21:leaf=0.0119668
				22:leaf=0.032027
	2:[f4<11.5] yes=5,no=6,missing=5
		5:[f2<7565.5] yes=11,no=12,missing=11
			11:[f0<34.5] yes=23,no=24,missing=24
				23:[f1<1815] yes=41,no=42,missing=41
					41:leaf=-0.0348778
					42:leaf=0.00351675
				24:[f1<1795] yes=43,no=44,missing=44
					43:leaf=-0.0388158
					44:leaf=-0.0244304
			12:[f2<10041] yes=25,no=26,missing=26
				25:[f2<7833] yes=45,no=46,missing=46
					45:leaf=0.0103491
					46:leaf=-0.0264014
				26:[f0<65.5] yes=47,no=48,missing=48
					47:leaf=0.024137
					48:leaf=-0.0163389
		6:[f2<4668.5] yes=13,no=14,missing=13
			13:[f4<968] yes=27,no=28,missing=28
				27:[f3<1894.5] yes=49,no=50,missing=49
					49:leaf=-0.0159451
					50:leaf=0.017391
				28:[f5<5.5] yes=51,no=52,missing=52
					51:leaf=-0.00416506
					52:leaf=0.0149619
			14:[f2<9953] yes=29,no=30,missing=30
				29:[f0<34.5] yes=53,no=54,missing=54
					53:leaf=-0.0212786
					54:leaf=0.0144896
				30:[f0<41.5] yes=55,no=56,missing=56
					55:leaf=0.0183822
					56:leaf=0.0354059
booster[26]:
0:[f6<45.5] yes=1,no=2,missing=1
	1:[f4<2901] yes=3,no=4,missing=3
		3:[f2<9000] yes=7,no=8,missing=7
			7:[f6<25.5] yes=15,no=16,missing=15
				15:[f2<7055.5] yes=31,no=32,missing=31
					31:leaf=-0.0383738
					32:leaf=-0.0153351
				16:[f3<1881.5] yes=33,no=34,missing=33
					33:leaf=-0.0352252
					34:leaf=-0.00313834
			8:[f4<750] yes=17,no=18,missing=17
				17:[f6<38] yes=35,no=36,missing=35
					35:leaf=-0.018088
					36:leaf=0.0117795
				18:leaf=0.0246262
		4:[f2<5826.5] yes=9,no=10,missing=9
			9:[f4<14715] yes=19,no=20,missing=20
				19:[f5<5.5] yes=37,no=38,missing=37
					37:leaf=-0.0253063
					38:leaf=0.000877309
				20:[f0<79.5] yes=39,no=40,missing=40
					39:leaf=0.00467923
					40:leaf=-0.0164167
			10:[f2<10585.5] yes=21,no=22,missing=22
				21:leaf=0.0117074
				22:leaf=0.031621
	2:[f4<199998] yes=5,no=6,missing=6
		5:[f2<7073.5] yes=11,no=12,missing=11
			11:[f0<34.5] yes=23,no=24,missing=24
				23:[f0<29.5] yes=41,no=42,missing=42
					41:leaf=-0.0344287
					42:leaf=-0.0191188
				24:[f5<5.5] yes=43,no=44,missing=44
					43:leaf=-0.0135646
					44:leaf=0.00270396
			12:[f0<29.5] yes=25,no=26,missing=26
				25:leaf=-0.0277679
				26:[f2<9953] yes=45,no=46,missing=46
					45:leaf=0.0127085
					46:leaf=0.0317863
		6:[f2<7565.5] yes=13,no=14,missing=13
			13:[f0<29.5] yes=27,no=28,missing=28
				27:[f1<1489.5] yes=47,no=48,missing=47
					47:leaf=-0.0367187
					48:leaf=-0.00908302
				28:[f3<1881.5] yes=49,no=50,missing=49
					49:leaf=-0.0272721
					50:leaf=-0.00146947
			14:[f2<14682] yes=29,no=30,missing=30
				29:[f5<4.5] yes=51,no=52,missing=52
					51:leaf=0.0116637
					52:leaf=-0.00670771
				30:[f0<57.5] yes=53,no=54,missing=54
					53:leaf=0.0257443
					54:leaf=0.00109894
booster[27]:
0:[f6<45.5] yes=1,no=2,missing=1
	1:[f4<2901] yes=3,no=4,missing=3
		3:[f2<9000] yes=7,no=8,missing=7
			7:[f4<49] yes=15,no=16,missing=15
				15:[f3<1881.5] yes=31,no=32,missing=31
					31:leaf=-0.0378928
					32:leaf=-0.021126
				16:[f6<25.5] yes=33,no=34,missing=33
					33:leaf=-0.0350242
					34:leaf=-0.0219757
			8:[f4<750] yes=17,no=18,missing=17
				17:[f6<38] yes=35,no=36,missing=35
					35:leaf=-0.0176493
					36:leaf=0.011612
				18:leaf=0.0243346
		4:[f2<5826.5] yes=9,no=10,missing=9
			9:[f4<14715] yes=19,no=20,missing=20
				19:[f6<33] yes=37,no=38,missing=37
					37:leaf=-0.0250554
					38:leaf=-0.000664405
				20:[f0<79.5] yes=39,no=40,missing=40
					39:leaf=0.00456079
					40:leaf=-0.0161111
			10:[f2<10585.5] yes=21,no=22,missing=22
				21:leaf=0.0114543
				22:leaf=0.0312272
	2:[f4<199998] yes=5,no=6,missing=6
		5:[f2<7073.5] yes=11,no=12,missing=11
			11:[f1<1587.5] yes=23,no=24,missing=24
				23:[f0<20.5] yes=41,no=42,missing=42
					41:leaf=-0.00898885
					42:leaf=-0.0411527
				24:[f4<968] yes=43,no=44,missing=44
					43:leaf=-0.0122432
					44:leaf=0.00531381
			12:[f0<29.5] yes=25,no=26,missing=26
				25:leaf=-0.0273977
				26:[f2<9953] yes=45,no=46,missing=46
					45:leaf=0.0123548
					46:leaf=0.0313238
		6:[f2<7565.5] yes=13,no=14,missing=13
			13:[f0<29.5] yes=27,no=28,missing=28
				27:[f1<1489.5] yes=47,no=48,missing=47
					47:leaf=-0.0363268
					48:leaf=-0.00889457
				28:[f1<1795] yes=49,no=50,missing=50
					49:leaf=-0.0380732
					50:leaf=-0.0247193
			14:[f2<14682] yes=29,no=30,missing=30
				29:[f0<37.5] yes=51,no=52,missing=52
					51:leaf=0.018033
					52:leaf=-0.00296358
				30:[f0<55.5] yes=53,no=54,missing=54
					53:leaf=0.0260587
					54:leaf=0.00362574
booster[28]:
0:[f6<45.5] yes=1,no=2,missing=1
	1:[f4<2901] yes=3,no=4,missing=3
		3:[f2<7364] yes=7,no=8,missing=7
			7:[f4<49] yes=15,no=16,missing=15
				15:[f3<1881.5] yes=31,no=32,missing=31
					31:leaf=-0.037573
					32:leaf=-0.0207162
				16:[f6<25.5] yes=33,no=34,missing=33
					33:leaf=-0.0346089
					34:leaf=-0.0215473
			8:[f4<750] yes=17,no=18,missing=17
				17:[f5<5] yes=35,no=36,missing=35
					35:leaf=-0.0204026
					36:leaf=0.0115225
				18:leaf=0.0165789
		4:[f2<5826.5] yes=9,no=10,missing=9
			9:[f4<18239.5] yes=19,no=20,missing=20
				19:[f5<1.5] yes=37,no=38,missing=38
					37:leaf=-0.000985453
					38:leaf=-0.0239471
				20:[f4<20377] yes=39,no=40,missing=40
					39:leaf=0.0145925
					40:leaf=-0.00810126
			10:[f2<10585.5] yes=21,no=22,missing=22
				21:leaf=0.0112072
				22:leaf=0.0308448
	2:[f4<199998] yes=5,no=6,missing=6
		5:[f2<9953] yes=11,no=12,missing=11
			11:[f0<34.5] yes=23,no=24,missing=24
				23:[f0<29.5] yes=41,no=42,missing=42
					41:leaf=-0.0342079
					42:leaf=-0.0179305
				24:[f5<5.5] yes=43,no=44,missing=44
					43:leaf=-0.0124454
					44:leaf=0.003836
			12:[f0<41.5] yes=25,no=26,missing=26
				25:[f0<39.5] yes=45,no=46,missing=46
					45:leaf=0.0228216
					46:leaf=-0.00240015
				26:leaf=0.0343653
		6:[f2<7565.5] yes=13,no=14,missing=13
			13:[f0<29.5] yes=27,no=28,missing=28
				27:[f1<1489.5] yes=47,no=48,missing=47
					47:leaf=-0.0359487
					48:leaf=-0.0087098
				28:[f3<1881.5] yes=49,no=50,missing=49
					49:leaf=-0.0263097
					50:leaf=-0.000675924
			14:[f2<23638] yes=29,no=30,missing=30
				29:[f0<36.5] yes=51,no=52,missing=52
					51:leaf=0.0178431
					52:leaf=0.00246714
				30:[f0<36.5] yes=53,no=54,missing=54
					53:leaf=0.00753671
					54:leaf=0.035188
booster[29]:
0:[f6<50.5] yes=1,no=2,missing=1
	1:[f2<7364] yes=3,no=4,missing=3
		3:[f4<722.5] yes=7,no=8,missing=7
			7:[f3<1881.5] yes=15,no=16,missing=15
				15:[f6<25.5] yes=31,no=32,missing=31
					31:leaf=-0.0374137
					32:leaf=-0.0339965
				16:[f6<12.5] yes=33,no=34,missing=33
					33:leaf=-0.0313163
					34:leaf=-0.000782993
			8:[f6<38.5] yes=17,no=18,missing=17
				17:[f4<8975] yes=35,no=36,missing=36
					35:leaf=-0.0312849
					36:leaf=-0.00953214
				18:[f5<2.5] yes=37,no=38,missing=38
					37:leaf=0.0122013
					38:leaf=-0.0119499
		4:[f4<750] yes=9,no=10,missing=9
			9:[f6<38] yes=19,no=20,missing=19
				19:[f2<15427.5] yes=39,no=40,missing=40
					39:leaf=-0.0260739
					40:leaf=0.00537336
				20:[f6<48.5] yes=41,no=42,missing=42
					41:leaf=0.0218052
					42:leaf=-0.00506495
			10:[f2<10585.5] yes=21,no=22,missing=22
				21:leaf=-0.00147669
				22:leaf=0.0338666
	2:[f4<199998] yes=5,no=6,missing=6
		5:[f2<7073.5] yes=11,no=12,missing=11
			11:[f1<1587.5] yes=23,no=24,missing=24
				23:[f0<20.5] yes=43,no=44,missing=44
					43:leaf=-0.00837787
					44:leaf=-0.0401161
				24:[f0<32.5] yes=45,no=46,missing=46
					45:leaf=-0.0245714
					46:leaf=-0.00383891
			12:[f0<29.5] yes=25,no=26,missing=26
				25:leaf=-0.0265939
				26:[f2<9953] yes=47,no=48,missing=48
					47:leaf=0.0137892
					48:leaf=0.0298226
		6:[f2<5119] yes=13,no=14,missing=13
			13:[f0<29.5] yes=27,no=28,missing=28
				27:[f1<1643.5] yes=49,no=50,missing=49
					49:leaf=-0.0357451
					50:leaf=-0.00267078
				28:[f1<1795] yes=51,no=52,missing=52
					51:leaf=-0.0371635
					52:leaf=-0.0235742
			14:[f2<10041] yes=29,no=30,missing=30
				29:[f2<7833] yes=53,no=54,missing=54
					53:leaf=-0.00108677
					54:leaf=-0.0296462
				30:[f0<66.5] yes=55,no=56,missing=56
					55:leaf=0.0230341
					56:leaf=-0.0196902
booster[30]:
0:[f6<45.5] yes=1,no=2,missing=1
	1:[f4<2901] yes=3,no=4,missing=3
		3:[f2<7364] yes=7,no=8,missing=7
			7:[f4<49] yes=15,no=16,missing=15
				15:[f3<1881.5] yes=31,no=32,missing=31
					31:leaf=-0.0369412
					32:leaf=-0.0199775
				16:[f6<25.5] yes=33,no=34,missing=33
					33:leaf=-0.0338636
					34:leaf=-0.0205813
			8:[f4<750] yes=17,no=18,missing=17
				17:[f5<5] yes=35,no=36,missing=35
					35:leaf=-0.0195971
					36:leaf=0.011495
				18:leaf=0.0160506
		4:[f2<5826.5] yes=9,no=10,missing=9
			9:[f4<29000] yes=19,no=20,missing=20
				19:[f5<1.5] yes=37,no=38,missing=38
					37:leaf=-0.000514265
					38:leaf=-0.0218083
				20:leaf=0.0134194
			10:[f2<10585.5] yes=21,no=22,missing=22
				21:leaf=0.0111652
				22:leaf=0.030072
	2:[f4<11.5] yes=5,no=6,missing=5
		5:[f2<7565.5] yes=11,no=12,missing=11
			11:[f0<34.5] yes=23,no=24,missing=24
				23:[f0<29.5] yes=39,no=40,missing=40
					39:leaf=-0.0350371
					40:leaf=-0.0287807
				24:[f1<1795] yes=41,no=42,missing=42
					41:leaf=-0.036664
					42:leaf=-0.02199
			12:[f2<10041] yes=25,no=26,missing=26
				25:[f2<7833] yes=43,no=44,missing=44
					43:leaf=0.00977889
					44:leaf=-0.0256152
				26:[f0<65.5] yes=45,no=46,missing=46
					45:leaf=0.022168
					46:leaf=-0.0159379
		6:[f2<4668.5] yes=13,no=14,missing=13
			13:[f3<1975.5] yes=27,no=28,missing=27
				27:[f4<968] yes=47,no=48,missing=48
					47:leaf=-0.0140978
					48:leaf=0.0022751
				28:[f4<61.5] yes=49,no=50,missing=50
					49:leaf=-0.00627107
					50:leaf=0.0326404
			14:[f2<9953] yes=29,no=30,missing=30
				29:[f2<4973.5] yes=51,no=52,missing=52
					51:leaf=0.0411076
					52:leaf=0.00304925
				30:[f0<41.5] yes=53,no=54,missing=54
					53:leaf=0.0159662
					54:leaf=0.0333928
booster[31]:
0:[f6<45.5] yes=1,no=2,missing=1
	1:[f4<2901] yes=3,no=4,missing=3
		3:[f2<7364] yes=7,no=8,missing=7
			7:[f4<49] yes=15,no=16,missing=15
				15:[f3<1881.5] yes=31,no=32,missing=31
					31:leaf=-0.0366433
					32:leaf=-0.0195905
				16:[f6<25.5] yes=33,no=34,missing=33
					33:leaf=-0.0335105
					34:leaf=-0.0201791
			8:[f0<58.5] yes=17,no=18,missing=18
				17:[f6<38] yes=35,no=36,missing=35
					35:leaf=-0.029726
					36:leaf=0.00641294
				18:[f2<11141.5] yes=37,no=38,missing=38
					37:leaf=-0.011044
					38:leaf=0.0207225
		4:[f2<5826.5] yes=9,no=10,missing=9
			9:[f4<14715] yes=19,no=20,missing=20
				19:[f5<5.5] yes=39,no=40,missing=39
					39:leaf=-0.0231469
					40:leaf=0.00281503
				20:[f0<79.5] yes=41,no=42,missing=42
					41:leaf=0.00520475
					42:leaf=-0.0151288
			10:[f2<10585.5] yes=21,no=22,missing=22
				21:leaf=0.010925
				22:leaf=0.0297214
	2:[f4<199998] yes=5,no=6,missing=6
		5:[f2<7073.5] yes=11,no=12,missing=11
			11:[f1<1587.5] yes=23,no=24,missing=24
				23:[f0<20.5] yes=43,no=44,missing=44
					43:leaf=-0.00801522
					44:leaf=-0.0395732
				24:[f3<1975.5] yes=45,no=46,missing=45
					45:leaf=-0.00847947
					46:leaf=0.0301502
			12:[f0<29.5] yes=25,no=26,missing=26
				25:leaf=-0.026223
				26:[f2<9953] yes=47,no=48,missing=48
					47:leaf=0.01179
					48:leaf=0.0296416
		6:[f2<7565.5] yes=13,no=14,missing=13
			13:[f0<29.5] yes=27,no=28,missing=28
				27:[f1<1489.5] yes=49,no=50,missing=49
					49:leaf=-0.0348937
					50:leaf=-0.00746876
				28:[f3<1881.5] yes=51,no=52,missing=51
					51:leaf=-0.0249505
					52:leaf=0.000714166
			14:[f2<23638] yes=29,no=30,missing=30
				29:[f0<36.5] yes=53,no=54,missing=54
					53:leaf=0.0168944
					54:leaf=0.00210068
				30:[f0<36.5] yes=55,no=56,missing=56
					55:leaf=0.00680617
					56:leaf=0.0341961
booster[32]:
0:[f6<45.5] yes=1,no=2,missing=1
	1:[f4<2901] yes=3,no=4,missing=3
		3:[f2<7364] yes=7,no=8,missing=7
			7:[f6<25.5] yes=15,no=16,missing=15
				15:[f0<40.5] yes=31,no=32,missing=31
					31:leaf=-0.0370666
					32:leaf=-0.0351634
				16:[f4<47.5] yes=33,no=34,missing=33
					33:leaf=-0.0337409
					34:leaf=-0.0197842
			8:[f4<750] yes=17,no=18,missing=17
				17:[f5<5] yes=35,no=36,missing=35
					35:leaf=-0.0189155
					36:leaf=0.0114287
				18:leaf=0.0157683
		4:[f2<5826.5] yes=9,no=10,missing=9
			9:[f4<14715] yes=19,no=20,missing=20
				19:[f6<33] yes=37,no=38,missing=37
					37:leaf=-0.0229176
					38:leaf=0.00079068
				20:[f0<79.5] yes=39,no=40,missing=40
					39:leaf=0.00507275
					40:leaf=-0.0148512
			10:[f2<10585.5] yes=21,no=22,missing=22
				21:leaf=0.0106905
				22:leaf=0.0293799
	2:[f4<11.5] yes=5,no=6,missing=5
		5:[f2<7565.5] yes=11,no=12,missing=11
			11:[f0<34.5] yes=23,no=24,missing=24
				23:[f0<29.5] yes=41,no=42,missing=42
					41:leaf=-0.0343595
					42:leaf=-0.0279537
				24:[f1<1795] yes=43,no=44,missing=44
					43:leaf=-0.0359231
					44:leaf=-0.0210853
			12:[f2<10041] yes=25,no=26,missing=26
				25:[f2<7833] yes=45,no=46,missing=46
					45:leaf=0.00936065
					46:leaf=-0.0252388
				26:[f0<65.5] yes=47,no=48,missing=48
					47:leaf=0.0214639
					48:leaf=-0.0156765
		6:[f2<4668.5] yes=13,no=14,missing=13
			13:[f4<968] yes=27,no=28,missing=28
				27:[f3<1894.5] yes=49,no=50,missing=49
					49:leaf=-0.0137788
					50:leaf=0.0171809
				28:[f5<2.5] yes=51,no=52,missing=52
					51:leaf=-0.00814494
					52:leaf=0.0103428
			14:[f2<9953] yes=29,no=30,missing=30
				29:[f2<4973.5] yes=53,no=54,missing=54
					53:leaf=0.0404301
					54:leaf=0.00281074
				30:[f0<41.5] yes=55,no=56,missing=56
					55:leaf=0.0151036
					56:leaf=0.0326558
booster[33]:
0:[f6<47.5] yes=1,no=2,missing=1
	1:[f4<2901] yes=3,no=4,missing=3
		3:[f2<9000] yes=7,no=8,missing=7
			7:[f6<25.5] yes=15,no=16,missing=15
				15:[f2<7055.5] yes=31,no=32,missing=31
					31:leaf=-0.0362185
					32:leaf=-0.0122904
				16:[f4<174.5] yes=33,no=34,missing=33
					33:leaf=-0.0330728
					34:leaf=-0.0166715
			8:[f0<41] yes=17,no=18,missing=18
				17:[f6<27.5] yes=35,no=36,missing=35
					35:leaf=-0.0255715
					36:leaf=-0.00516964
				18:[f2<15427.5] yes=37,no=38,missing=38
					37:leaf=-0.00329894
					38:leaf=0.0252337
		4:[f2<5826.5] yes=9,no=10,missing=9
			9:[f6<33] yes=19,no=20,missing=19
				19:[f4<14715] yes=39,no=40,missing=40
					39:leaf=-0.022489
					40:leaf=-0.00381127
				20:[f0<55.5] yes=41,no=42,missing=42
					41:leaf=0.0153004
					42:leaf=-0.00119012
			10:[f2<10585.5] yes=21,no=22,missing=22
				21:leaf=0.0104615
				22:leaf=0.0290471
	2:[f4<199998] yes=5,no=6,missing=6
		5:[f2<7073.5] yes=11,no=12,missing=11
			11:[f1<1587.5] yes=23,no=24,missing=24
				23:[f0<20.5] yes=43,no=44,missing=44
					43:leaf=-0.00766421
					44:leaf=-0.0388376
				24:[f0<30.5] yes=45,no=46,missing=46
					45:leaf=-0.0295948
					46:leaf=-0.00430026
			12:[f0<29.5] yes=25,no=26,missing=26
				25:leaf=-0.0258629
				26:[f2<9953] yes=47,no=48,missing=48
					47:leaf=0.0122705
					48:leaf=0.0286941
		6:[f2<4668.5] yes=13,no=14,missing=13
			13:[f0<29.5] yes=27,no=28,missing=28
				27:[f1<1489.5] yes=49,no=50,missing=49
					49:leaf=-0.0343928
					50:leaf=-0.00658809
				28:[f3<1881.5] yes=51,no=52,missing=51
					51:leaf=-0.0242763
					52:leaf=0.00161523
			14:[f2<10041] yes=29,no=30,missing=30
				29:[f2<4973.5] yes=53,no=54,missing=54
					53:leaf=0.0504078
					54:leaf=-0.00783543
				30:[f0<65.5] yes=55,no=56,missing=56
					55:leaf=0.0202314
					56:leaf=-0.0153815
booster[34]:
0:[f6<45.5] yes=1,no=2,missing=1
	1:[f4<2901] yes=3,no=4,missing=3
		3:[f2<7364] yes=7,no=8,missing=7
			7:[f4<49] yes=15,no=16,missing=15
				15:[f3<1881.5] yes=31,no=32,missing=31
					31:leaf=-0.0358203
					32:leaf=-0.0178511
				16:[f6<25.5] yes=33,no=34,missing=33
					33:leaf=-0.0324491
					34:leaf=-0.0189782
			8:[f5<3.5] yes=17,no=18,missing=17
				17:[f2<15427.5] yes=35,no=36,missing=36
					35:leaf=-0.0252922
					36:leaf=0.0116977
				18:[f2<11099] yes=37,no=38,missing=38
					37:leaf=0.0181731
					38:leaf=-0.00879438
		4:[f2<5826.5] yes=9,no=10,missing=9
			9:[f4<29000] yes=19,no=20,missing=20
				19:[f5<1.5] yes=39,no=40,missing=40
					39:leaf=0.000841898
					40:leaf=-0.0202691
				20:leaf=0.0131244
			10:[f2<10585.5] yes=21,no=22,missing=22
				21:leaf=0.0102377
				22:leaf=0.0287224
	2:[f4<199998] yes=5,no=6,missing=6
		5:[f2<9953] yes=11,no=12,missing=11
			11:[f0<34.5] yes=23,no=24,missing=24
				23:[f0<29.5] yes=41,no=42,missing=42
					41:leaf=-0.0320889
					42:leaf=-0.0160444
				24:[f5<5.5] yes=43,no=44,missing=44
					43:leaf=-0.0111853
					44:leaf=0.00478604
			12:[f0<41.5] yes=25,no=26,missing=26
				25:[f4<675] yes=45,no=46,missing=46
					45:leaf=0.0233227
					46:leaf=-0.000862521
				26:leaf=0.0321928
		6:[f2<4668.5] yes=13,no=14,missing=13
			13:[f0<29.5] yes=27,no=28,missing=28
				27:[f1<1489.5] yes=47,no=48,missing=47
					47:leaf=-0.0341319
					48:leaf=-0.00644875
				28:[f3<1881.5] yes=49,no=50,missing=49
					49:leaf=-0.0239131
					50:leaf=0.00131033
			14:[f2<10041] yes=29,no=30,missing=30
				29:[f2<4973.5] yes=51,no=52,missing=52
					51:leaf=0.0487484
					52:leaf=-0.00785009
				30:[f0<65.5] yes=53,no=54,missing=54
					53:leaf=0.0200049
					54:leaf=-0.0150932
booster[35]:
0:[f6<45.5] yes=1,no=2,missing=1
	1:[f4<2901] yes=3,no=4,missing=3
		3:[f2<7364] yes=7,no=8,missing=7
			7:[f6<25.5] yes=15,no=16,missing=15
				15:[f0<40.5] yes=31,no=32,missing=31
					31:leaf=-0.0363212
					32:leaf=-0.0342921
				16:[f4<47.5] yes=33,no=34,missing=33
					33:leaf=-0.0327695
					34:leaf=-0.0186042
			8:[f0<58.5] yes=17,no=18,missing=18
				17:[f6<38] yes=35,no=36,missing=35
					35:leaf=-0.0285786
					36:leaf=0.00659894
				18:[f2<11141.5] yes=37,no=38,missing=38
					37:leaf=-0.0100462
					38:leaf=0.0201071
		4:[f2<5826.5] yes=9,no=10,missing=9
			9:[f4<8975] yes=19,no=20,missing=20
				19:[f4<5012] yes=39,no=40,missing=40
					39:leaf=-0.0160761
					40:leaf=-0.0328386
				20:[f3<2795] yes=41,no=42,missing=42
					41:leaf=0.0248265
					42:leaf=-0.0115042
			10:[f2<10585.5] yes=21,no=22,missing=22
				21:leaf=0.0100191
				22:leaf=0.0284056
	2:[f4<114] yes=5,no=6,missing=5
		5:[f2<7073.5] yes=11,no=12,missing=11
			11:[f0<34.5] yes=23,no=24,missing=24
				23:[f0<29.5] yes=43,no=44,missing=44
					43:leaf=-0.033508
					44:leaf=-0.0265499
				24:[f1<1756.5] yes=45,no=46,missing=46
					45:leaf=-0.0349984
					46:leaf=-0.0192152
			12:[f2<10041] yes=25,no=26,missing=26
				25:[f2<7833] yes=47,no=48,missing=48
					47:leaf=0.0024704
					48:leaf=-0.0260652
				26:[f0<65.5] yes=49,no=50,missing=50
					49:leaf=0.0221858
					50:leaf=-0.00652357
		6:[f2<4536.5] yes=13,no=14,missing=13
			13:[f3<1894.5] yes=27,no=28,missing=27
				27:[f5<5.5] yes=51,no=52,missing=52
					51:leaf=-0.0125348
					52:leaf=0.00264081
				28:[f0<34] yes=53,no=54,missing=54
					53:leaf=-0.00284945
					54:leaf=0.0297222
			14:[f0<50.5] yes=29,no=30,missing=30
				29:[f4<691] yes=55,no=56,missing=56
					55:leaf=0.021177
					56:leaf=0.00209339
				30:[f0<64.5] yes=57,no=58,missing=58
					57:leaf=0.0326781
					58:leaf=0.00909731
booster[36]:
0:[f6<45.5] yes=1,no=2,missing=1
	1:[f4<2901] yes=3,no=4,missing=3
		3:[f2<7364] yes=7,no=8,missing=7
			7:[f4<49] yes=15,no=16,missing=15
				15:[f3<1881.5] yes=31,no=32,missing=31
					31:leaf=-0.0353205
					32:leaf=-0.0168386
				16:[f6<14.5] yes=33,no=34,missing=33
					33:leaf=-0.0323462
					34:leaf=-0.0197158
			8:[f4<750] yes=17,no=18,missing=17
				17:[f5<5] yes=35,no=36,missing=35
					35:leaf=-0.0179156
					36:leaf=0.0114328
				18:leaf=0.0157009
		4:[f2<5826.5] yes=9,no=10,missing=9
			9:[f4<8975] yes=19,no=20,missing=20
				19:[f4<5012] yes=37,no=38,missing=38
					37:leaf=-0.0157375
					38:leaf=-0.0324458
				20:[f3<2795] yes=39,no=40,missing=40
					39:leaf=0.024386
					40:leaf=-0.0112178
			10:[f2<10585.5] yes=21,no=22,missing=22
				21:leaf=0.00980549
				22:leaf=0.0280961
	2:[f4<199998] yes=5,no=6,missing=6
		5:[f2<9953] yes=11,no=12,missing=11
			11:[f1<1885] yes=23,no=24,missing=24
				23:[f4<1924.5] yes=41,no=42,missing=42
					41:leaf=-0.0357335
					42:leaf=-0.00724156
				24:[f5<5.5] yes=43,no=44,missing=44
					43:leaf=-0.0117996
					44:leaf=0.00235309
			12:[f0<41.5] yes=25,no=26,missing=26
				25:[f4<175] yes=45,no=46,missing=46
					45:leaf=0.0264494
					46:leaf=0.00239127
				26:leaf=0.0316359
		6:[f2<4668.5] yes=13,no=14,missing=13
			13:[f0<29.5] yes=27,no=28,missing=28
				27:[f1<1489.5] yes=47,no=48,missing=47
					47:leaf=-0.033541
					48:leaf=-0.00559975
				28:[f1<1795] yes=49,no=50,missing=50
					49:leaf=-0.0349524
					50:leaf=-0.020954
			14:[f2<10041] yes=29,no=30,missing=30
				29:[f2<4973.5] yes=51,no=52,missing=52
					51:leaf=0.0479017
					52:leaf=-0.0074706
				30:[f0<66.5] yes=53,no=54,missing=54
					53:leaf=0.0187316
					54:leaf=-0.0182871
booster[37]:
0:[f6<47.5] yes=1,no=2,missing=1
	1:[f4<2901] yes=3,no=4,missing=3
		3:[f2<7364] yes=7,no=8,missing=7
			7:[f6<25.5] yes=15,no=16,missing=15
				15:[f0<40.5] yes=31,no=32,missing=31
					31:leaf=-0.0358738
					32:leaf=-0.0337587
				16:[f4<174.5] yes=33,no=34,missing=33
					33:leaf=-0.0318402
					34:leaf=-0.0151754
			8:[f6<38] yes=17,no=18,missing=17
				17:[f0<58.5] yes=35,no=36,missing=36
					35:leaf=-0.0278904
					36:leaf=0.000444715
				18:leaf=0.0162443
		4:[f2<5826.5] yes=9,no=10,missing=9
			9:[f6<33] yes=19,no=20,missing=19
				19:[f4<14715] yes=37,no=38,missing=38
					37:leaf=-0.0210375
					38:leaf=-0.0029502
				20:[f4<3364.5] yes=39,no=40,missing=40
					39:leaf=0.0172878
					40:leaf=0.0009134
			10:[f2<10585.5] yes=21,no=22,missing=22
				21:leaf=0.00959675
				22:leaf=0.0277937
	2:[f4<199998] yes=5,no=6,missing=6
		5:[f0<34.5] yes=11,no=12,missing=12
			11:[f0<29.5] yes=23,no=24,missing=24
				23:[f0<19.5] yes=41,no=42,missing=42
					41:leaf=-0.00812158
					42:leaf=-0.0327286
				24:[f4<412.5] yes=43,no=44,missing=44
					43:leaf=-0.0194491
					44:leaf=0.0026793
			12:[f2<4536.5] yes=25,no=26,missing=25
				25:[f5<5.5] yes=45,no=46,missing=46
					45:leaf=-0.0111762
					46:leaf=0.00418003
				26:[f2<9953] yes=47,no=48,missing=48
					47:leaf=0.0124655
					48:leaf=0.0267922
		6:[f2<4668.5] yes=13,no=14,missing=13
			13:[f0<29.5] yes=27,no=28,missing=28
				27:[f1<1489.5] yes=49,no=50,missing=49
					49:leaf=-0.0332032
					50:leaf=-0.00548021
				28:[f3<1881.5] yes=51,no=52,missing=51
					51:leaf=-0.0226381
					52:leaf=0.00278922
			14:[f2<10041] yes=29,no=30,missing=30
				29:[f2<4973.5] yes=53,no=54,missing=54
					53:leaf=0.0463758
					54:leaf=-0.00703194
				30:[f0<65.5] yes=55,no=56,missing=56
					55:leaf=0.0185727
					56:leaf=-0.0145497
booster[38]:
0:[f6<45.5] yes=1,no=2,missing=1
	1:[f4<2476] yes=3,no=4,missing=3
		3:[f2<5095.5] yes=7,no=8,missing=7
			7:[f4<1109.5] yes=15,no=16,missing=16
				15:[f5<5.5] yes=31,no=32,missing=31
					31:leaf=-0.0305962
					32:leaf=-0.0139629
				16:[f3<1881.5] yes=33,no=34,missing=33
					33:leaf=-0.0348717
					34:leaf=-0.0162914
			8:[f0<61.5] yes=17,no=18,missing=18
				17:[f0<29] yes=35,no=36,missing=36
					35:leaf=-0.000735086
					36:leaf=-0.02317
				18:[f2<11141.5] yes=37,no=38,missing=38
					37:leaf=-0.0102507
					38:leaf=0.0176504
		4:[f2<5826.5] yes=9,no=10,missing=9
			9:[f6<33] yes=19,no=20,missing=19
				19:[f4<9944] yes=39,no=40,missing=40
					39:leaf=-0.0245287
					40:leaf=-0.00837601
				20:[f5<2.5] yes=41,no=42,missing=42
					41:leaf=0.0471231
					42:leaf=-0.0102325
			10:[f4<5206] yes=21,no=22,missing=22
				21:leaf=-0.00250229
				22:[f2<8641] yes=43,no=44,missing=44
					43:leaf=0.0367579
					44:leaf=0.0134801
	2:[f4<11.5] yes=5,no=6,missing=5
		5:[f2<4668.5] yes=11,no=12,missing=11
			11:[f0<29.5] yes=23,no=24,missing=24
				23:[f1<1489.5] yes=45,no=46,missing=45
					45:leaf=-0.0330208
					46:leaf=-0.00536307
				24:[f1<1795] yes=47,no=48,missing=48
					47:leaf=-0.034444
					48:leaf=-0.0199065
			12:[f2<10041] yes=25,no=26,missing=26
				25:[f2<4973.5] yes=49,no=50,missing=50
					49:leaf=0.0449288
					50:leaf=-0.00697828
				26:[f0<65.5] yes=51,no=52,missing=52
					51:leaf=0.0190157
					52:leaf=-0.0142798
		6:[f4<2275] yes=13,no=14,missing=14
			13:[f1<1587.5] yes=27,no=28,missing=28
				27:[f0<21.5] yes=53,no=54,missing=54
					53:leaf=-0.005817
					54:leaf=-0.03757
				28:[f2<4668.5] yes=55,no=56,missing=55
					55:leaf=-0.00736473
					56:leaf=0.0152048
			14:[f5<1.5] yes=29,no=30,missing=30
				29:[f0<60.5] yes=57,no=58,missing=58
					57:leaf=-0.0122907
					58:leaf=0.0164446
				30:[f0<30.5] yes=59,no=60,missing=60
					59:leaf=-0.0296468
					60:leaf=0.0255628
booster[39]:
0:[f6<45.5] yes=1,no=2,missing=1
	1:[f4<2476] yes=3,no=4,missing=3
		3:[f2<5095.5] yes=7,no=8,missing=7
			7:[f0<28.5] yes=15,no=16,missing=15
				15:[f3<2231.5] yes=31,no=32,missing=31
					31:leaf=-0.0354843
					32:leaf=-0.0101904
				16:[f6<5.5] yes=33,no=34,missing=33
					33:leaf=-0.0339947
					34:leaf=-0.0288336
			8:[f0<61.5] yes=17,no=18,missing=18
				17:[f6<20.5] yes=35,no=36,missing=35
					35:leaf=-0.0301391
					36:leaf=-0.0103701
				18:[f2<11141.5] yes=37,no=38,missing=38
					37:leaf=-0.0100145
					38:leaf=0.0173208
		4:[f2<5826.5] yes=9,no=10,missing=9
			9:[f6<33] yes=19,no=20,missing=19
				19:[f4<9944] yes=39,no=40,missing=40
					39:leaf=-0.0241351
					40:leaf=-0.00816021
				20:[f5<2.5] yes=41,no=42,missing=42
					41:leaf=0.0460434
					42:leaf=-0.0100309
			10:[f4<5206] yes=21,no=22,missing=22
				21:leaf=-0.00245893
				22:[f2<8641] yes=43,no=44,missing=44
					43:leaf=0.0361003
					44:leaf=0.0132502
	2:[f4<114] yes=5,no=6,missing=5
		5:[f2<7073.5] yes=11,no=12,missing=11
			11:[f0<34.5] yes=23,no=24,missing=24
				23:[f0<29.5] yes=45,no=46,missing=46
					45:leaf=-0.0323643
					46:leaf=-0.0251394
				24:[f1<1756.5] yes=47,no=48,missing=48
					47:leaf=-0.0336173
					48:leaf=-0.0176247
			12:[f2<10041] yes=25,no=26,missing=26
				25:[f2<7833] yes=49,no=50,missing=50
					49:leaf=0.00288936
					50:leaf=-0.0253804
				26:[f0<65.5] yes=51,no=52,missing=52
					51:leaf=0.0206664
					52:leaf=-0.00618729
		6:[f4<2275] yes=13,no=14,missing=14
			13:[f3<1894.5] yes=27,no=28,missing=27
				27:[f2<4536.5] yes=53,no=54,missing=53
					53:leaf=-0.00800449
					54:leaf=0.0144604
				28:[f0<34] yes=55,no=56,missing=56
					55:leaf=-0.00785105
					56:leaf=0.0325808
			14:[f5<1.5] yes=29,no=30,missing=30
				29:[f0<60.5] yes=57,no=58,missing=58
					57:leaf=-0.0119661
					58:leaf=0.0160211
				30:[f0<30.5] yes=59,no=60,missing=60
					59:leaf=-0.029227
					60:leaf=0.0248505
booster[40]:
0:[f6<47.5] yes=1,no=2,missing=1
	1:[f4<2901] yes=3,no=4,missing=3
		3:[f2<7364] yes=7,no=8,missing=7
			7:[f6<25.5] yes=15,no=16,missing=15
				15:[f0<40.5] yes=31,no=32,missing=31
					31:leaf=-0.0352672
					32:leaf=-0.0330131
				16:[f4<29.5] yes=33,no=34,missing=33
					33:leaf=-0.0312356
					34:leaf=-0.0167087
			8:[f6<38] yes=17,no=18,missing=17
				17:[f0<58.5] yes=35,no=36,missing=36
					35:leaf=-0.0268469
					36:leaf=0.000434882
				18:leaf=0.016181
		4:[f2<5826.5] yes=9,no=10,missing=9
			9:[f6<33] yes=19,no=20,missing=19
				19:[f0<51.5] yes=37,no=38,missing=38
					37:leaf=-0.0319957
					38:leaf=-0.0132607
				20:[f0<55.5] yes=39,no=40,missing=40
					39:leaf=0.015127
					40:leaf=-0.000327486
			10:[f2<10585.5] yes=21,no=22,missing=22
				21:leaf=0.00852631
				22:leaf=0.0272379
	2:[f4<199998] yes=5,no=6,missing=6
		5:[f0<34.5] yes=11,no=12,missing=12
			11:[f0<29.5] yes=23,no=24,missing=24
				23:[f0<19.5] yes=41,no=42,missing=42
					41:leaf=-0.0075392
					42:leaf=-0.0317556
				24:[f4<477] yes=43,no=44,missing=44
					43:leaf=-0.0183089
					44:leaf=0.00318384
			12:[f1<1587.5] yes=25,no=26,missing=26
				25:[f0<53.5] yes=45,no=46,missing=46
					45:leaf=-0.038524
					46:leaf=-0.0194527
				26:[f2<4536.5] yes=47,no=48,missing=47
					47:leaf=-0.00212777
					48:leaf=0.0200378
		6:[f2<4668.5] yes=13,no=14,missing=13
			13:[f0<29.5] yes=27,no=28,missing=28
				27:[f1<1489.5] yes=49,no=50,missing=49
					49:leaf=-0.0323873
					50:leaf=-0.00455275
				28:[f3<1881.5] yes=51,no=52,missing=51
					51:leaf=-0.0214927
					52:leaf=0.00389883
			14:[f2<4973.5] yes=29,no=30,missing=30
				29:leaf=0.044199
				30:[f2<7565.5] yes=53,no=54,missing=54
					53:leaf=-0.013221
					54:leaf=0.00815525
booster[41]:
0:[f6<45.5] yes=1,no=2,missing=1
	1:[f4<2476] yes=3,no=4,missing=3
		3:[f2<5095.5] yes=7,no=8,missing=7
			7:[f4<1109.5] yes=15,no=16,missing=16
				15:[f5<5.5] yes=31,no=32,missing=31
					31:leaf=-0.0296427
					32:leaf=-0.01254
				16:[f3<1881.5] yes=33,no=34,missing=33
					33:leaf=-0.0342328
					34:leaf=-0.0147692
			8:[f0<61.5] yes=17,no=18,missing=18
				17:[f6<20.5] yes=35,no=36,missing=35
					35:leaf=-0.0294315
					36:leaf=-0.0098618
				18:[f2<11141.5] yes=37,no=38,missing=38
					37:leaf=-0.00961828
					38:leaf=0.0169904
		4:[f2<5826.5] yes=9,no=10,missing=9
			9:[f6<33] yes=19,no=20,missing=19
				19:[f4<9944] yes=39,no=40,missing=40
					39:leaf=-0.0234508
					40:leaf=-0.0075382
				20:[f5<2.5] yes=41,no=42,missing=42
					41:leaf=0.0451132
					42:leaf=-0.00993232
			10:[f4<5206] yes=21,no=22,missing=22
				21:leaf=-0.00255593
				22:[f2<8641] yes=43,no=44,missing=44
					43:leaf=0.0353189
					44:leaf=0.0126213
	2:[f4<199998] yes=5,no=6,missing=6
		5:[f1<1885] yes=11,no=12,missing=12
			11:[f4<1924.5] yes=23,no=24,missing=24
				23:[f0<20.5] yes=45,no=46,missing=46
					45:leaf=-0.0049868
					46:leaf=-0.0346364
				24:[f1<1225] yes=47,no=48,missing=48
					47:leaf=-0.0233099
					48:leaf=0.0120272
			12:[f0<34.5] yes=25,no=26,missing=26
				25:[f0<29.5] yes=49,no=50,missing=50
					49:leaf=-0.0294163
					50:leaf=-0.0111367
				26:[f5<5.5] yes=51,no=52,missing=52
					51:leaf=-0.006006
					52:leaf=0.00793391
		6:[f2<4668.5] yes=13,no=14,missing=13
			13:[f0<29.5] yes=27,no=28,missing=28
				27:[f1<1489.5] yes=53,no=54,missing=53
					53:leaf=-0.0321843
					54:leaf=-0.00445448
				28:[f1<1795] yes=55,no=56,missing=56
					55:leaf=-0.0334702
					56:leaf=-0.0189844
			14:[f2<14682] yes=29,no=30,missing=30
				29:[f2<4973.5] yes=57,no=58,missing=58
					57:leaf=0.0428628
					58:leaf=-0.00550087
				30:[f0<55.5] yes=59,no=60,missing=60
					59:leaf=0.0212028
					60:leaf=9.09865e-005
booster[42]:
0:[f6<45.5] yes=1,no=2,missing=1
	1:[f4<2476] yes=3,no=4,missing=3
		3:[f2<5095.5] yes=7,no=8,missing=7
			7:[f6<25.5] yes=15,no=16,missing=15
				15:[f0<40.5] yes=31,no=32,missing=31
					31:leaf=-0.0349017
					32:leaf=-0.0325627
				16:[f3<1881.5] yes=33,no=34,missing=33
					33:leaf=-0.030058
					34:leaf=0.00508753
			8:[f0<61.5] yes=17,no=18,missing=18
				17:[f0<29] yes=35,no=36,missing=36
					35:leaf=-4.98087e-005
					36:leaf=-0.0218521
				18:[f2<13754.5] yes=37,no=38,missing=38
					37:leaf=-0.00805386
					38:leaf=0.0200278
		4:[f2<5826.5] yes=9,no=10,missing=9
			9:[f6<33] yes=19,no=20,missing=19
				19:[f4<9944] yes=39,no=40,missing=40
					39:leaf=-0.0230733
					40:leaf=-0.00734301
				20:[f5<2.5] yes=41,no=42,missing=42
					41:leaf=0.0441243
					42:leaf=-0.00973664
			10:[f4<5206] yes=21,no=22,missing=22
				21:leaf=-0.00251167
				22:[f2<8641] yes=43,no=44,missing=44
					43:leaf=0.0347134
					44:leaf=0.0124056
	2:[f4<199998] yes=5,no=6,missing=6
		5:[f2<9953] yes=11,no=12,missing=11
			11:[f1<1885] yes=23,no=24,missing=24
				23:[f4<1924.5] yes=45,no=46,missing=46
					45:leaf=-0.0335869
					46:leaf=-0.00655988
				24:[f5<5.5] yes=47,no=48,missing=48
					47:leaf=-0.010519
					48:leaf=0.00277439
			12:[f0<41.5] yes=25,no=26,missing=26
				25:[f4<175] yes=49,no=50,missing=50
					49:leaf=0.0254927
					50:leaf=0.000962373
				26:leaf=0.0304527
		6:[f2<4668.5] yes=13,no=14,missing=13
			13:[f0<29.5] yes=27,no=28,missing=28
				27:[f1<1489.5] yes=51,no=52,missing=51
					51:leaf=-0.0319299
					52:leaf=-0.00435824
				28:[f1<1795] yes=53,no=54,missing=54
					53:leaf=-0.0331386
					54:leaf=-0.0186134
			14:[f2<10041] yes=29,no=30,missing=30
				29:[f2<4973.5] yes=55,no=56,missing=56
					55:leaf=0.0415925
					56:leaf=-0.00650181
				30:[f0<66.5] yes=57,no=58,missing=58
					57:leaf=0.0167735
					58:leaf=-0.0175355
booster[43]:
0:[f6<45.5] yes=1,no=2,missing=1
	1:[f4<2476] yes=3,no=4,missing=3
		3:[f2<5095.5] yes=7,no=8,missing=7
			7:[f4<1109.5] yes=15,no=16,missing=16
				15:[f5<5.5] yes=31,no=32,missing=31
					31:leaf=-0.0290188
					32:leaf=-0.0116118
				16:[f3<1881.5] yes=33,no=34,missing=33
					33:leaf=-0.0338394
					34:leaf=-0.0141011
			8:[f0<61.5] yes=17,no=18,missing=18
				17:[f6<20.5] yes=35,no=36,missing=35
					35:leaf=-0.0288702
					36:leaf=-0.00924478
				18:[f2<11141.5] yes=37,no=38,missing=38
					37:leaf=-0.00921019
					38:leaf=0.0164639
		4:[f2<5826.5] yes=9,no=10,missing=9
			9:[f6<33] yes=19,no=20,missing=19
				19:[f4<9944] yes=39,no=40,missing=40
					39:leaf=-0.0227011
					40:leaf=-0.00715263
				20:[f5<2.5] yes=41,no=42,missing=42
					41:leaf=0.0431779
					42:leaf=-0.0095448
			10:[f4<5206] yes=21,no=22,missing=22
				21:leaf=-0.00246818
				22:[f2<8641] yes=43,no=44,missing=44
					43:leaf=0.0341292
					44:leaf=0.0121934
	2:[f4<11.5] yes=5,no=6,missing=5
		5:[f0<31.5] yes=11,no=12,missing=12
			11:[f2<7493] yes=23,no=24,missing=23
				23:[f1<1643.5] yes=45,no=46,missing=45
					45:leaf=-0.030085
					46:leaf=0.000872086
				24:[f5<4.5] yes=47,no=48,missing=48
					47:leaf=0.0311411
					48:leaf=-0.0164623
			12:[f2<4668.5] yes=25,no=26,missing=25
				25:[f1<1795] yes=49,no=50,missing=50
					49:leaf=-0.0326046
					50:leaf=-0.017652
				26:[f2<23638] yes=51,no=52,missing=52
					51:leaf=0.000761516
					52:leaf=0.0278525
		6:[f4<2275] yes=13,no=14,missing=14
			13:[f1<1587.5] yes=27,no=28,missing=28
				27:[f0<21.5] yes=53,no=54,missing=54
					53:leaf=-0.00436339
					54:leaf=-0.0356422
				28:[f3<1939.5] yes=55,no=56,missing=55
					55:leaf=-0.00580232
					56:leaf=0.0281872
			14:[f5<1.5] yes=29,no=30,missing=30
				29:[f0<60.5] yes=57,no=58,missing=58
					57:leaf=-0.0112789
					58:leaf=0.0160507
				30:[f0<30.5] yes=59,no=60,missing=60
					59:leaf=-0.0281071
					60:leaf=0.0241998
booster[44]:
0:[f6<47.5] yes=1,no=2,missing=1
	1:[f4<2476] yes=3,no=4,missing=3
		3:[f2<7364] yes=7,no=8,missing=7
			7:[f6<25.5] yes=15,no=16,missing=15
				15:[f0<40.5] yes=31,no=32,missing=31
					31:leaf=-0.0345639
					32:leaf=-0.0320778
				16:[f3<1975.5] yes=33,no=34,missing=33
					33:leaf=-0.0291086
					34:leaf=0.0137428
			8:[f6<38] yes=17,no=18,missing=17
				17:[f0<59] yes=35,no=36,missing=36
					35:leaf=-0.0255875
					36:leaf=0.000484477
				18:leaf=0.0162172
		4:[f2<5826.5] yes=9,no=10,missing=9
			9:[f6<33] yes=19,no=20,missing=19
				19:[f4<9944] yes=37,no=38,missing=38
					37:leaf=-0.0223341
					38:leaf=-0.00696694
				20:[f5<2.5] yes=39,no=40,missing=40
					39:leaf=0.0422714
					40:leaf=-0.00467616
			10:[f4<5206] yes=21,no=22,missing=22
				21:leaf=-0.00242544
				22:[f2<8641] yes=41,no=42,missing=42
					41:leaf=0.0335651
					42:leaf=0.0119848
	2:[f4<114] yes=5,no=6,missing=5
		5:[f0<34.5] yes=11,no=12,missing=12
			11:[f2<7565.5] yes=23,no=24,missing=23
				23:[f0<29.5] yes=43,no=44,missing=44
					43:leaf=-0.0308762
					44:leaf=-0.023513
				24:[f5<4.5] yes=45,no=46,missing=46
					45:leaf=0.0270327
					46:leaf=-0.00373293
			12:[f2<7073.5] yes=25,no=26,missing=25
				25:[f1<1756.5] yes=47,no=48,missing=48
					47:leaf=-0.0319715
					48:leaf=-0.0157272
				26:[f2<23638] yes=49,no=50,missing=50
					49:leaf=0.00403011
					50:leaf=0.0322974
		6:[f0<30.5] yes=13,no=14,missing=14
			13:[f0<28.5] yes=27,no=28,missing=28
				27:leaf=-0.0294558
				28:[f4<275] yes=51,no=52,missing=52
					51:leaf=-0.0246374
					52:leaf=-0.00335325
			14:[f4<2275] yes=29,no=30,missing=30
				29:[f3<1894.5] yes=53,no=54,missing=53
					53:leaf=-0.00356742
					54:leaf=0.0290051
				30:[f5<1.5] yes=55,no=56,missing=56
					55:leaf=-0.00142243
					56:leaf=0.0231929
booster[45]:
0:[f6<45.5] yes=1,no=2,missing=1
	1:[f4<2476] yes=3,no=4,missing=3
		3:[f2<5095.5] yes=7,no=8,missing=7
			7:[f4<1109.5] yes=15,no=16,missing=16
				15:[f5<5.5] yes=31,no=32,missing=31
					31:leaf=-0.0284081
					32:leaf=-0.0107033
				16:[f3<1881.5] yes=33,no=34,missing=33
					33:leaf=-0.0334695
					34:leaf=-0.0133704
			8:[f0<61.5] yes=17,no=18,missing=18
				17:[f6<20.5] yes=35,no=36,missing=35
					35:leaf=-0.0282217
					36:leaf=-0.00876402
				18:[f2<13754.5] yes=37,no=38,missing=38
					37:leaf=-0.00757004
					38:leaf=0.0194311
		4:[f2<5826.5] yes=9,no=10,missing=9
			9:[f6<33] yes=19,no=20,missing=19
				19:[f4<9944] yes=39,no=40,missing=40
					39:leaf=-0.0219719
					40:leaf=-0.00678585
				20:[f5<2.5] yes=41,no=42,missing=42
					41:leaf=0.0414027
					42:leaf=-0.00926456
			10:[f4<5206] yes=21,no=22,missing=22
				21:leaf=-0.00238346
				22:[f2<8641] yes=43,no=44,missing=44
					43:leaf=0.0330201
					44:leaf=0.0117795
	2:[f4<199998] yes=5,no=6,missing=6
		5:[f0<34.5] yes=11,no=12,missing=12
			11:[f0<29.5] yes=23,no=24,missing=24
				23:[f6<49] yes=45,no=46,missing=46
					45:leaf=-0.00564743
					46:leaf=-0.0291892
				24:[f4<412.5] yes=47,no=48,missing=48
					47:leaf=-0.0174886
					48:leaf=0.00347539
			12:[f2<4536.5] yes=25,no=26,missing=25
				25:[f5<5.5] yes=49,no=50,missing=50
					49:leaf=-0.00977302
					50:leaf=0.00463715
				26:[f2<9953] yes=51,no=52,missing=52
					51:leaf=0.0107627
					52:leaf=0.0254927
		6:[f0<29.5] yes=13,no=14,missing=14
			13:[f2<7073.5] yes=27,no=28,missing=27
				27:[f1<1489.5] yes=53,no=54,missing=53
					53:leaf=-0.0311422
					54:leaf=-0.00334611
				28:[f5<2] yes=55,no=56,missing=56
					55:leaf=0.0251288
					56:leaf=-0.00077299
			14:[f2<4668.5] yes=29,no=30,missing=29
				29:[f3<1881.5] yes=57,no=58,missing=57
					57:leaf=-0.0197594
					58:leaf=0.0058309
				30:[f2<14682] yes=59,no=60,missing=60
					59:leaf=-0.00366781
					60:leaf=0.0165969
booster[46]:
0:[f6<45.5] yes=1,no=2,missing=1
	1:[f4<2476] yes=3,no=4,missing=3
		3:[f2<5095.5] yes=7,no=8,missing=7
			7:[f6<25.5] yes=15,no=16,missing=15
				15:[f0<40.5] yes=29,no=30,missing=29
					29:leaf=-0.0342508
					30:leaf=-0.031686
				16:[f3<1881.5] yes=31,no=32,missing=31
					31:leaf=-0.0289161
					32:leaf=0.00596707
			8:[f0<61.5] yes=17,no=18,missing=18
				17:[f6<20.5] yes=33,no=34,missing=33
					33:leaf=-0.0278995
					34:leaf=-0.00857012
				18:[f2<13754.5] yes=35,no=36,missing=36
					35:leaf=-0.00738645
					36:leaf=0.0191201
		4:[f2<10585.5] yes=9,no=10,missing=9
			9:[f6<33] yes=19,no=20,missing=19
				19:[f4<14715] yes=37,no=38,missing=38
					37:leaf=-0.0185529
					38:leaf=0.000370528
				20:[f5<2.5] yes=39,no=40,missing=40
					39:leaf=0.0405696
					40:leaf=-0.00908195
			10:leaf=0.0278994
	2:[f4<199998] yes=5,no=6,missing=6
		5:[f1<1885] yes=11,no=12,missing=12
			11:[f4<1924.5] yes=21,no=22,missing=22
				21:[f0<21.5] yes=41,no=42,missing=42
					41:leaf=-0.00576596
					42:leaf=-0.0330001
				22:[f1<1225] yes=43,no=44,missing=44
					43:leaf=-0.0227621
					44:leaf=0.0117303
			12:[f0<34.5] yes=23,no=24,missing=24
				23:[f0<29.5] yes=45,no=46,missing=46
					45:leaf=-0.027839
					46:leaf=-0.010002
				24:[f2<4536.5] yes=47,no=48,missing=47
					47:leaf=-0.00154859
					48:leaf=0.0193949
		6:[f0<29.5] yes=13,no=14,missing=14
			13:[f2<7073.5] yes=25,no=26,missing=25
				25:[f1<1489.5] yes=49,no=50,missing=49
					49:leaf=-0.0309037
					50:leaf=-0.0032729
				26:[f5<2] yes=51,no=52,missing=52
					51:leaf=0.0247377
					52:leaf=-0.000755695
			14:[f1<1795] yes=27,no=28,missing=28
				27:[f3<1862] yes=53,no=54,missing=54
					53:leaf=-0.00345838
					54:leaf=-0.031904
				28:[f2<7073.5] yes=55,no=56,missing=55
					55:leaf=-0.0170754
					56:leaf=0.00541545
booster[47]:
0:[f6<45.5] yes=1,no=2,missing=1
	1:[f4<2476] yes=3,no=4,missing=3
		3:[f2<5095.5] yes=7,no=8,missing=7
			7:[f6<25.5] yes=15,no=16,missing=15
				15:[f0<40.5] yes=31,no=32,missing=31
					31:leaf=-0.0341003
					32:leaf=-0.0314794
				16:[f3<1881.5] yes=33,no=34,missing=33
					33:leaf=-0.0286497
					34:leaf=0.00581196
			8:[f0<61.5] yes=17,no=18,missing=18
				17:[f6<20.5] yes=35,no=36,missing=35
					35:leaf=-0.0275845
					36:leaf=-0.00838028
				18:[f4<69] yes=37,no=38,missing=37
					37:leaf=-0.00844967
					38:leaf=0.015889
		4:[f2<5826.5] yes=9,no=10,missing=9
			9:[f6<33] yes=19,no=20,missing=19
				19:[f4<9944] yes=39,no=40,missing=40
					39:leaf=-0.0213117
					40:leaf=-0.00637253
				20:[f5<2.5] yes=41,no=42,missing=42
					41:leaf=0.03977
					42:leaf=-0.0089029
			10:[f2<10585.5] yes=21,no=22,missing=22
				21:[f2<7792] yes=43,no=44,missing=44
					43:leaf=0.0111563
					44:leaf=-0.00538454
				22:leaf=0.0276081
	2:[f4<199998] yes=5,no=6,missing=6
		5:[f1<1885] yes=11,no=12,missing=12
			11:[f4<1924.5] yes=23,no=24,missing=24
				23:[f0<21.5] yes=45,no=46,missing=46
					45:leaf=-0.00568494
					46:leaf=-0.0325506
				24:[f1<1225] yes=47,no=48,missing=48
					47:leaf=-0.0225091
					48:leaf=0.011526
			12:[f0<34.5] yes=25,no=26,missing=26
				25:[f0<29.5] yes=49,no=50,missing=50
					49:leaf=-0.0273897
					50:leaf=-0.00974221
				26:[f5<5.5] yes=51,no=52,missing=52
					51:leaf=-0.00525595
					52:leaf=0.00759532
		6:[f0<29.5] yes=13,no=14,missing=14
			13:[f2<7073.5] yes=27,no=28,missing=27
				27:[f3<2272] yes=53,no=54,missing=53
					53:leaf=-0.0305343
					54:leaf=0.00909014
				28:[f5<2] yes=55,no=56,missing=56
					55:leaf=0.0243548
					56:leaf=-0.000738785
			14:[f1<1795] yes=29,no=30,missing=30
				29:[f3<1862] yes=57,no=58,missing=58
					57:leaf=-0.00341002
					58:leaf=-0.0315895
				30:[f5<4.5] yes=59,no=60,missing=60
					59:leaf=-0.0195347
					60:leaf=-0.0101495
booster[48]:
0:[f6<45.5] yes=1,no=2,missing=1
	1:[f4<49] yes=3,no=4,missing=3
		3:[f2<7364] yes=7,no=8,missing=7
			7:[f3<1881.5] yes=15,no=16,missing=15
				15:[f0<27.5] yes=31,no=32,missing=31
					31:leaf=-0.0340417
					32:leaf=-0.0312791
				16:[f6<37] yes=33,no=34,missing=34
					33:leaf=0.0135546
					34:leaf=-0.0263865
			8:[f5<3.5] yes=17,no=18,missing=17
				17:[f2<15427.5] yes=35,no=36,missing=36
					35:leaf=-0.0289118
					36:leaf=0.00612513
				18:[f2<11099] yes=37,no=38,missing=38
					37:leaf=0.0200192
					38:leaf=-0.0138204
		4:[f2<10585.5] yes=9,no=10,missing=9
			9:[f4<3991.5] yes=19,no=20,missing=20
				19:[f6<4.5] yes=39,no=40,missing=39
					39:leaf=-0.0295976
					40:leaf=-0.0143068
				20:[f0<53] yes=41,no=42,missing=42
					41:leaf=-0.0266373
					42:leaf=-0.00578286
			10:[f4<750] yes=21,no=22,missing=22
				21:leaf=0.0061533
				22:leaf=0.029037
	2:[f4<148] yes=5,no=6,missing=5
		5:[f0<34.5] yes=11,no=12,missing=12
			11:[f2<7565.5] yes=23,no=24,missing=23
				23:[f0<29.5] yes=43,no=44,missing=44
					43:leaf=-0.0299624
					44:leaf=-0.0222355
				24:[f5<4.5] yes=45,no=46,missing=46
					45:leaf=0.0265187
					46:leaf=-0.00351343
			12:[f2<4668.5] yes=25,no=26,missing=25
				25:[f1<1526] yes=47,no=48,missing=48
					47:leaf=-0.0321338
					48:leaf=-0.0146369
				26:[f2<14682] yes=49,no=50,missing=50
					49:leaf=0.000409011
					50:leaf=0.0200097
		6:[f4<2275] yes=13,no=14,missing=14
			13:[f3<1894.5] yes=27,no=28,missing=27
				27:[f5<5.5] yes=51,no=52,missing=52
					51:leaf=-0.00991262
					52:leaf=0.00229911
				28:[f0<34] yes=53,no=54,missing=54
					53:leaf=-0.00691444
					54:leaf=0.0303612
			14:[f5<1.5] yes=29,no=30,missing=30
				29:[f0<60.5] yes=55,no=56,missing=56
					55:leaf=-0.0106623
					56:leaf=0.0160686
				30:[f0<30.5] yes=57,no=58,missing=58
					57:leaf=-0.0265606
					58:leaf=0.0228852
booster[49]:
0:[f6<45.5] yes=1,no=2,missing=1
	1:[f4<49] yes=3,no=4,missing=3
		3:[f2<7364] yes=7,no=8,missing=7
			7:[f3<1881.5] yes=15,no=16,missing=15
				15:[f0<27.5] yes=31,no=32,missing=31
					31:leaf=-0.0339031
					32:leaf=-0.0310796
				16:[f6<37] yes=33,no=34,missing=34
					33:leaf=0.0131777
					34:leaf=-0.0260884
			8:[f5<3.5] yes=17,no=18,missing=17
				17:[f2<15427.5] yes=35,no=36,missing=36
					35:leaf=-0.028436
					36:leaf=0.00601638
				18:[f2<11099] yes=37,no=38,missing=38
					37:leaf=0.01959
					38:leaf=-0.0136296
		4:[f2<10585.5] yes=9,no=10,missing=9
			9:[f4<3991.5] yes=19,no=20,missing=20
				19:[f6<4.5] yes=39,no=40,missing=39
					39:leaf=-0.0293416
					40:leaf=-0.0140136
				20:[f0<53] yes=41,no=42,missing=42
					41:leaf=-0.0262474
					42:leaf=-0.00562871
			10:[f4<750] yes=21,no=22,missing=22
				21:leaf=0.00605986
				22:leaf=0.0287379
	2:[f4<199998] yes=5,no=6,missing=6
		5:[f1<1587.5] yes=11,no=12,missing=12
			11:[f0<21.5] yes=23,no=24,missing=24
				23:leaf=-0.00518439
				24:[f0<53.5] yes=43,no=44,missing=44
					43:leaf=-0.0364653
					44:leaf=-0.0165274
			12:[f2<9953] yes=25,no=26,missing=25
				25:[f3<1975.5] yes=45,no=46,missing=45
					45:leaf=-0.00478953
					46:leaf=0.0289406
				26:[f0<41.5] yes=47,no=48,missing=48
					47:leaf=0.0121122
					48:leaf=0.0294319
		6:[f0<29.5] yes=13,no=14,missing=14
			13:[f2<7073.5] yes=27,no=28,missing=27
				27:[f1<1489.5] yes=49,no=50,missing=49
					49:leaf=-0.0302148
					50:leaf=-0.00186517
				28:[f5<2] yes=51,no=52,missing=52
					51:leaf=0.0239944
					52:leaf=-0.000504661
			14:[f1<1795] yes=29,no=30,missing=30
				29:[f5<5.5] yes=53,no=54,missing=54
					53:leaf=-0.0335369
					54:leaf=-0.025542
				30:[f3<1881.5] yes=55,no=56,missing=55
					55:leaf=-0.0159708
					56:leaf=0.0103753
booster[50]:
0:[f6<45.5] yes=1,no=2,missing=1
	1:[f4<49] yes=3,no=4,missing=3
		3:[f2<7364] yes=7,no=8,missing=7
			7:[f3<1881.5] yes=15,no=16,missing=15
				15:[f0<27.5] yes=31,no=32,missing=31
					31:leaf=-0.0337695
					32:leaf=-0.030883
				16:[f6<37] yes=33,no=34,missing=34
					33:leaf=0.0128131
					34:leaf=-0.0257948
			8:[f5<3.5] yes=17,no=18,missing=17
				17:[f2<15427.5] yes=35,no=36,missing=36
					35:leaf=-0.0279731
					36:leaf=0.00590962
				18:[f2<11099] yes=37,no=38,missing=38
					37:leaf=0.0191722
					38:leaf=-0.0134418
		4:[f2<10585.5] yes=9,no=10,missing=9
			9:[f4<3991.5] yes=19,no=20,missing=20
				19:[f6<4.5] yes=39,no=40,missing=39
					39:leaf=-0.0290883
					40:leaf=-0.0137247
				20:[f0<53] yes=41,no=42,missing=42
					41:leaf=-0.0258646
					42:leaf=-0.00547839
			10:[f0<63.5] yes=21,no=22,missing=22
				21:leaf=0.00625275
				22:leaf=0.0286978
	2:[f4<11.5] yes=5,no=6,missing=5
		5:[f0<31.5] yes=11,no=12,missing=12
			11:[f2<7493] yes=23,no=24,missing=23
				23:[f1<1643.5] yes=43,no=44,missing=43
					43:leaf=-0.0282523
					44:leaf=0.0032845
				24:[f5<4.5] yes=45,no=46,missing=46
					45:leaf=0.0295668
					46:leaf=-0.0156478
			12:[f2<4668.5] yes=25,no=26,missing=25
				25:[f5<4.5] yes=47,no=48,missing=48
					47:leaf=-0.0205382
					48:leaf=-0.0111941
				26:[f2<23638] yes=49,no=50,missing=50
					49:leaf=0.00156927
					50:leaf=0.0270356
		6:[f1<1587.5] yes=13,no=14,missing=14
			13:[f0<22.5] yes=27,no=28,missing=28
				27:leaf=-0.00531582
				28:[f0<53.5] yes=51,no=52,missing=52
					51:leaf=-0.0361357
					52:leaf=-0.0139556
			14:[f2<9953] yes=29,no=30,missing=29
				29:[f3<1975.5] yes=53,no=54,missing=53
					53:leaf=-0.00407258
					54:leaf=0.0277564
				30:[f0<41.5] yes=55,no=56,missing=56
					55:leaf=0.0110546
					56:leaf=0.0288845
booster[51]:
0:[f6<47.5] yes=1,no=2,missing=1
	1:[f4<49] yes=3,no=4,missing=3
		3:[f2<7364] yes=7,no=8,missing=7
			7:[f0<28.5] yes=15,no=16,missing=15
				15:[f3<2231.5] yes=31,no=32,missing=31
					31:leaf=-0.0336209
					32:leaf=-0.0079667
				16:[f6<5.5] yes=33,no=34,missing=33
					33:leaf=-0.0319132
					34:leaf=-0.0264279
			8:[f6<38] yes=17,no=18,missing=17
				17:[f6<35.5] yes=35,no=36,missing=36
					35:leaf=0.000576377
					36:leaf=-0.0212578
				18:leaf=0.0189421
		4:[f2<10585.5] yes=9,no=10,missing=9
			9:[f4<2901] yes=19,no=20,missing=20
				19:[f6<14.5] yes=37,no=38,missing=37
					37:leaf=-0.0282674
					38:leaf=-0.0136974
				20:[f5<5.5] yes=39,no=40,missing=39
					39:leaf=-0.0125117
					40:leaf=0.0153656
			10:[f0<62] yes=21,no=22,missing=22
				21:leaf=0.00622048
				22:leaf=0.0286697
	2:[f4<148] yes=5,no=6,missing=5
		5:[f0<34.5] yes=11,no=12,missing=12
			11:[f2<7565.5] yes=23,no=24,missing=23
				23:[f0<29.5] yes=41,no=42,missing=42
					41:leaf=-0.0291922
					42:leaf=-0.0212209
				24:[f5<4.5] yes=43,no=44,missing=44
					43:leaf=0.0257467
					44:leaf=-0.00301178
			12:[f2<4668.5] yes=25,no=26,missing=25
				25:[f1<1526] yes=45,no=46,missing=46
					45:leaf=-0.0313793
					46:leaf=-0.0135984
				26:[f2<23638] yes=47,no=48,missing=48
					47:leaf=0.00342503
					48:leaf=0.0316488
		6:[f0<30.5] yes=13,no=14,missing=14
			13:[f5<2.5] yes=27,no=28,missing=28
				27:leaf=-0.0331749
				28:[f0<28.5] yes=49,no=50,missing=50
					49:leaf=-0.0233237
					50:leaf=-0.00291403
			14:[f4<2275] yes=29,no=30,missing=30
				29:[f3<1894.5] yes=51,no=52,missing=51
					51:leaf=-0.00244876
					52:leaf=0.0263235
				30:[f5<1.5] yes=53,no=54,missing=54
					53:leaf=-0.000981042
					54:leaf=0.0220196
booster[52]:
0:[f6<45.5] yes=1,no=2,missing=1
	1:[f4<49] yes=3,no=4,missing=3
		3:[f2<4003] yes=7,no=8,missing=7
			7:[f3<1881.5] yes=15,no=16,missing=15
				15:[f0<27.5] yes=31,no=32,missing=31
					31:leaf=-0.0335167
					32:leaf=-0.0305643
				16:[f6<37] yes=33,no=34,missing=34
					33:leaf=0.0130015
					34:leaf=-0.0251611
			8:[f6<35.5] yes=17,no=18,missing=18
				17:[f0<41.5] yes=35,no=36,missing=36
					35:leaf=-0.0172032
					36:leaf=0.0224752
				18:[f2<9567] yes=37,no=38,missing=38
					37:leaf=-0.0264665
					38:leaf=-0.00345157
		4:[f2<5826.5] yes=9,no=10,missing=9
			9:[f4<8975] yes=19,no=20,missing=20
				19:[f6<14.5] yes=39,no=40,missing=39
					39:leaf=-0.026127
					40:leaf=-0.0128386
				20:[f0<80.5] yes=41,no=42,missing=42
					41:leaf=0.00242987
					42:leaf=-0.0246788
			10:[f0<55] yes=21,no=22,missing=22
				21:leaf=-0.0132789
				22:[f2<10585.5] yes=43,no=44,missing=44
					43:leaf=0.00606588
					44:leaf=0.0294022
	2:[f4<199998] yes=5,no=6,missing=6
		5:[f1<1885] yes=11,no=12,missing=12
			11:[f4<1924.5] yes=23,no=24,missing=24
				23:[f0<21.5] yes=45,no=46,missing=46
					45:leaf=-0.00458636
					46:leaf=-0.0311408
				24:[f1<1225] yes=47,no=48,missing=48
					47:leaf=-0.0218947
					48:leaf=0.0115054
			12:[f0<29.5] yes=25,no=26,missing=26
				25:leaf=-0.0261765
				26:[f5<5.5] yes=49,no=50,missing=50
					49:leaf=-0.00595416
					50:leaf=0.00611819
		6:[f0<29.5] yes=13,no=14,missing=14
			13:[f2<7073.5] yes=27,no=28,missing=27
				27:[f1<1489.5] yes=51,no=52,missing=51
					51:leaf=-0.0295614
					52:leaf=-0.000968594
				28:[f5<2] yes=53,no=54,missing=54
					53:leaf=0.0236369
					54:leaf=-2.38939e-005
			14:[f1<1795] yes=29,no=30,missing=30
				29:[f5<5.5] yes=55,no=56,missing=56
					55:leaf=-0.0329316
					56:leaf=-0.0247466
				30:[f5<4.5] yes=57,no=58,missing=58
					57:leaf=-0.0179781
					58:leaf=-0.0085529
booster[53]:
0:[f6<45.5] yes=1,no=2,missing=1
	1:[f4<49] yes=3,no=4,missing=3
		3:[f2<4003] yes=7,no=8,missing=7
			7:[f3<1881.5] yes=15,no=16,missing=15
				15:[f0<27.5] yes=31,no=32,missing=31
					31:leaf=-0.0333971
					32:leaf=-0.0303765
				16:[f6<37] yes=33,no=34,missing=34
					33:leaf=0.0126426
					34:leaf=-0.0248803
			8:[f6<35.5] yes=17,no=18,missing=18
				17:[f0<41.5] yes=35,no=36,missing=36
					35:leaf=-0.0169648
					36:leaf=0.0219199
				18:[f2<9567] yes=37,no=38,missing=38
					37:leaf=-0.0261605
					38:leaf=-0.00337371
		4:[f2<5826.5] yes=9,no=10,missing=9
			9:[f4<8975] yes=19,no=20,missing=20
				19:[f6<14.5] yes=39,no=40,missing=39
					39:leaf=-0.0258455
					40:leaf=-0.0125642
				20:[f0<80.5] yes=41,no=42,missing=42
					41:leaf=0.00236016
					42:leaf=-0.02432
			10:[f0<55] yes=21,no=22,missing=22
				21:leaf=-0.0130651
				22:[f2<10585.5] yes=43,no=44,missing=44
					43:leaf=0.0059233
					44:leaf=0.0290996
	2:[f4<199998] yes=5,no=6,missing=6
		5:[f1<1587.5] yes=11,no=12,missing=12
			11:[f0<21.5] yes=23,no=24,missing=24
				23:leaf=-0.0045221
				24:[f0<53.5] yes=45,no=46,missing=46
					45:leaf=-0.0354338
					46:leaf=-0.0154652
			12:[f0<34.5] yes=25,no=26,missing=26
				25:[f0<29.5] yes=47,no=48,missing=48
					47:leaf=-0.0258726
					48:leaf=-0.00905101
				26:[f2<4536.5] yes=49,no=50,missing=49
					49:leaf=-0.0011705
					50:leaf=0.0179971
		6:[f0<29.5] yes=13,no=14,missing=14
			13:[f2<7073.5] yes=27,no=28,missing=27
				27:[f1<1489.5] yes=51,no=52,missing=51
					51:leaf=-0.0293424
					52:leaf=-0.000946774
				28:[f5<2] yes=53,no=54,missing=54
					53:leaf=0.0232872
					54:leaf=-2.33631e-005
			14:[f1<1795] yes=29,no=30,missing=30
				29:[f5<5.5] yes=55,no=56,missing=56
					55:leaf=-0.0326818
					56:leaf=-0.0244196
				30:[f3<1881.5] yes=57,no=58,missing=57
					57:leaf=-0.0147246
					58:leaf=0.0114949
booster[54]:
0:[f6<45.5] yes=1,no=2,missing=1
	1:[f4<49] yes=3,no=4,missing=3
		3:[f2<4003] yes=7,no=8,missing=7
			7:[f3<1881.5] yes=15,no=16,missing=15
				15:[f0<27.5] yes=31,no=32,missing=31
					31:leaf=-0.0332817
					32:leaf=-0.0301907
				16:[f6<37] yes=33,no=34,missing=34
					33:leaf=0.0122953
					34:leaf=-0.024603
			8:[f6<35.5] yes=17,no=18,missing=18
				17:[f0<41.5] yes=35,no=36,missing=36
					35:leaf=-0.0167298
					36:leaf=0.0213815
				18:[f2<9567] yes=37,no=38,missing=38
					37:leaf=-0.0258585
					38:leaf=-0.00329761
		4:[f2<5826.5] yes=9,no=10,missing=9
			9:[f4<8975] yes=19,no=20,missing=20
				19:[f6<14.5] yes=39,no=40,missing=39
					39:leaf=-0.0255655
					40:leaf=-0.0122941
				20:[f0<80.5] yes=41,no=42,missing=42
					41:leaf=0.00229249
					42:leaf=-0.0239686
			10:[f0<55] yes=21,no=22,missing=22
				21:leaf=-0.0128548
				22:[f2<10585.5] yes=43,no=44,missing=44
					43:leaf=0.00578415
					44:leaf=0.0288035
	2:[f4<148] yes=5,no=6,missing=5
		5:[f0<34.5] yes=11,no=12,missing=12
			11:[f2<7565.5] yes=23,no=24,missing=23
				23:[f0<29.5] yes=45,no=46,missing=46
					45:leaf=-0.0285832
					46:leaf=-0.0204782
				24:[f5<4.5] yes=47,no=48,missing=48
					47:leaf=0.0254534
					48:leaf=-0.00252453
			12:[f2<4668.5] yes=25,no=26,missing=25
				25:[f1<2075] yes=49,no=50,missing=49
					49:leaf=-0.0145608
					50:leaf=0.0418371
				26:[f2<14682] yes=51,no=52,missing=52
					51:leaf=0.00139158
					52:leaf=0.0198373
		6:[f4<2275] yes=13,no=14,missing=14
			13:[f3<1894.5] yes=27,no=28,missing=27
				27:[f5<2.5] yes=53,no=54,missing=54
					53:leaf=-0.0138468
					54:leaf=-6.95239e-005
				28:[f0<34] yes=55,no=56,missing=56
					55:leaf=-0.00748281
					56:leaf=0.028803
			14:[f5<1.5] yes=29,no=30,missing=30
				29:[f0<60.5] yes=57,no=58,missing=58
					57:leaf=-0.0102117
					58:leaf=0.0159768
				30:[f0<30.5] yes=59,no=60,missing=60
					59:leaf=-0.0254167
					60:leaf=0.0217784
booster[55]:
0:[f6<45.5] yes=1,no=2,missing=1
	1:[f4<49] yes=3,no=4,missing=3
		3:[f2<4003] yes=7,no=8,missing=7
			7:[f3<1881.5] yes=15,no=16,missing=15
				15:[f0<27.5] yes=31,no=32,missing=31
					31:leaf=-0.0331703
					32:leaf=-0.0300069
				16:[f6<37] yes=33,no=34,missing=34
					33:leaf=0.0119592
					34:leaf=-0.0243292
			8:[f6<35.5] yes=17,no=18,missing=18
				17:[f0<41.5] yes=35,no=36,missing=36
					35:leaf=-0.0164981
					36:leaf=0.0208593
				18:[f2<9567] yes=37,no=38,missing=38
					37:leaf=-0.0255604
					38:leaf=-0.00322324
		4:[f2<5826.5] yes=9,no=10,missing=9
			9:[f4<8975] yes=19,no=20,missing=20
				19:[f6<14.5] yes=39,no=40,missing=39
					39:leaf=-0.0252871
					40:leaf=-0.0120284
				20:[f0<80.5] yes=41,no=42,missing=42
					41:leaf=0.00222682
					42:leaf=-0.0236243
			10:[f0<55] yes=21,no=22,missing=22
				21:leaf=-0.012648
				22:[f2<10585.5] yes=43,no=44,missing=44
					43:leaf=0.00564835
					44:leaf=0.0285136
	2:[f4<199998] yes=5,no=6,missing=6
		5:[f1<1587.5] yes=11,no=12,missing=12
			11:[f0<21.5] yes=23,no=24,missing=24
				23:leaf=-0.00405848
				24:[f0<53.5] yes=45,no=46,missing=46
					45:leaf=-0.0350697
					46:leaf=-0.0151496
			12:[f2<9953] yes=25,no=26,missing=25
				25:[f5<5.5] yes=47,no=48,missing=48
					47:leaf=-0.00853515
					48:leaf=0.00333102
				26:[f0<41.5] yes=49,no=50,missing=50
					49:leaf=0.011244
					50:leaf=0.0285524
		6:[f0<29.5] yes=13,no=14,missing=14
			13:[f2<7073.5] yes=27,no=28,missing=27
				27:[f1<1489.5] yes=51,no=52,missing=51
					51:leaf=-0.0289138
					52:leaf=-0.000278474
				28:[f5<4.5] yes=53,no=54,missing=54
					53:leaf=0.0165612
					54:leaf=-0.00288829
			14:[f1<1795] yes=29,no=30,missing=30
				29:[f5<5.5] yes=55,no=56,missing=56
					55:leaf=-0.0323326
					56:leaf=-0.0239057
				30:[f5<4.5] yes=57,no=58,missing=58
					57:leaf=-0.0170936
					58:leaf=-0.00764113
booster[56]:
0:[f6<45.5] yes=1,no=2,missing=1
	1:[f4<49] yes=3,no=4,missing=3
		3:[f2<4003] yes=7,no=8,missing=7
			7:[f0<28.5] yes=15,no=16,missing=15
				15:[f3<2231.5] yes=31,no=32,missing=31
					31:leaf=-0.0330368
